T	U	Steps
0.0002984912466382982	-18.52495110038091	7
0.000589048334590558	-21.243263411519475	2
0.0005583890625918861	-21.09749233009979	8
0.00037065248317851604	-18.971811978212312	6
0.0005114404729591848	-20.642101942789584	11
0.0003767259487168996	-18.500851075246636	2
0.0003564698915242101	-19.10159235876287	3
0.0003245559444888571	-18.721462818198184	2
0.000506729417190621	-20.571944738817194	3
0.0005710804862785509	-21.355022727417605	1
0.0005930350385682983	-21.46478665815324	1
0.0005282146564759749	-21.135809996027678	2
0.0005981890448217817	-21.490554616340322	1
0.00035405597269842835	-18.7744276439674	6
0.00044047779174300627	-19.88251820165736	10
0.0004968090499746057	-20.98369541987286	1
0.00047379240950457316	-20.38316105880812	4
0.0005735896684716447	-19.21348226649146	3
0.0003515444451201014	-18.888942524764513	6
0.00045161742121397366	-19.754286185519376	20
0.0004468867821879933	-20.009105228062083	5
0.0005920758238593931	-21.42974842452243	1
0.0003087864982694795	-18.684887568187722	6
0.0005188485710985002	-19.892095869947802	3
0.0005845474463580759	-21.42235211104065	1
0.0005706855647090967	-21.35304827841844	1
0.0003887663638170942	-18.523158330711667	6
0.00032737988218028383	-18.531037168901292	9
0.0005925397748535966	-21.43324720952255	2
0.0005179002234279572	-19.81257804402211	8
0.0005787817308791971	-21.393525852772534	1
0.0004986285259175873	-20.50507896188946	8
0.0003715210057644251	-18.728012620176102	10
0.0003768807101895732	-18.5980442293301	4
0.0003878796330886031	-19.405502971697295	6
0.0005998750883886513	-21.49898415600247	1
0.0004308564873178513	-18.53865466544257	4
0.0003941731311319672	-19.479716549625266	6
0.0005680317164031273	-21.339780104337965	1
0.0003429104555133645	-18.85785035909163	9
0.0005873492384853176	-21.43635994472049	1
0.0003142866154943314	-18.56120929646779	6
0.0004580876755125654	-19.77221509024138	2
0.0005404995058486814	-20.91455305565745	2
0.0005919445028369807	-21.459334418139534	1
0.0005343449024512926	-20.89138883182531	3
0.000504970957334613	-18.553476035029448	6
0.0003523439506099996	-18.67977623146573	6
0.0005522538691256373	-21.1397093356925	9
0.0003024448239169803	-18.531575765871242	10
0.0005550831450535896	-21.15259941886581	4
0.0003508397507214915	-18.888070958730246	8
0.0005634374314643105	-21.316810527589205	1
0.0005848158943600543	-21.42369424307351	1
0.0003613729917381205	-18.553305140860125	6
0.0005837156846545795	-21.418193637080158	1
0.00044435795884076177	-19.909270870353858	2
0.0004793610616198745	-20.89646249615074	1
0.0005734037099670182	-21.36663791139671	1
0.0004453706905220976	-18.64308712910715	4
0.0003743881529645166	-18.717183408782123	3
0.0005300841710584582	-20.868844847151145	2
0.00040338350020888933	-19.640381997552197	10
0.0003759086109644325	-18.98385077296464	12
0.0003844714861982494	-19.160192314648796	4
0.00040993462422121403	-19.684309101269477	9
0.00031137636745501025	-18.532893432088688	2
0.0004383434142117207	-19.050739132164736	11
0.000319584257250147	-18.74253230641827	2
0.0005909217978373536	-21.454221304500933	1
0.0003060846176930591	-18.544014609930805	16
0.0004847644897602726	-19.97721234799419	11
0.000506012268753525	-21.02970781198463	1
0.0005938808152383392	-21.469015201309254	1
0.0005022846608560204	-20.568768009128952	9
0.0004368929019423425	-19.51381798632407	5
0.0005961125988880458	-21.480173221874203	1
0.0004561983830551736	-19.84518816962008	10
0.0005767420446002405	-19.61391436912055	4
0.0005872124859769963	-21.43567623718443	1
0.0005906578085646893	-21.452901464321222	1
0.00044839123582886243	-19.44467254843412	3
0.00043616794547869637	-18.814783839843308	4
0.0005853426654780533	-21.42632788678195	1
0.0005111832846996283	-20.754056522576686	35
0.0004945597263872423	-19.884184027730303	6
0.0005177362237202389	-19.644726098428798	7
0.0003627343636446161	-18.673612941963302	5
0.00034317554120257633	-18.744667350309225	8
0.000532059382077412	-20.94301068488278	9
0.0005815753585895094	-21.407492867651676	1
0.0004023869709162698	-19.721309600735502	5
0.00033120722295696867	-18.676419616301363	4
0.00033900414064369256	-18.70691821650037	2
0.00047539830570831216	-19.825197797787542	7
0.0004216079080548263	-19.361245118210576	16
0.00042127308631685726	-19.84047234064527	7
0.00044853530664567794	-19.332238115465273	23
0.0003013869331879441	-18.524582871630283	9
0.000559136868602482	-21.29530944308244	1
0.0005249974051951146	-20.84126263562998	2
0.0004900749661219493	-20.4351782292001	2
0.00045764605538080555	-20.190985371119904	9
0.0004990424809407949	-20.54321027861207	6
0.0005420831988776211	-21.019131976785328	9
0.00048303415646138776	-20.37549516917305	5
0.00039363939522446664	-18.917624194519323	5
0.0005768260629211604	-21.383748299604754	1
0.0005027496084827649	-20.62788471291835	19
0.0005763240949810869	-21.324833428789372	2
0.0005772049205311644	-21.385642435268025	1
0.0005838457717561396	-21.418844020263418	1
0.00048502964392678857	-20.53178301264896	2
0.00044450091745535183	-20.262994084287648	4
0.0005898177242849382	-21.44870138082702	1
0.0005765543620437391	-21.382389904503068	1
0.0005946706216017202	-21.472963915444737	1
0.00031494656062040646	-18.832820165386398	9
0.000464332078348066	-20.01114573901331	11
0.0004176316279225992	-18.628122405347177	5
0.0005288415296082697	-20.70716549380507	2
0.0005165477150516136	-21.0823808058344	1
0.0005313630759566082	-20.97316680672598	2
0.0004543628593798408	-19.02626167950708	17
0.000531380154517705	-20.188276510540273	5
0.0005048175561964491	-21.023734729744863	1
0.00034287396326464605	-18.881365828553424	2
0.0005585222829136953	-21.22595609876066	12
0.0005049843896668278	-20.852256057120876	18
0.0003509913448945353	-19.37629740470935	3
0.0003657954509125065	-19.18116534745701	6
0.000600015982575869	-21.499688570267118	1
0.0005527859889718662	-21.065796748141793	2
0.0005523168839414042	-21.261212262958836	1
0.0003769913532633182	-19.137816648513144	4
0.0005107935912713411	-20.649598102394037	12
0.0005959841737063393	-21.479531147621746	1
0.0004151546668929493	-18.732949669036678	26
0.0003463983327961415	-18.702027338342766	4
0.0005908902140293129	-21.454063398164593	1
0.0005183772331663642	-21.06599776975322	2
0.000594972599214939	-21.47447368204729	1
0.0005553561111801307	-21.223371123717587	2
0.0005411170741057246	-21.205217718646043	1
0.0005972669956083807	-21.485944741146383	1
0.0005713566975899261	-21.35640367287484	1
0.0005937679833419811	-21.468451087211495	1
0.0005805106941071796	-21.31792034740985	8
0.0005458106394601646	-21.06165518425169	3
0.00035455079259024775	-18.95951990439121	4
0.0005932379060155051	-21.465800913790513	1
0.0004668220125504233	-20.400270697515005	2
0.0005879647097876667	-20.936836832129902	2
0.0004117609093284538	-20.143466529178134	7
0.0005960170829619112	-21.479695680662616	1
0.000540561337605851	-20.5896247058047	7
0.0003628493998211875	-19.045691437625877	5
0.0005736647881311409	-21.367943197204646	1
0.0005627984648059669	-21.27479221276908	1
0.00041065185819033184	-19.867549639785395	5
0.0005002832745958968	-20.680400659512554	3
0.0005639117130244774	-21.3191817446212	1
0.0005417939449623429	-20.958796631401242	2
0.00043618741162188755	-19.077845844966888	6
0.0004904843661919711	-20.410217068514275	6
0.0005109507968877732	-18.754399240073518	10
0.0003833437454640936	-18.76728830928458	26
0.0003699389626094367	-18.969655563317296	6
0.0004900852368622364	-20.64180479594522	19
0.0005231308721268511	-21.059527210938032	3
0.00031605007831090573	-18.555661738585684	11
0.0004106750136739779	-19.609999414125525	3
0.00043426025880104885	-19.97487310638373	7
0.0005247724446935482	-20.012453773834853	3
0.0005958775581291734	-21.478998112619575	1
0.00046083912165351034	-20.034645532420402	8
0.0003302840580846021	-18.884819698975377	4
0.0005786608450499103	-21.39292147224964	1
0.0003110993619594601	-18.84969323355457	4
0.00034992789664772356	-18.926835316236915	11
0.0005521160431417074	-21.260208139743938	1
0.0005779435162167196	-21.389335116612692	1
0.00031048901057782963	-18.61861003434278	2
0.0005547563012106158	-21.27340836810547	1
0.0004645726449506944	-20.822526361104906	1
0.0005973496155663341	-21.486357807704174	1
0.0004826604813840683	-20.395581272585844	5
0.0005530752384216084	-21.26500373032923	1
0.0005876020918719026	-21.43762410994896	1
0.00042581274028685213	-19.360954320432747	10
0.00030680493617300634	-18.58543074085766	8
0.00031443245544046715	-18.71454212631592	9
0.0004499211260864722	-20.103575829684004	6
0.0005740471551864508	-21.36985487868285	1
0.0005974355645744844	-21.486787518173916	1
0.0005652327271696059	-21.170683924800198	3
0.0005896481503594832	-21.447853579406953	1
0.00035118867061814825	-18.761096983914396	9
0.0005808298201593229	-21.30840675816084	2
0.0004933480321073998	-19.195744817960126	3
0.0005184877277301969	-20.977761450360305	3
0.000581069130759945	-21.404961932122344	1
0.0003488870678578986	-18.50193715686768	3
0.00043197826239593383	-19.65887409153495	3
0.0005728437453126209	-21.36383831335761	1
0.0005977842039439167	-21.488530574788918	1
0.0005454354234762913	-20.199935988784965	6
0.0004666691316389118	-20.18049035916406	5
0.0005779136357688413	-21.38918572639202	1
0.00041449625360340703	-19.24575501894753	12
0.0003160637247334276	-18.571253516419336	8
0.0005816433720205793	-21.35642724210216	2
0.00043365114424227	-20.26597223230135	2
0.00031330901201660755	-18.54548815044981	2
0.00030549635726431903	-18.58479895585249	4
0.00042813396746381265	-19.651545764766333	15
0.0003372332424869797	-18.795509945621465	6
0.00041825681143802126	-19.085730816690248	11
0.0004724208924818867	-19.594133957193954	5
0.00047265550125117576	-20.410677165114354	4
0.0004394980491599477	-20.455832711411137	2
0.00047177679330078366	-18.710365232185698	4
0.0005809975077069457	-21.404603845666074	1
0.0006000223982247338	-21.499720645930893	1
0.0005865985361817255	-21.432606735155243	1
0.0005815272074310381	-21.40725213122702	1
0.0003840252624636736	-19.25566882082608	12
0.0005797009541236057	-21.398121599258197	1
0.0005395159468492535	-19.815237858454182	7
0.0005704483726033599	-19.517456367498824	3
0.000582096720155694	-21.410099465776916	1
0.0005745200674869374	-21.25043442442871	5
0.0005793694424652687	-21.39646417430944	1
0.0005808717751360878	-21.403975233384813	1
0.0005054442258105412	-20.576672996427337	3
0.000558280748100764	-21.2208315545996	2
0.0005790975610918228	-21.395104876800232	1
0.0004052230338851585	-19.19571234260801	9
0.0005893431278848928	-21.446328589722267	1
0.00037264939210627796	-19.203078398596748	17
0.0004415904583627099	-18.63005296459408	4
0.00037964552787100885	-19.363957878976606	8
0.0005644065112782758	-21.32165553686899	1
0.00043427422502752554	-19.401551992746764	5
0.0003224098971905024	-18.55037890957851	13
0.0005411878353224388	-21.187522308639725	2
0.0004460978087287236	-20.020471640783732	9
0.00044846519464683516	-19.821804390835368	6
0.0005112598538755242	-20.695809838371325	2
0.00040417008491710387	-19.35861527578468	3
0.00045281505279003343	-20.146408210058166	8
0.000435554245685265	-19.99480643053748	8
0.00042729118366238646	-18.700741763133436	8
0.0005522042434877302	-21.260649105997494	1
0.0004477663071616722	-20.00760783443539	11
0.0005198699905390018	-20.748259956539506	11
0.0004321881184432313	-19.920694033920093	12
0.000320878890740782	-18.65955003740611	7
0.000562733278797193	-21.313290047482813	1
0.00044510951572345196	-19.58786717907925	6
0.0005713037508261186	-21.35613896035242	1
0.0005947457827508556	-21.47333969095857	1
0.00048148121184410657	-20.465212281163762	4
0.0005903375177509749	-21.451300139082253	1
0.0003633789738660798	-18.65048996317462	2
0.0004840368057115225	-20.377500261148725	7
0.00037420830661767977	-19.040699018503666	9
0.00043644837699697154	-19.74296570522045	6
0.0005960809334763469	-21.480014907552395	1
0.00047502276496785644	-19.714562131260756	7
0.0005892183667880568	-21.44570483442037	1
0.0005163624821031696	-20.716013391497903	4
0.0005904775593483739	-21.45200029074074	1
0.00032311928738619727	-18.6172998677186	8
0.0005458334313675372	-20.357496432815655	16
0.0005719180962713995	-21.359210440472516	1
0.0003553047259904397	-19.03977690869377	4
0.0005866192824615874	-21.43271045820984	1
0.0005793138496258441	-21.396186232473255	1
0.00045990110138334115	-20.799170522288964	1
0.0005458406271546488	-20.959473367088748	4
0.0005625565952353815	-21.31240670074065	1
0.00048691038945689985	-20.463540097602873	3
0.0005706323155085962	-21.352782053834204	1
0.00047101444080221484	-20.502495978491364	2
0.0005987357710484762	-21.49328802756576	1
0.0005366047337223804	-20.912658902733234	3
0.000598555897585596	-21.492388732601317	1
0.0005842944898997079	-21.421087430494715	1
0.0005657741840683096	-21.32849335070427	1
0.00045930536400588774	-19.97472368587255	16
0.0005551272479147746	-21.096225218968605	2
0.0005532829733839578	-20.7518659631596	3
0.0005100036336331315	-20.627018549110318	6
0.00031850985632239464	-18.69990998077951	6
0.0005976949113549075	-21.48808414775976	1
0.0005851627718444731	-21.425428490972124	1
0.0004202202854868653	-19.54708422895332	9
0.00038922386865809767	-19.575109040270394	5
0.0005875418071466396	-21.43732271057079	1
0.000372957858975414	-19.013784036301317	23
0.0005935839782836636	-21.467531135931704	1
0.0004896052122994269	-18.651651742392577	7
0.0005904196564201479	-21.45171079938973	1
0.0003985848055801096	-19.331279392791245	8
0.0005908757380224388	-21.453991023952863	1
0.0004033645750835188	-18.739953946201197	6
0.0005906706185364223	-21.45296550902737	1
0.0005440471967718503	-21.2198671534023	1
0.0005535113751428328	-21.267184238509397	1
0.00045085219555335596	-20.09481086958043	4
0.0005504170724182501	-21.251713969498503	1
0.0005301952305689358	-20.942409097584978	2
0.0005968774502413894	-21.48399717099708	1
0.0005852028754230581	-21.394853014965538	2
0.0005311193632789622	-20.88539107500264	6
0.0005927965300866695	-20.650067413472826	2
0.0003999730121899248	-19.582562050263565	29
0.0004200874560519944	-19.826606915066428	5
0.00038892597412870124	-19.068369638175433	9
0.00042288996860736675	-19.83722908918023	17
0.0005558470458779536	-19.90125757125625	7
0.0005516769252468136	-21.214335777241647	2
0.00044210196745611644	-19.122714841828817	10
0.0005867305281198585	-21.433266641755193	1
0.00030709589912666485	-18.560405129595104	12
0.00032707433767412646	-18.67275186536738	8
0.0005376018264785365	-20.96212554763975	3
0.0005913321444266507	-21.456272872394955	1
0.00056797075019098	-21.33947529779948	1
0.0005999831306410781	-21.499524323807098	1
0.00046878040344915404	-18.596000838056106	7
0.000587993040387334	-21.439578695276083	1
0.0005729384796274385	-21.364311946827005	1
0.0005534916520198942	-21.26708563082788	1
0.000495971080920702	-20.636967939815875	8
0.0005856043606130418	-21.38271030217893	2
0.0005880493231730807	-21.439860086566362	1
0.000506741690298131	-20.59493701870599	14
0.0004428268254198391	-18.59289423295929	17
0.00044895853424562995	-19.394531472373693	2
0.0005312577432185679	-20.850858696509356	4
0.0005853148717707595	-21.426188929424864	1
0.0005478573882778025	-21.23891657837027	1
0.0005907845276788983	-21.45353500892242	1
0.0004151078786017631	-18.771495566640347	3
0.00043865912130982724	-20.203914657306214	2
0.0005122280049349685	-20.173938208050608	10
0.0003075482367117253	-18.579326251692756	9
0.0003797868296534568	-19.378956016598796	5
0.000565221491485326	-21.325730110097222	1
0.000356249385046838	-19.037878628338525	13
0.00034326538723923237	-18.699611859981882	9
0.00040789777158175373	-19.277264350197164	4
0.00038081227222791915	-18.732266424439715	4
0.0003738052006094929	-18.948731334578266	10
0.0004029076079176492	-18.745385827716472	2
0.00036133467122407214	-18.6015253474005	9
0.0005018062875583117	-21.008679597767646	1
0.0003898181290438993	-18.570323655816182	10
0.0005568407245287928	-21.283829646285074	1
0.0005780739997928282	-21.38998748200922	1
0.0005922521072149707	-21.46087231630271	1
0.000571140199792108	-21.355321270967007	1
0.0004843095580369091	-20.343760515741334	4
0.0005314627854753643	-20.204864580610554	6
0.0005901941800146045	-21.450583508054706	1
0.0004956264394404202	-20.561069087210267	16
0.0005689536723133378	-20.376786368416067	5
0.0005684986058139872	-21.34211436359675	1
0.00044052028268438465	-19.896864249247542	3
0.00035648514010568164	-19.067764717731798	4
0.0004867547302466674	-20.421680600108047	6
0.0005900245379757302	-21.449735366094938	1
0.0005493983209212315	-21.246620621782743	1
0.00045228647775295876	-18.6688539399737	9
0.0005716455656116826	-19.558029017476407	30
0.0005964562326754436	-21.481891252592415	1
0.0005058361841240428	-20.93840993221377	3
0.0005836740706168664	-21.396997170795565	2
0.0004973306814959078	-19.57092280291626	6
0.0005937900954815195	-21.468561639015086	1
0.0003776231348722015	-19.495378200476676	3
0.0003455524798163812	-18.921673946787894	10
0.0005430683431047681	-20.19889246236801	6
0.0005630721851631887	-21.17731940331932	3
0.0005816772833703699	-21.40800245055909	1
0.0005456324825804496	-21.227792944800587	1
0.0003896220514271897	-19.544873186940848	7
0.0005998883034120126	-21.49905022580384	1
0.0005669126569102037	-21.334185256989258	1
0.00047946702960402975	-19.833687565418973	2
0.0005768044861423559	-21.383640424389494	1
0.0005962910430751799	-21.48106537103481	1
0.0005834582709979114	-21.416906672335532	1
0.0005931671927358942	-21.465447375835247	1
0.0005993388354866271	-21.49630310718773	1
0.0005915957065374914	-21.45759057693737	1
0.0005736964911627571	-21.14646340449855	2
0.0005988385047591566	-21.493801654796894	1
0.0003516420662021316	-18.585073899175306	3
0.00047678635002785743	-20.18133610483321	5
0.0003495297522419713	-18.81517165186918	18
0.0005636542627569565	-21.31789459683704	1
0.0002806427542567049	-18.532762374411394	15
0.0003048101028746149	-18.5069023445918	10
0.00047231322124450804	-20.56450008261792	2
0.0005997269985207822	-21.498243766228864	1
0.00039658237944911436	-19.31442390006225	3
0.0005698955230263945	-21.349098387781005	1
0.0003227431878762366	-18.543606221242555	5
0.0005555180594837436	-21.277216853071387	1
0.000525522371399685	-20.282140314988006	3
0.000514421133573686	-20.72315384489491	2
0.0005718413526324199	-21.35882675314598	1
0.000568319883875202	-21.185354151482024	5
0.0004935731481304376	-19.527657730560804	4
0.0005021062209444483	-21.01017914405703	1
0.0004961483179180354	-20.783019823431278	6
0.00039339546588806743	-19.550548235544728	19
0.0005989849867778477	-21.494534005971328	1
0.0005632896741718967	-21.316071800559104	1
0.0005016809009341004	-18.853082024711856	6
0.0003272933570446753	-19.032263776245752	5
0.0005836695516737308	-21.41796299073184	1
0.00047392648175429043	-20.136710247374	10
0.00043922809886432884	-19.74232619423213	24
0.0005900416504841087	-21.449820921753716	1
0.0005816266195759333	-21.40774915196525	1
0.0005815674045773685	-21.407453100790292	1
0.0005841273024384938	-21.42025156043595	1
0.0004391968671193141	-19.144966097522584	7
0.0005171075015505315	-20.727628963397372	13
0.00045429293705736087	-19.317995647687876	9
0.0005851263620937847	-21.425246456863665	1
0.0005915378640151369	-21.457301387591418	1
0.0004886717756007494	-20.581189736888092	4
0.0005676945052207412	-21.338094184061468	1
0.0004961327787644256	-19.327418885103718	9
0.0003207437082127904	-18.716575554688177	4
0.0005557037970707269	-21.278145466297634	1
0.0005926989312002264	-21.46310625650433	1
0.0003789350093996509	-18.651589144822793	9
0.0003372821738014515	-18.91474770036658	4
0.00023851897757005183	-18.65741684025552	9
0.0005436559275110945	-20.013318051372394	5
0.0003781970527331231	-19.299619713114133	5
0.0005158314524412635	-21.078799780882793	1
0.00047898819182404543	-20.319206289132236	22
0.0005715722659618098	-21.357481428026848	1
0.0005187109209383101	-20.363164365786552	14
0.0004231986182205577	-19.821378900945163	31
0.0005824220672154856	-21.411726070212513	1
0.0005605354699336526	-21.302301887183113	1
0.00038755613673645235	-19.024172566282083	6
0.00043567267549897524	-19.326748955207282	19
0.0004535987781543259	-20.25173484267115	17
0.00036280135865013693	-18.672666341808153	11
0.0004179322045765734	-19.262154922005248	5
0.0005532925104772234	-21.266090003214625	1
0.0003509913280984261	-18.69157254605825	40
0.0005826514262292943	-21.385362365663266	2
0.0003063070725501882	-18.610590292789546	7
0.0005315679012975278	-20.938735663884362	5
0.00043391569550108066	-19.46650925325021	4
0.00035799313683869947	-18.96673411678252	3
0.0005407621129681599	-21.203443055733164	1
0.0005904906870622541	-21.45206592402982	1
0.0005989715867588406	-21.494467011266142	1
0.0004031324170106495	-18.823379358525525	6
0.0005624020440150066	-21.311634006803445	1
0.0004205696799693407	-19.05496031234475	13
0.0005501361770534848	-21.25030960565837	1
0.0005752739701482949	-21.375988460034	1
0.0005752814818780983	-21.288365342563278	9
0.0005917392959718983	-21.45830846635386	1
0.0004515082142654881	-19.374474917021928	11
0.00033554264072252016	-18.855967157442933	4
0.0005839391564428961	-21.419310906135358	1
0.000541095507116397	-19.06429415903871	3
0.0005830987527486308	-21.415109225697066	1
0.00040605852623309756	-18.80289486371683	9
0.0005683291924805121	-21.341267365071985	1
0.00043348305270363857	-19.907541941379247	12
0.00059460631995321	-21.472642433066042	1
0.0004777852294756209	-19.082553500202284	2
0.0005725225553989163	-21.286506005456914	2
0.0003809084561095341	-19.04755467011923	18
0.0004027154888855434	-19.724150265276375	2
0.0005243520151915735	-20.094449059993327	7
0.0003568627571924629	-18.787564800001256	8
0.0005552693049901415	-21.275973180659143	1
0.0005977596685856933	-21.488407907866584	1
0.0003698296791370908	-19.44340084454005	7
0.0005806631092726772	-21.4029319879988	1
0.0003627298869801375	-18.605008732830207	5
0.0005854710689112711	-21.42696985230072	1
0.0005648031451436487	-21.323638546659016	1
0.0005472775162224267	-21.23601745133357	1
0.00046630032573563384	-18.74507781826367	14
0.0003174143218082632	-18.980580451808304	2
0.0005021740782158868	-19.662045814172277	8
0.0005915144251346858	-21.457184202616915	1
0.0005859898604405594	-21.391253037109383	2
0.0005898192052346887	-21.084893201679687	11
0.0005634592750759646	-21.270925922122426	3
0.0005406991824490552	-19.732365266465393	10
0.0004549029713456701	-19.935018067809875	9
0.0005771618954265337	-21.385427327050728	1
0.0005813118934836436	-21.40617564809512	1
0.0005632226084670279	-21.31573649901039	1
0.0005919654807063399	-21.45943929904847	1
0.000594897909675919	-21.474100264394338	1
0.0005504214029759856	-19.468266839346082	4
0.0005723764368114103	-21.361501958815644	1
0.0005941005135272835	-21.470113604385396	1
0.000359405365828951	-18.765256633365546	2
0.0005926519127746818	-21.462871183288687	1
0.00033493793348058807	-18.849701381237374	14
0.00032805805324452	-18.50230769256692	8
0.0005758721316952237	-21.27310225833859	2
0.0003883291392696894	-19.25901257728404	10
0.0003642094958077245	-19.18623091654022	3
0.0002996767919645904	-18.50460684423213	9
0.0005792520608561756	-21.395877313478024	1
0.00048398722225852437	-19.981434796764372	13
0.0005723292072050396	-21.361265829780812	1
0.0005637496387698241	-21.31837143853857	1
0.0005854037667676013	-21.426633368653107	1
0.0005935775016548395	-21.467498755392658	1
0.0005888001389301481	-21.44361386335335	1
0.00043460176828013147	-19.709586454410193	4
0.0005821989665411095	-21.41061065657774	1
0.0005806525631145852	-21.32720112970927	2
0.0005815638045283559	-21.40743510199327	1
0.0004713493769608474	-20.0390121499616	12
0.00029139761949564493	-18.58076605582987	2
0.0005594029356261329	-21.296639671181364	1
0.0003198723899137414	-18.512112179139393	6
0.0005994761091309595	-21.49698942019423	1
0.000521671509039318	-20.7741804129376	2
0.0003673856957522934	-19.2636725136798	3
0.0003821415009075307	-19.29355553365332	5
0.0004725464628494097	-18.828958453026466	7
0.0005944690640025874	-21.471956208520975	1
0.00042330484147101797	-19.814662960366423	8
0.0005233282476698926	-21.040585032029195	2
0.0003973644375235306	-19.169908553036905	8
0.0003328643482812135	-18.688400474347272	11
0.0005354224135987949	-19.97961254465575	7
0.0005148672685481748	-20.30966944752234	4
0.00041871482246237744	-19.708686136455835	5
0.0005118975155093112	-21.059131678558572	1
0.0004288496325002332	-18.76747608610115	3
0.0005444850415554441	-20.59500620108595	3
0.0003311928429447245	-18.503996678411404	4
0.0005927206478421327	-21.463214830978842	1
0.0003319029995265916	-18.502593564632697	5
0.0005879230238913625	-21.439228640958746	1
0.0003260705926493803	-18.681377799420986	8
0.0005500432757790458	-21.025394324320377	23
0.0005956592557090799	-21.47790668832623	1
0.0005442954029734435	-19.04802029255462	7
0.000538948459369095	-21.007896005035658	5
0.00042977944503327654	-18.508828411802664	10
0.0005004436840874467	-20.54054256596629	3
0.0004612707899504975	-19.905892526126095	5
0.0004227965534928972	-19.529586760507488	3
0.0005680181728666361	-21.339712392103085	1
0.00042582748355190694	-19.865671920157858	5
0.0005103479752049776	-19.303698389926183	8
0.000447296341379025	-18.820550402357565	3
0.0004979185488413541	-19.5044373318701	3
0.000385546835827116	-18.634817425980096	16
0.0005749651374519207	-21.374444420772974	1
0.0005722663470706765	-21.360951554393036	1
0.0005579758278427492	-21.289504706285687	1
0.0005039758577227852	-21.00481082576294	2
0.0005315170245926475	-20.845941794288663	6
0.000574698206503614	-21.290699388203493	7
0.0004975589008738857	-20.6855189946352	4
0.000459681159836727	-19.529904253462373	2
0.0005682639717874453	-21.199063044250543	2
0.00047114544220028	-19.00021174713825	19
0.000595265094656114	-21.475936041603607	1
0.0005288671662979461	-21.143973106850485	1
0.00032152821696313487	-18.582300054238324	6
0.0004676284431484709	-19.098871944543465	12
0.00040160936775426366	-19.090074255590824	10
0.0004345728849365856	-19.91807574394076	3
0.0005787216657123944	-21.39322555109835	1
0.0005901996675332178	-21.45061094344054	1
0.0002973920510224125	-18.60629376613572	6
0.00045591620783971224	-20.191660672028515	27
0.000446055004251108	-20.085327062735082	11
0.0005797356635137944	-21.398295132248084	1
0.0005462056065221146	-21.117674533222623	9
0.0005939435267972356	-21.469328733879458	1
0.0004313653379567765	-19.862604424394107	4
0.000576877129012215	-21.38400360951987	1
0.0005623946763232805	-21.311597171308296	1
0.0003961915248572212	-18.669178602073764	4
0.0005290335025958991	-20.107295832232985	2
0.0003174529511512203	-18.66835219868817	11
0.0005309602311838102	-21.15443758939265	1
0.0004959162285599693	-19.020058155508753	11
0.0005871594913911737	-21.435411285571167	1
0.00044096204199376555	-19.512562238032114	8
0.00041724430106707073	-18.778540422362607	10
0.000598858101270384	-21.493899629470786	1
0.00038447145740616367	-18.84826203907396	30
0.0005213935800261779	-20.37776673978858	26
0.000585534875155377	-21.35539305460619	2
0.00034103918686854815	-18.548911276490934	9
0.0003405458256501855	-18.83172487393258	8
0.000594571109563109	-21.472466395278104	1
0.0004534681236384589	-19.155413933677544	10
0.0005892109907848053	-21.445667957370937	1
0.000436130677744175	-19.963111929303658	11
0.0005871606345009596	-21.43541700066031	1
0.0004937470044625275	-19.88679205127624	3
0.0005719592228358957	-21.33033354746619	1
0.00038507769701384296	-19.385085453103155	18
0.000539656190687395	-20.99781186407727	6
0.0005968276390357729	-21.483748135004408	1
0.0005863188759927478	-21.431208546697228	1
0.0005715190997936115	-21.35721561857072	1
0.0005241484111647834	-21.040612266240935	2
0.0004679005504201818	-19.80940225427712	2
0.0003985890886876702	-19.03063839314321	12
0.0005901879655416346	-21.450552438189487	1
0.0003633351479810974	-19.115186663223138	14
0.0004801522942932126	-20.068893568266407	2
0.0005590403787157865	-21.294827032459796	1
0.0005754925153775545	-21.377081098275514	1
0.00035572294434082856	-18.9761328534863	5
0.0003485212413379099	-18.74013363974821	2
0.0003608213181134905	-18.516364368822995	5
0.0004437083252517659	-19.096305518518278	6
0.000578911183350813	-21.394173063061338	1
0.0005781974697161756	-21.390604781963027	1
0.00037919147940602185	-19.311662383117746	9
0.0005446978197842365	-21.060422817814903	9
0.0006000643261152864	-21.49993026851913	1
0.0003582606177992218	-19.09162768191318	5
0.0005045423923757078	-21.022359021319467	1
0.0005937533185634658	-21.468377769217486	1
0.0005892196802748766	-21.445711401326147	1
0.0004294037490229484	-19.829806270361814	3
0.00032714541913709774	-18.563480444634763	8
0.00046081032255661057	-19.039138732801042	3
0.0005133380225386038	-21.066333634294253	1
0.0005982287336773379	-21.490753044654173	1
0.0005855152186217096	-21.427190583094706	1
0.0005473595440965572	-21.2364275577104	1
0.0005686359916750334	-21.336453614458794	1
0.0004422020062161686	-20.008260908932446	27
0.0003811644013557996	-19.168008763343643	8
0.0003149662147553223	-18.657327491035037	7
0.0004903240240447559	-20.95127289867596	1
0.0003592878305028157	-18.534183637844848	6
0.0005833238631349241	-21.41623468708306	1
0.0005272157094765511	-20.78949480068602	4
0.0003878896054930688	-18.865980568050627	2
0.000311850053848394	-18.80622790831503	11
0.0005493909340704777	-21.246583690500163	1
0.0005338058163976557	-20.94363083900564	2
0.00043015108871225725	-19.266634647917748	3
0.00041172913954421283	-19.815960947654116	7
0.0005036050489275823	-20.603071812192674	5
0.0005405890625138916	-21.202577873067384	1
0.00040414320857562903	-18.59291088231079	8
0.0004534013553097562	-18.508228219575784	7
0.0003869685422609275	-18.827172148819066	3
0.0005999476035528637	-21.499346702655977	1
0.0005973163278304105	-21.486191382413782	1
0.0005718675430156713	-21.358957694527756	1
0.0002594530091205029	-18.502211362771178	6
0.0005562106856195926	-19.241025634356795	4
0.0004738064207358371	-20.319170022555003	2
0.0004319374400486814	-19.420292187285046	14
0.000598872585656994	-21.493972045577824	1
0.00034727992716179236	-18.972756782294457	8
0.000550638418320952	-19.77801423414082	14
0.0005952587208456093	-21.475904175114803	1
0.00032258434296156773	-18.725468385314265	6
0.0005744611633953873	-21.371924753202265	1
0.0004190221298337222	-19.233398558820692	3
0.0005338609416720503	-20.856689017185236	12
0.0003610487788834757	-19.21711533808088	4
0.00034793570132308745	-19.052099753491206	7
0.0004449761989675189	-20.07344965184584	14
0.0003397635120632067	-18.86515984949238	18
0.0005760792771059568	-21.38001467090613	1
0.0005229830945578642	-20.754803283994082	16
0.0003176793038136227	-18.549363449265673	4
0.0005931175566529984	-21.46519921538574	1
0.00037734002057527395	-18.84655266988093	6
0.0005840062100465466	-21.419646147182842	1
0.0005511405891094662	-21.255331261936654	1
0.00034795278041122827	-19.04441481586738	3
0.0005613380381340747	-21.30631440537065	1
0.000498477922700192	-19.807151084080633	2
0.00036299291990641067	-19.04187539005438	6
0.00042713512734849566	-19.89510826461927	11
0.0005895640288171807	-21.447433005531394	1
0.000575194320883175	-21.375590245745485	1
0.00047942934632544734	-18.952083526634965	5
0.00044618506731052893	-20.019264703536344	5
0.0005339418476739311	-20.854979227549684	6
0.0006000628877183871	-21.499923077113195	1
0.0005897257470930181	-21.44824153186313	1
0.0003214598832398295	-18.64593243187395	13
0.0005166826896325035	-20.335723318405442	29
0.0005957389680169232	-21.478305217803005	1
0.00041967861231950596	-19.72760735797486	3
0.0005995793473827402	-21.497505569927924	1
0.0005737356916463829	-21.36829768626155	1
0.00032633488491318446	-18.892432279041305	4
0.00047975680465438194	-19.94880899982131	13
0.0005218281034967819	-19.802466047181458	6
0.00043287960936617823	-20.64744900738334	1
0.0005089057632223165	-21.044174120487064	1
0.0005655704220326321	-21.327474622484473	1
0.0005729359328396898	-21.295772918492982	4
0.0005991149848219974	-21.495183943903356	1
0.000598496915574047	-21.49209384626773	1
0.0003378066912401964	-19.147965441423263	9
0.0005433013699618986	-19.958005274641724	15
0.0005864538554544369	-20.968374782778653	9
0.0005944284148013105	-21.471752978864796	1
0.00038011277534487836	-18.582099448178862	4
0.0003866782842235728	-19.6092015233236	4
0.0005346520045434777	-21.172894971260167	1
0.0005953877990411505	-21.476549514173776	1
0.0005915495821750836	-21.457359973677793	1
0.0005138581401861694	-20.776773227186887	7
0.0005648160463609699	-21.323703047556403	1
0.00043153446210811574	-20.49574262292554	29
0.0005705497541029092	-21.35236928001419	1
0.0005951967207018597	-21.475594199334186	1
0.00034813046162774	-18.895556980686024	7
0.0003135735598039817	-18.747854729217316	5
0.0005990101262822446	-21.49465969338153	1
0.00041938383329672156	-18.908599282489146	6
0.0003661521030826787	-19.025961288629876	6
0.00037400475985695366	-19.255183308126256	4
0.000593883668355237	-21.46902946574614	1
0.0005537061991839883	-21.26815828035169	1
0.0005351698382240287	-20.622358253416035	4
0.00040510683667816086	-19.492808501792254	3
0.0005575403649107511	-21.087024157643462	5
0.0004537785144117983	-19.028774119048926	10
0.0005973828718286045	-21.48652407563896	1
0.0003677111642614796	-19.018481970725446	10
0.0005285299993477713	-19.406268993006275	17
0.0004201117412762666	-18.635694963499997	4
0.00053541751744801	-20.58178432393026	5
0.0005564485455137791	-21.281868908954984	1
0.000521365023245913	-21.106465409154605	1
0.0004724886988245494	-19.182425605599576	7
0.00035326738280551324	-19.1506440762496	3
0.0005613297469703733	-20.86531246181419	3
0.00045148335624443844	-19.132113476552497	8
0.0005879047130976908	-21.439137094355484	1
0.0002829476432621623	-18.504952820210264	2
0.0005603031336675786	-21.301140299304656	1
0.0004510650774870217	-18.569104144344628	4
0.0003818955054853389	-18.829510652757328	32
0.0005596105436017577	-21.29767762755396	1
0.000540591469581785	-18.571312406155766	14
0.0005546347464887284	-21.27280064338862	1
0.0005637171876452592	-21.21176156274297	2
0.0004993733579528475	-20.754016074083076	11
0.000427246167165818	-18.960216422928994	23
0.0005920590697478771	-21.459907206612115	1
0.0005093887984965244	-20.63127415632167	4
0.000372017298944349	-18.719262960318048	7
0.0005624309337978668	-21.311778444097495	1
0.00031870928930464895	-18.51598581100574	8
0.0004847248677577427	-20.824316838936344	3
0.00034616245702049107	-18.734786123973795	4
0.0005660438001471498	-19.006116171975773	7
0.0003366294933757455	-18.66658618789826	12
0.0002973998642706054	-18.526833121775187	18
0.0005837670888783155	-21.41845063752267	1
0.00045992188686192457	-18.848490503382983	7
0.0004437281157628293	-19.94585553773137	8
0.0003487041796926152	-19.1128972731297	2
0.0005681149964535286	-21.238961254112702	2
0.0005659537386338186	-21.172627263330547	2
0.0005540222999267123	-21.203615448410712	2
0.0005980393853551718	-21.489806379204346	1
0.00044606227244735043	-19.455394355965964	7
0.0003791552977541716	-18.67269701046362	9
0.0005484257244209017	-21.088034826134233	3
0.000509129580348861	-21.045293116094502	1
0.0004649142291518641	-19.534813327278624	5
0.00044165782976854254	-19.826706868017485	26
0.0005803661687653571	-21.381069943069846	1
0.0005789750730266581	-21.394492485742415	1
0.0005528090784434448	-21.125794199382142	5
0.00036989434729143146	-19.133254969510865	7
0.0005249009644844011	-18.956281189381894	4
0.000545403257723885	-21.226646912718184	1
0.00044317346897112983	-19.0362110493911	4
0.0004805231206244681	-20.346730582935304	3
0.0005808431318729588	-21.403832028590262	1
0.0004083924138093058	-19.302486986848855	5
0.0005790504610714925	-21.39486939564348	1
0.0003418997947783763	-18.723019435948586	5
0.0005650707558786127	-21.32497649269358	1
0.0005987786941319508	-21.493502625718314	1
0.0005912716291471223	-21.455970320338192	1
0.0005411233392314756	-18.57946981475438	10
0.0005794954799855884	-21.397094311215348	1
0.0005152755700826638	-20.063210176883263	11
0.0003475501450086746	-18.926956849649777	10
0.00041874198115720716	-18.9842214497079	4
0.0003662232583598747	-19.03240339239085	11
0.0005850107910186007	-21.42466864797355	1
0.00046590803259529166	-20.073780457408894	2
0.0005749691507331098	-21.300407153362674	2
0.00045592555015813686	-20.188181730739675	5
0.0005297364937749089	-20.830894766310124	2
0.0005939668740717781	-21.469445460861262	1
0.0005853394908786627	-21.42631201506191	1
0.0005351458291031957	-20.91193382486486	2
0.0005938792508989486	-21.469007380241518	1
0.000596147931681845	-21.480349871631397	1
0.0005499164197177237	-21.20539683345513	2
0.0004854275080660779	-19.1600686975221	3
0.0005546667001509485	-21.204245223472707	2
0.0005050995988150297	-20.156300998402767	8
0.000561680534137058	-21.308026747624435	1
0.0005769537389818784	-21.38438662855359	1
0.0003477183004878216	-18.55047079395743	20
0.000473661258705967	-20.27342996428346	14
0.000515307995719842	-20.88282348723475	4
0.0005352358343997587	-18.86145566310398	11
0.0005885456190362627	-21.442341366258688	1
0.0004443900711385751	-20.23837712920489	14
0.0005452001552339674	-21.215477432850527	2
0.0005476339562994234	-21.021251160723118	2
0.00040911953334647213	-18.690453755431925	10
0.0005787445356727164	-21.393339891701046	1
0.0003834654386255427	-19.072521774382256	4
0.0003642774891378973	-19.19407080380474	6
0.00034512362087603306	-18.653555591270237	10
0.000523312433131074	-18.546700792063127	3
0.0005851283103332026	-21.425256197277122	1
0.0005948606196134216	-21.473913829080917	1
0.0005794995862293811	-21.39711484078267	1
0.0003179500929755696	-18.99547942479461	16
0.0005825337774608984	-21.412284576506703	1
0.0004928504570691734	-20.26618222720733	6
0.0004153249062687895	-18.894390944716857	8
0.00035164482111132685	-18.856713195198754	3
0.0005805328150603415	-21.331160384998242	2
0.0005779330166948739	-21.389282623226656	1
0.00040266312707562486	-19.423455260595645	3
0.0005773290887703937	-21.386263226520356	1
0.0005116260164307639	-20.862822607792268	4
0.0005951332300500083	-21.47527677161258	1
0.000565028018152796	-21.32476282125476	1
0.0005000516681256519	-19.681185538934763	14
0.0005947047415299125	-21.47313450136174	1
0.0005958848816620007	-21.47903472733799	1
0.0005815311857648339	-21.407272021295803	1
0.0005993518748294683	-21.496368298657163	1
0.0005893769458789566	-21.446497666090078	1
0.0004959444900695174	-20.090929247040357	4
0.00047709731657245597	-20.028125451960697	11
0.0005981504355226942	-21.490361585374586	1
0.0003282501660715327	-18.789918342250978	8
0.0005239437291250124	-20.91935161793896	2
0.0005759841226057631	-21.294467436532443	1
0.0005631301710309149	-21.315274349010657	1
0.00045040448595321675	-18.929455243155715	6
0.00036610771134532684	-19.426484008865557	17
0.0005951688398660476	-21.475454806369548	1
0.0003658360349211556	-18.690383127292353	6
0.0005864052024436307	-21.431640144228815	1
0.00045158130243163247	-19.934513228569912	5
0.000543485500986205	-21.031354218036313	2
0.0005322440437040192	-20.85461645950249	4
0.0003541711083020872	-18.895968474247816	11
0.00035772318404799777	-18.7320056634979	4
0.00038824327038894716	-18.5590548123709	7
0.0004017113720342843	-19.568282736700226	4
0.0004284958135029921	-18.71952845689796	6
0.0003824591391272976	-18.95949485605098	2
0.000599227391088608	-21.495745930023578	1
0.000545468667101064	-20.985776940792075	2
0.0005499061548543162	-21.24915958718366	1
0.00036094948673441943	-19.161052384603956	7
0.0005480324731431316	-21.151693352948822	2
0.00029854583323537186	-18.57840246446642	4
0.0005780005254535958	-21.32534223166753	3
0.0005964393019651963	-21.48180660585117	1
0.0004884152022772617	-20.718619281170294	3
0.0005340796447974715	-21.06558928412911	2
0.00037659683717867896	-19.266953077992817	7
0.00041202036602674735	-19.233434879979853	12
0.0004073555072732639	-19.14751012190936	10
0.00035832124847364535	-18.817396706952618	6
0.000550115577399002	-21.02507084642621	3
0.00044040197092046874	-19.07756572236584	2
0.0005907607144675976	-21.45341595244423	1
0.0005650223945192382	-21.324734705348952	1
0.00033120569652978675	-18.549519882212486	7
0.0005716527799153333	-21.35788396540958	1
0.00039398693912013905	-19.75156653698757	8
0.00038971566652306044	-18.72770837300869	3
0.0003573647192899721	-18.76970599507286	6
0.0005676454601304933	-21.337848978337483	1
0.0005360968424337315	-20.90491573138067	2
0.0005068880195140253	-21.034086213536554	1
0.0005502522773098091	-21.250890060241336	1
0.0005539452508417096	-21.269353442487272	1
