T	U	Steps
0.0011911585767318841	-22.955013767551126	1
0.0009314333803182426	-20.52338433302466	16
0.0011641207999134318	-22.81983575878198	1
0.000678977601886416	-17.415795047174523	9
0.0011887730108607862	-22.943086897734574	1
0.0011959164510001485	-22.978801225147087	1
0.0006899642525090173	-17.156433917192167	20
0.0007149314527147854	-17.267609978651734	15
0.0006654861356591971	-17.3633037143714	23
0.000962911234876425	-18.996712166031656	18
0.0011722312710535777	-22.86038485223246	1
0.0005947951083321502	-17.000081173423748	9
0.0006720651816198329	-17.394654789460485	11
0.001104796957131834	-22.52324040652368	1
0.0010509307421267453	-22.10688440773608	2
0.0010347507563929989	-17.84919042279968	11
0.0007494822711122585	-18.22429789775134	9
0.000911472375398793	-17.397362751187778	4
0.0011065072202974834	-20.34877820627746	8
0.001155809819434784	-22.778284199289264	1
0.0011616964351742376	-22.540399794523037	3
0.0011786844306139045	-22.89264805439926	1
0.0011991137820000586	-22.994786594093867	1
0.0008857889189639856	-19.092182280559545	23
0.001190933962759076	-22.953890788032883	1
0.0011512748532082468	-22.65776216424398	2
0.0010581452538648065	-21.79888212317975	16
0.0011968438638112692	-22.983437916172242	1
0.0009001979176591755	-18.801351536867664	16
0.0009097945884226904	-20.964779867683777	9
0.0006825337866655785	-17.229413278857976	3
0.0007578558825390318	-18.279359405383044	13
0.0010578188527440111	-19.01315639214352	5
0.001162540464251859	-17.769937534856787	3
0.0011421181634407246	-22.709831426472306	1
0.0011422207337314152	-21.31625483628301	9
0.0010632953819965866	-22.081751863996466	11
0.0011426977240712828	-22.71272899651018	1
0.0010084178503136222	-21.31643465233193	6
0.001121610919178596	-22.60730345372844	1
0.0011592872800606868	-22.64079929998009	2
0.0011737217471108384	-22.86783663300909	1
0.0011211026135225176	-22.604762129902294	1
0.0009868908612117272	-20.83876643810615	5
0.0006881085407105522	-17.489715919634378	9
0.0011507658447335166	-22.557325347109416	7
0.000979589084997395	-21.037933446318252	5
0.0006288843345676785	-17.04145539687572	10
0.0007102652582110296	-17.978398742148745	8
0.0006643117970885424	-17.10094293239587	4
0.001197319330947845	-22.98581506060941	1
0.000597960267975436	-17.00798140291354	27
0.0007864642467695797	-17.68493390282333	15
0.0011298766196872227	-21.929859337496566	3
0.0010533921913023268	-22.141603643473065	2
0.0011692093936327092	-22.84527668060872	1
0.0010089989598765202	-21.46167026751939	3
0.000813087893856544	-19.843151736711047	6
0.000659550471870791	-17.557261307951155	12
0.000645935129198142	-17.43470573983344	11
0.00120011740209186	-22.9998042908698	1
0.0007341041227986112	-17.06792446083344	22
0.0006523326287009562	-17.403853581481115	8
0.0011558869576379094	-22.77866985927782	1
0.0007201263581398385	-17.901728305941404	8
0.000595439993746028	-17.016587237822996	4
0.0011427305674751264	-22.71289320031889	1
0.001179771738067809	-22.898084154324394	1
0.001042624151107103	-21.46100227930791	2
0.0011933569185591496	-22.966004592455075	1
0.001198994561952573	-22.99419054180996	1
0.0011959472340174796	-22.97895512785198	1
0.0010550840826158486	-19.407082645471306	13
0.0010242594228050718	-20.908501610606663	5
0.0006557897470751602	-17.148718181108904	8
0.000833803008527659	-19.44208341657475	11
0.0011982423025521487	-22.990429547386857	1
0.0011717059944481411	-22.857758680485695	1
0.0011487833670421489	-22.74315476355476	1
0.0006132425473748927	-17.295981024027135	7
0.0008963906145550122	-20.1448334078811	2
0.0008844976245637455	-17.00332734480752	10
0.0007910089081587466	-17.126207750969904	12
0.0008244559665090734	-19.228978435987816	9
0.0010814505049528012	-21.991030820099255	3
0.0011629413713726223	-22.81393909047591	1
0.0011448007944400299	-22.57141026963621	5
0.0008693592677306874	-18.207239014065756	13
0.000905499750902674	-19.472028450737593	7
0.001179824084711423	-22.898345866487237	1
0.0009341683074373719	-20.497503225926916	13
0.0006780397961206593	-17.090073728059856	11
0.0011937111504746966	-22.96777560955118	1
0.0010876350089071107	-17.806884933521072	10
0.0008857823541525151	-18.907417131317576	6
0.0006868820669033563	-17.388344640041616	13
0.0006607475138972633	-17.613730900332406	7
0.000843516514672879	-17.153456649208135	8
0.00102187373919593	-20.45258050233211	3
0.0006993179120127005	-17.24234101871441	15
0.0011836562671017016	-22.917505237031506	1
0.0008892716645595284	-20.06616520148488	14
0.0009560297187169632	-20.669831929707982	44
0.001098590402978078	-22.212896409327005	6
0.001164964867376975	-22.824055756592998	1
0.0007606206410377121	-18.48616704399603	2
0.0010571241318777836	-21.57231484546161	4
0.0006922571863910497	-17.968271369289113	2
0.000978508993829058	-19.370555413484947	34
0.0006392711213207971	-17.62446614888589	6
0.001180403717558661	-22.901243797579458	1
0.0011691808457827487	-22.845133952841632	1
0.0009817351347854684	-21.842352532526927	2
0.0011746493405383075	-22.872474227043337	1
0.0010597396492709882	-19.063845317424285	6
0.0008524837801989391	-17.230374825100835	15
0.0011859801189729705	-22.929123561671947	1
0.0011991960744934817	-22.99519802346072	1
0.000841583040408938	-17.803056561654333	3
0.0011998444423407344	-22.99843960190595	1
0.001139450278868715	-22.508216903721905	7
0.0006051933133544146	-17.321280620492743	5
0.0011874437375143422	-22.93644106567195	1
0.0009407578892924246	-18.54311915117134	6
0.000715227114691989	-18.044821007210537	37
0.0011338983313633616	-22.668735572323666	1
0.0008439278777016878	-18.977557970765854	21
0.0011707617519864425	-22.853037847976985	1
0.0007867132376145624	-17.726563323073897	8
0.0011719724260163776	-22.85909073116091	1
0.0010136371826262038	-19.453243663684262	4
0.0007724620620411089	-18.649743462585526	6
0.0011795082687750741	-22.896766913835176	1
0.0011537303230357739	-22.76788755372375	1
0.0007266148462570985	-18.102822214514866	4
0.001015669230962973	-21.276256182986227	5
0.0008436784385308249	-18.616196172442855	4
0.0009634571481475912	-18.65058606946953	5
0.0010551046787411675	-18.63007099441381	11
0.0007083702605891497	-17.57354974316175	9
0.001156267981993378	-22.780574827796894	1
0.0011975201073443015	-22.986818861834013	1
0.0011850757967766853	-22.919327802854	2
0.0006705791105994253	-17.685924445159575	48
0.001139633543427513	-17.071171695153794	12
0.0006479814205961356	-17.551046234183037	9
0.0011682325711441929	-22.840392961070496	1
0.0009962954529158519	-20.96283113921835	3
0.0011705046955273002	-22.85175266907632	1
0.0011569182282122462	-22.783825797344665	1
0.0007380240595540579	-17.990858365148775	16
0.0010512458716728714	-22.255506518919855	1
0.0011764333879813135	-21.161471339864768	4
0.001017671943017796	-20.169524780870116	3
0.001132414945637322	-22.66131924035121	1
0.0008100769120189036	-17.44491271755522	6
0.0011591517812513097	-22.355595013316155	2
0.0009937215634440342	-20.517386549676548	5
0.0010506988569160135	-21.66253610873567	5
0.0009039370354283234	-17.484517878159373	12
0.0007095190482806763	-18.518469825889337	7
0.0006530270388574105	-17.542508202020304	6
0.000663054509975006	-18.222315080000914	8
0.0009410536610020116	-20.29700382603463	5
0.0010457371138212434	-19.46834854514149	3
0.0011696209055987795	-22.847334074917864	1
0.0009294469516045367	-20.364701760614544	6
0.0009305213705056853	-18.78022360107882	17
0.0007568857674819804	-18.43823503883107	5
0.000863882551630796	-18.756286739240004	4
0.0011049183707966235	-22.523847426011777	1
0.0010798180594675526	-22.015371284040253	2
0.001013116967401341	-19.36775480363871	2
0.0011710699031111055	-22.854578479653608	1
0.0007313910822520114	-18.252139584404183	9
0.0007010508925829968	-17.820992870036207	10
0.000750012713374472	-17.668159388654644	14
0.0011610879883790567	-22.804672920988708	1
0.001160091951738367	-22.79969313841806	1
0.001150918026154643	-22.665864836008506	2
0.0011393533300779726	-22.696008371749098	1
0.001187467706436583	-22.936560900642206	1
0.0010170771035482	-20.604836161182902	6
0.0007830202969253376	-19.033537273131387	5
0.000625692984134067	-17.109513540170468	11
0.0006428895475111318	-17.05390042233578	9
0.0009535679254843481	-21.543075441171244	2
0.0010945724246965718	-21.9969237362525	3
0.0008138029760458373	-17.818364472171655	19
0.0007250424438517003	-17.187025857331864	12
0.0010033672761812819	-19.739587336329233	4
0.0009267933914919074	-20.286489908652563	17
0.0011239041739328963	-22.533729747431636	2
0.001189887495333874	-22.944106350137602	2
0.0007448707138954153	-18.95453514795726	33
0.0011606733661967867	-22.605598733036693	3
0.0006899470442420612	-17.05453092181292	9
0.0009417835845212562	-17.86150916453943	12
0.000670440340383341	-17.251119938383688	10
0.0007200920546445069	-18.152937439514137	13
0.0010469838405238374	-20.979335028839223	11
0.0007408654688550594	-17.383802352278153	8
0.0009781349104233084	-21.30357473415445	7
0.0008713085277493332	-18.76562290674285	7
0.0006099893688818658	-17.120443204270494	13
0.0007885423431808532	-19.14969364512036	6
0.0009700446463336819	-21.051259459294485	3
0.0010234249781597244	-21.596770310749935	10
0.0006061702601825328	-17.143489788698012	23
0.0011601942148395175	-22.800204412790837	1
0.00068570050790486	-17.694663971291465	8
0.0010603753453490418	-21.05784914572734	7
0.0006180452945376793	-17.052619299189562	11
0.0011333431547745595	-22.027566704674427	5
0.0006092258535691052	-17.13066889628771	7
0.0011808935526842399	-22.903692776182453	1
0.0007456216263579546	-18.339571787752295	11
0.000727822976256487	-18.057157837889434	26
0.0008180435677150201	-18.04338991166178	5
0.0007078433778083637	-17.50291878687641	9
0.0006075264460043239	-17.342067255685123	11
0.0011602887951270462	-22.800677276185738	1
0.0009430609895084746	-18.301359803058876	9
0.0010195102853523016	-21.22651160685403	14
0.001029842170022832	-20.336905393783397	3
0.0011628300449301541	-22.81338250304206	1
0.0011946806845287603	-22.97262288984875	1
0.00062805944974293	-17.229557411350406	6
0.0011766910409777905	-22.88268190801377	1
0.0006921631531654752	-17.4486656262673	10
0.0007155565269663466	-17.406560889746537	8
0.0009634611827615416	-20.460154184499796	42
0.0007234677665774872	-17.62174965699564	5
0.0011639036068718733	-22.81874988093509	1
0.0008797334034781423	-20.14758954499464	6
0.0009634715795092378	-18.704954130985378	24
0.0011351082755018164	-22.674784806343766	1
0.00065691821544083	-17.63007261772756	14
0.0009361350011184376	-21.679998466844673	1
0.0011786656602664983	-22.892554210212168	1
0.0011184819116093914	-20.95576621786602	15
0.0009685983987172628	-20.199455596991367	11
0.001194228048371271	-22.970359891123778	1
0.001152495430345492	-22.76171358697949	1
0.001135804306466927	-22.678264681206894	1
0.000772964665900983	-18.87700177947142	11
0.0011084416523445889	-21.923365546256232	12
0.0006902120973704007	-17.6262827295863	49
0.0010821740842679227	-21.144349771395024	2
0.0010420985070728076	-20.695977687914265	23
0.0008566814822515703	-19.65804375410064	16
0.001173862340067363	-22.868539541241432	1
0.0007546827588714567	-18.33055275543064	37
0.0011514821978166692	-22.75664783188483	1
0.0010188262680258643	-19.59779545176902	2
0.0011947025279661937	-22.972732098249896	1
0.0009971107086009297	-21.06709203326909	5
0.0011914785357244628	-22.956613433817882	1
0.0008400817408999889	-17.37709004865272	11
0.001114962313800883	-17.607027082991333	25
0.0010474762957204174	-20.50260821307426	7
0.0011482386652240967	-22.740431473558264	1
0.0011185353596607015	-18.09511183240133	18
0.0009122652168048431	-20.274236810337975	5
0.0011147193645251264	-22.572848452430257	1
0.0005978106479190794	-17.043002616969613	9
0.0011639608746331495	-22.81903619670683	1
0.0009975175197289759	-18.962583754849668	9
0.0011986653398745036	-22.992544563841612	1
0.001199698252504183	-22.99770871152469	1
0.0007630333075199876	-18.617645232876498	15
0.001042183753203181	-21.86675309268387	2
0.0006952971634997455	-17.95455163121587	9
0.0009157468778161013	-19.80928921941225	5
0.0007411744352279469	-17.996468607305438	7
0.0010260289273334156	-22.12943194015776	1
0.001191248185465922	-22.955461775178264	1
0.0008867853554524861	-19.81106739952913	8
0.0011380346138078056	-22.456038550477686	13
0.0006354293405257859	-17.446876297379827	6
0.0011358907169843843	-22.67869669903754	1
0.0008702397811859187	-19.243887976566192	2
0.0009092312050669494	-19.617160485906865	20
0.0006321004444605034	-17.525967291937803	2
0.0007473687295813789	-18.446882470153817	3
0.0008975158078961148	-20.058303855587834	8
0.0009377438154325433	-20.082112974800225	5
0.000794278471912351	-18.70527020615966	8
0.0007321198008654806	-17.422056643518545	27
0.0007229200869201698	-18.16703029705718	10
0.0011352382044014122	-22.613374518364758	2
0.0007203623284406971	-17.321802012578445	3
0.0009588657105846979	-20.124308411879714	5
0.0005994234123473921	-17.149505280761275	10
0.0009827842825408416	-20.454410168257816	11
0.0008467352452181298	-19.504752208711782	7
0.0006516107893351531	-18.24178696100585	11
0.0010957940141394591	-20.86920093913711	7
0.0007870092551015677	-18.78244198319395	6
0.0007971004442785872	-17.96673701915093	11
0.0006241334067618504	-17.07853943554494	12
0.0010585715559159653	-21.016992031949627	3
0.0008286447757168908	-17.322190827064176	14
0.001123262121854941	-19.628645600233465	8
0.001153481040024487	-22.646917780368113	4
0.0007371206094484509	-17.339500266717938	14
0.001123713084969203	-22.61781343713369	1
0.0007566980155840317	-18.521618319287263	12
0.001177109825354981	-22.822719249328397	2
0.0007459754550030754	-17.700153661381	9
0.000731846846662406	-17.84040859466753	12
0.0008043271149384729	-18.219779986587756	3
0.0010184818558058883	-21.34574877293504	12
0.0011648701878964542	-22.823582397273032	1
0.0007883023605123825	-18.261812094884238	10
0.0010451262507105638	-18.59060160143706	2
0.0011866751793991324	-19.575626114834318	15
0.0011585441588985316	-22.791954796782914	1
0.0011737201925684784	-22.867828860922568	1
0.001143663210068545	-22.717556038151976	1
0.0006470762041904795	-17.423425026176346	12
0.0010761981022963068	-22.38025763557685	1
0.0011787413471682846	-22.892932614277786	1
0.0010723557261708176	-22.361047300456722	1
0.0008475716031059757	-18.557927527148735	5
0.0006977131663539493	-17.445737976805233	17
0.0010421872752660701	-21.46152699194545	24
0.0008151448673936703	-18.401676360607656	12
0.0009347269488652501	-20.103282840710936	7
0.0006147624143645122	-17.00561110042955	9
0.00117272592305306	-22.862857913267494	1
0.0006664398357385731	-17.65558148544451	5
0.0006220470509592089	-17.067570068682766	3
0.0008901044273188187	-20.195908219469302	13
0.000963273365318357	-21.124657964005262	16
0.0007348853945489201	-17.294040133164252	20
0.00114088730928864	-22.70367765079462	1
0.0011885392260245664	-22.941918067588045	1
0.0011652380069175259	-22.825421344431664	1
0.0008519040563967062	-18.615373192682938	25
0.0011996618929527552	-22.99752692839234	1
0.0010500151789722303	-21.23372080548982	23
0.0011970309689202303	-22.984373366458325	1
0.0011981515923174867	-22.98997603269965	1
0.0006864667340393827	-17.203907242841133	10
0.001101876727076142	-22.508640430840515	1
0.0011507825109349592	-21.492987243021695	4
0.001168392355967552	-22.841191820917523	1
0.001178774042057596	-22.893096075573578	1
0.0011636386678752237	-22.817425292517452	1
0.0010101079927817456	-20.731665584630722	7
0.0011099023083925477	-18.65484434585899	15
0.001122093946671827	-22.60971839690791	1
0.0007992195320114962	-18.877473052714965	10
0.0008934537772334472	-19.86878605810989	17
0.0007485610907335653	-17.758955267856713	5
0.0007507641141922045	-17.546097805512776	7
0.0006004006110074735	-17.45231267385696	6
0.001035707867872828	-20.270947690441186	8
0.0005911030558449563	-17.027337473992613	5
0.0011703874382512115	-22.851166429859912	1
0.0009823645764531481	-19.155434458229443	19
0.0006403923157291946	-17.43259681151861	31
0.0006997069293567529	-17.257211997200677	5
0.001018080191302532	-19.041528299913892	3
0.0007265976950829875	-17.8650903648171	37
0.0011910756951891424	-22.954599393174608	1
0.0007884069667096133	-17.18546226821521	15
0.0009239141972690509	-20.3806306593531	23
0.0011688285045646787	-22.843372388472428	1
0.0009320404445089768	-18.499171962572024	26
0.0007555010596885535	-17.174572890899643	7
0.0011993883792931557	-22.996159470108914	1
0.000754954926890549	-17.655585897726848	13
0.0011085801287556791	-22.278552600012723	3
0.0007827859470498499	-17.11186535625565	17
0.000687842749999297	-18.11444500325798	5
0.0011073799305114788	-22.536154234480342	1
0.0010977515837740422	-22.28670590421832	2
0.0010224637741020808	-21.027141431775657	3
0.0011864889451636124	-22.864211702890564	2
0.0007232118536879064	-17.015272398493597	23
0.0007880081720442453	-19.038375402349715	16
0.0011686158973685829	-22.802106541857558	2
0.0008495137812478547	-17.45505715371988	4
0.001197962891028204	-22.989032602153987	1
0.0011449963841658496	-22.72422137239992	1
0.00081595915865339	-19.183624186013297	3
0.0009837119518213326	-18.940243347053574	5
0.0008036567341512523	-17.566687272356397	14
0.0011931074067942202	-22.96475713399079	1
0.0008245953411428178	-18.86639799786877	8
0.0010738572872200417	-20.921487920721475	4
0.0011493019340593957	-22.745747390059353	1
0.001040890968692481	-21.499039891163665	16
0.0008052031560926121	-17.86775239272049	10
0.0007260009989744155	-17.19816534405693	9
0.0011670365631305938	-22.83441340206918	1
0.0011764434647260913	-22.88144412633712	1
0.0011587007718083075	-22.792737798337857	1
0.001119810798350787	-22.598303573646547	1
0.0007559253541090494	-17.838245000384326	9
0.0008449485611634177	-19.42957856063326	14
0.0005915929405643122	-17.01475306232467	21
0.0006913748998385527	-18.25216254315037	18
0.0010386483568391317	-21.412568620139236	6
0.0007532833767954108	-18.485034047945373	30
0.0006343138859058459	-17.075765455626996	7
0.0008716026453807615	-20.47515856160409	3
0.0010397343920629217	-20.025215904833324	7
0.0011954510327166483	-22.97647432093337	1
0.001084631404090719	-18.008089707718675	6
0.0010858497566464407	-20.58386120899397	12
0.0007769039306504417	-18.360538319683343	23
0.0006884699055543027	-17.582968732203504	3
0.0011981646432646124	-22.990041282185835	1
0.0010161929006542903	-21.485590064432692	8
0.0006796016492602199	-18.017344513281582	26
0.0008828338792708994	-18.203897223201253	2
0.0011894953539024343	-22.94669832239696	1
0.0010504608181328835	-22.24992640771724	2
0.0006708974217395949	-17.385359508158743	16
0.0011634591559892026	-22.405192835928094	2
0.001126438215493493	-18.96835667506656	6
0.0006660979141173498	-17.725791285857674	2
0.0007623101067864941	-17.394889217352468	6
0.0011358899879167826	-22.67869305399278	1
0.0007056073971768492	-17.654119341727533	5
0.0006636922863581304	-17.057071577640624	9
0.001034644407973887	-21.8055167952012	7
0.0011960123523412052	-22.979280693278263	1
0.0011467486915836592	-22.600361889566713	3
0.0010320345936738746	-22.159457856219067	1
0.0011891344442392835	-22.944893919248806	1
0.0006762775082561062	-17.3399028739068	13
0.0006507809764299934	-17.573111841598667	2
0.0011812347458913177	-22.861425537556148	2
0.0011813456303360554	-22.905952982603704	1
0.0011634523853511736	-22.816493954825056	1
0.0008997523399348534	-17.2407653281142	9
0.0006772143801866739	-17.08683517566874	9
0.0011767430842387335	-22.841794519709175	2
0.0006084070039266144	-17.00173104064745	9
0.0011514005415418135	-22.75623958335491	1
0.0010890754189354054	-22.12499922462085	3
0.0008865706509447215	-19.878363488929857	10
0.0006074078103605015	-17.040417376065864	3
0.0008631935728927908	-18.21124282260623	7
0.0011807749590759516	-22.90309985584256	1
0.0006386584126959998	-17.41827219113691	4
0.0006295897590686611	-17.806910887505346	16
0.0006607099016698171	-17.167275922682006	27
0.0007866573209387368	-17.14999943513475	2
0.001180105582716839	-22.89975324328822	1
0.0008169012804965669	-19.008021122419848	11
0.0009343495461017597	-20.373436984154516	11
0.001030231936654498	-19.58209502060804	10
0.0007245569136983227	-17.733159143824672	9
0.001065750563748208	-20.18243436016227	11
0.001031513713879229	-21.52800331176234	4
0.0006177973705571654	-17.070172662757273	19
0.0010898611388727643	-19.4892906759414	9
0.000891194571051545	-20.22898564323444	7
0.0007719835969245893	-17.98944337564742	23
0.0009114660119853283	-19.214773685419374	4
0.0008081331637224417	-19.209578490947518	18
0.0007981771328736835	-19.244987625582976	13
0.0010059384318733917	-21.44989586243911	7
0.001166281625518227	-22.71511394701941	5
0.0006471729914114191	-17.033299308710575	5
0.0011929269773453036	-22.9638550593198	1
0.0011792396350765743	-22.895423853394398	1
0.0008222628431176576	-18.049723728841187	5
0.0007320760153670705	-18.45610443408435	10
0.0006106169591070523	-17.561923324239686	4
0.0008357835314881896	-19.468913083876046	3
0.0006807718782222027	-17.097883221671022	7
0.001179296687176674	-22.895709090947	1
0.0011167372662074329	-22.27184325632492	2
0.0008807130703378053	-19.494190045519844	2
0.0009328315823686577	-20.54710583727472	5
0.0011428118499173597	-22.694894716886083	2
0.0008686190320352375	-18.880309590771027	11
0.0011256768081559362	-22.627631263204925	1
0.0011180059796874876	-22.527081358675424	2
0.0009213524233603766	-17.710592542001883	5
0.0011430296081781101	-22.71438828355158	1
0.001063996573529345	-21.72325403153296	7
0.00058690340326411	-17.37416713280752	7
0.001142928848227474	-22.436784662662124	11
0.0010613053995644785	-18.590773681178256	15
0.00114141740106681	-22.706327896468256	1
0.0011809291006028015	-22.90387050147693	1
0.0008818990577069063	-19.949881415660943	11
0.0006374066011976864	-17.529907000651527	2
0.0008252913545410774	-18.991555769199437	24
0.000668305512071568	-17.607968421502864	8
0.000680966660637698	-17.620446144442646	15
0.0011930986063048215	-22.964713135083592	1
0.0006809661496856763	-17.33608871164276	8
0.000982476375074224	-20.85706546102131	10
0.0008239945348699799	-17.19830584636741	9
0.0009200184661805853	-20.358738069485273	21
0.0010863578159539197	-22.01540401956478	17
0.0011188706461193044	-22.593603190643723	1
0.0007500849660951255	-17.139152294252717	12
0.0007047343459676084	-17.673053145764857	11
0.0009048790813084922	-20.15869159557311	4
0.0008068434647396464	-18.46331172203727	3
0.0010999512442853771	-22.49901379136781	1
0.0007935538306530681	-19.079501313444087	15
0.0007008939331174217	-17.287237314426854	10
0.0008020272695565903	-19.029122082604793	8
0.0008195530661434091	-18.99424893569006	5
0.0010591741858846499	-21.59357975867487	5
0.0010450265377744915	-22.2244123510118	1
0.001080170635377995	-18.88728412546736	9
0.0011216650767805923	-21.820746026314648	4
0.0011239199896264163	-22.618847877197126	1
0.0010771690203439945	-22.385111835285862	1
0.0006897590930462419	-18.09196724818709	19
0.0006595035599201592	-17.189621899748687	7
0.0011745349529523653	-22.8719023351234	1
0.0011655220388826714	-22.82684139001207	1
0.0009996425033669024	-18.674828928316707	9
0.0006359753795579497	-17.120118532206195	7
0.0010457743155812993	-21.715843750154598	3
0.0007724172510164972	-17.65474770791814	12
0.0011743930785348927	-22.871193020101757	1
0.0008202726929210953	-18.571731887886273	8
0.0011260400806159274	-22.51614763190077	3
0.0008278749942394467	-17.81813489126744	4
0.0006821242089775677	-17.253397081156642	18
0.001192719894810465	-22.962819729939785	1
0.0008915010375447488	-17.278169220100835	10
0.0008978769088872072	-20.083260733291795	17
0.0006139088968796374	-17.192157404701522	9
0.0006740400551455203	-17.517950853234154	23
0.0010822033405701631	-21.66512155343861	3
0.0011709554783674609	-22.854006401960103	1
0.0011045544784783633	-22.127701986845995	7
0.0011118547362124137	-22.444494356580236	19
0.0006810169760345019	-17.808701991224282	12
0.0008808204434730638	-18.911516522854782	8
0.0006352368406332526	-17.170998340986927	2
0.0010126137934452631	-21.628074825344257	2
0.0006523248158452954	-17.167687847393104	14
0.001134057921524285	-19.27783071089556	5
0.001181384503814481	-22.90614733435987	1
0.0008455138246311449	-17.76087619526021	12
0.0011580582895155671	-22.78952564529786	1
0.0011765210685765082	-22.85915080307914	2
0.0011505460374637868	-21.20239103852426	6
0.0011953191999615512	-22.975815210184575	1
0.0011874653787572666	-22.93654926318188	1
0.0006145554656601258	-17.094195878464447	8
0.0005933037101748831	-17.06283221264018	4
0.0007779109874400107	-17.708397287885333	8
0.0007250730783034087	-17.93291232657975	9
0.000673091393336856	-17.22604931706681	4
0.000627741458680471	-17.262675630055305	3
0.0007686420393929436	-18.29132320228677	52
0.0007332065301987867	-18.591131759359097	21
0.0007341409309728202	-17.64736482608695	12
0.0011968910075683772	-22.98367361599529	1
0.0011800566467401446	-22.89950858308812	1
0.0007319272769155568	-17.968871551409123	11
0.0007492551044558245	-18.51461624049277	7
0.0011346869582983538	-21.74527978588513	3
0.0006888920156946971	-18.66447908042016	3
0.0007172725006961243	-17.02493887254242	20
0.0009534741565917519	-20.498952665370556	6
0.0011391663138590154	-22.69507336587728	1
0.0007061304682907168	-17.795119410235284	17
0.0011232341659169602	-22.61541903450664	1
0.0006186368008527903	-17.089128171448145	3
0.0008655059222480593	-19.69938344001265	4
0.0008367111205613298	-17.360716577376678	8
0.001190930018647348	-22.95387106906067	1
0.001177974761640062	-22.889099994978046	1
0.0008260293672040691	-19.02559725459649	5
0.000995886660041241	-20.94546348626944	4
0.0011355668211037197	-22.677077349913876	1
0.001161604843925714	-22.67649804417065	2
0.0011824285901951418	-22.91136734630347	1
0.001076919918128563	-21.969434073944186	8
0.0006126243333627684	-17.20248030353696	35
0.0011349459802065362	-22.349531498413025	3
0.0011419232743407868	-22.70885705936227	1
0.000812218785574285	-17.68782103296363	5
0.0006463836086593646	-17.434808116991793	24
0.0007796134224465808	-18.728009096841674	5
0.001170254506283908	-22.85050182349222	1
0.0011919085122608212	-22.95876314355151	1
0.0005945527287498527	-17.03128329373027	16
0.0011666392058533501	-22.832426775510775	1
0.0010447909872065599	-21.293994726052677	6
0.0011573989740841864	-22.78622933333541	1
0.0011900946019439006	-22.949694321570565	1
0.0007777699566436113	-19.01854651428011	3
0.0006825454734707654	-17.583244059842272	3
0.0009234811796277975	-18.16293176480106	26
0.0006636356234634431	-17.02487081625798	3
0.000828839851424345	-18.996943588601823	9
0.0011834045373158297	-22.916246689354654	1
0.0011303065048510613	-22.494403858849108	15
0.0006394290050790273	-17.1183937286319	6
0.0006708442943053514	-17.46676771923459	7
0.0011595688245741764	-22.797077713012964	1
0.0011433632440815008	-20.281337982285535	9
0.0006913172000947872	-18.05548826600272	8
0.0006133450251274041	-17.038920219387936	25
0.0008523594865119952	-19.596293467914293	4
0.001161183007639802	-22.805147979073126	1
0.0011839738155688846	-22.34324529065641	23
0.0011465471279805087	-22.731974467722228	1
0.0011436501627496993	-22.717490806805735	1
0.0010599535672704392	-22.299041494437656	1
0.0007924577291673987	-17.48580129376344	2
0.0007988412501814864	-17.510922911136365	5
0.0010783966834283457	-21.87634643274777	20
0.0009838710393094792	-20.94776030789166	14
0.0006711035710614528	-18.01625688528192	11
0.0007761117169713203	-17.514896340930154	13
0.0010981795272334116	-22.019761296111824	11
0.001086641222246637	-18.564412188397966	13
0.001057169656089074	-20.623308687685842	7
0.0010447166530502582	-22.222863052034633	1
0.0006388160459104446	-17.41224557658925	9
0.0011415468303724923	-22.706974990936715	1
0.0006646915294309431	-17.537027106926217	24
0.0011162963421284349	-22.580732706143873	1
0.0006960416151152105	-17.219220818318163	24
0.0006955689302782692	-17.616332702034946	6
0.0007000512914382311	-17.1249936812928	16
0.0009754509658679049	-20.389618088014547	6
0.0011838746460748949	-22.881703221064	7
0.0009613959813247214	-19.45666349854476	14
0.000720547563182319	-17.233927907074317	8
0.0006738792607773479	-17.36911074310327	10
0.0011101990254422114	-22.19444168095878	3
0.0006766145795042156	-17.282579228950993	3
0.000713792005113596	-17.012000872275394	26
0.0009848052693211587	-21.054579899586074	13
0.0008551125133480234	-18.79390462330385	7
0.0011768718638782323	-22.883585949784127	1
0.0010995923284378751	-22.033310446017136	18
0.0011294742752682475	-22.36453164966175	7
0.0011487804369336055	-22.74314011419061	1
0.0011988782610778657	-22.99360908421577	1
0.0008088909699287899	-17.664300279927005	10
0.0007379667115123456	-17.943251358753553	8
0.0009545738852751595	-20.623537180768707	19
0.0011124930250589432	-22.138933114268912	20
0.0008292600073255432	-17.160780240314367	9
0.0011903591059471818	-22.95101673519633	1
0.0006941448058357687	-17.525519608876433	4
0.001097516139682186	-22.118117613456146	8
0.0006946758252021595	-18.066545530282554	11
0.0007437416604495033	-18.252012403985972	17
0.0011060690061707795	-22.06850449019845	7
0.0011647006360257497	-22.82273470611785	1
0.0010296247662566287	-19.896520708603923	15
0.0007311195164771874	-17.91178738577774	8
0.0005726519453713625	-17.06388076381768	5
0.0011359562328482824	-22.679024252004783	1
0.0007372059991471534	-18.397226149613005	12
0.0008761808233348692	-17.993517306990057	5
0.0008016158142586134	-17.15978206422698	11
0.0009210611972086414	-20.28792780551922	7
0.0008381129772099161	-18.457275982691158	9
0.0007959940020336317	-17.490673221534806	12
0.0010240408850525297	-21.291403018123297	8
0.0008576534465786145	-19.653388713055232	23
0.0011891105756621804	-22.94477458596388	1
0.0011571605281312318	-22.78503719948003	1
0.0007046066741359342	-18.364847764002587	17
0.0010366000427092896	-21.51561152802228	3
0.0007471001194342514	-17.73016172054455	5
0.0011581817065468582	-22.790142680812657	1
0.0011622787484727281	-22.631377491696263	31
0.0010391969369344322	-21.434408163505733	12
0.0006396852982963838	-17.69453171525803	15
0.0011463641909679057	-22.731059856241412	1
0.001189609369801239	-22.947268356030715	1
0.0009051570974708841	-19.15690524287217	4
0.0006358925099268271	-17.04580084098242	11
0.0009038501202119207	-19.552751452626655	2
0.0010125768351894537	-21.260300619179127	6
0.0010404138127908873	-21.445245740748703	3
0.0006119996874242171	-17.08692818096465	15
0.0010808853002831514	-21.841560738188445	4
0.000693971177738978	-18.316313555706547	4
0.0011451320290612257	-22.48769200711886	3
0.0008894634619208457	-19.487422994812984	7
0.0006476079930178396	-17.42431701561945	9
0.001193490877623567	-22.966674333895217	1
0.0011958122428244466	-22.978280226183912	1
0.001118011974168517	-21.35744802686116	8
0.0007256280363629014	-17.72391503924376	7
0.001198991540633997	-22.994175436432332	1
0.0007733134073311017	-18.34114519004592	9
0.0011990110865955869	-22.99427315837837	1
0.0005846915326795344	-17.128469712737857	18
0.000726489634583609	-17.43830952758615	6
0.0006813354773864021	-17.300931318916213	7
0.0011304411324410102	-22.651450968290565	1
0.000647998220907675	-17.39777797087013	5
0.001047280159066814	-18.598261417079147	33
0.0010063882788677524	-21.57139798366311	2
0.0008539459460415837	-17.63314525716614	8
0.0007820564503278079	-17.52374463199365	5
0.0011861134195835794	-22.929790011107887	1
0.00117403328189111	-22.361325925002348	2
0.0005783635899203361	-17.046332206051744	2
0.0009925981408741133	-18.76614885027289	10
0.0006871694328058364	-17.56707359413555	4
0.0006253312142235216	-17.048620612314842	5
0.0006999869656909712	-17.49846612148108	19
0.0008022608861450926	-18.788703563249882	4
0.0008365143978968203	-17.94543545607246	9
0.0011607913798162587	-22.772161714326703	2
0.0006888395093711968	-17.36605202649533	8
0.0011871887806659313	-22.935166383980416	1
0.0008492764382824325	-19.375736643383394	12
0.0006218148434821016	-17.473035247432968	27
0.0011288395477753524	-22.643443689162826	1
0.0006664226684073152	-17.080376368254377	9
0.0011390439258912562	-22.49695841170153	7
0.001189630910832294	-22.947376052521605	1
0.0011425405756576288	-22.71194331765124	1
0.0011764297607456085	-22.88137561194681	1
0.000670560010135161	-17.8413724677734	36
0.0008285750956979857	-17.136562011818334	9
0.0010080528542188915	-22.03955880504661	1
0.0011681224249615182	-22.839842274460885	1
0.0011664763771739735	-22.831612697607984	1
0.0005998547780919616	-17.05175535312862	2
0.0011983271538027718	-22.99085376951051	1
0.000989975183972158	-21.178095133074667	7
0.0010226003036087057	-17.577910150132993	4
0.0011323429317119478	-22.66095919969029	1
0.0011178201981528278	-22.588351373329843	1
0.000921973182913208	-20.700455010994908	7
0.0011236509953745837	-22.31558822443476	16
0.001199040042637171	-22.99441792693939	1
0.001165109743826409	-22.824780080566953	1
0.0010694022636354062	-22.346281175741957	1
0.0006345700481352033	-17.05945782893653	26
0.000855813148687066	-18.22879319275528	8
0.0007404816469115229	-18.404097567349943	12
0.0011903762265468307	-22.951102331308206	1
0.0010367779250909821	-20.29661476345095	23
0.0010263535728246569	-21.777159638276068	2
0.0011948976929080184	-22.973707844458417	1
0.001176531050806585	-20.866618419491452	13
0.0009891196734520247	-21.24104913638461	4
0.0006468654722034971	-17.23736413435764	14
0.0006761939353530669	-17.085676297910574	5
0.001083099696505701	-22.05694082240037	5
0.0011706959909277117	-22.852709069134207	1
0.0007682908783139014	-18.252054229133936	8
0.0007346240356991429	-17.707659473632784	11
0.0011838020193797164	-22.918233939796078	1
0.0011958630462374322	-22.97853422281434	1
0.0007355880349554771	-17.3356470344967	3
0.001173415660212822	-22.866306321635413	1
0.001181355156908287	-22.90600061163302	1
0.0011087131158897736	-22.5428196251287	1
0.000636089437678417	-17.377993933245833	14
0.0006750214221043882	-17.084221045648874	9
0.0011098337897855102	-22.54842254384211	1
0.0011244474609411134	-22.536864710965393	2
0.0007935446497772974	-18.952309178040174	7
0.0008190592694639629	-18.78403323151171	8
0.000636594094993647	-17.014471154546854	16
0.0007229206418965572	-17.222645749382814	8
0.0009667878309237138	-20.90556713647162	10
0.0011009577257503561	-22.236054210786673	5
0.0011593503166268436	-22.79598526116609	1
0.0010111872907016097	-19.727688119475687	2
0.0007670911648387657	-17.477336182560514	13
0.0006151471160758842	-17.257211911399615	5
0.0011627773556550775	-22.813119077859728	1
0.0006275152532217602	-17.26749367915526	7
0.000914629157294958	-18.619776386078478	7
0.0010641310286600134	-21.83890266242962	3
0.0008058272183344531	-18.03682646128312	24
0.001015224899389116	-19.63174099336063	15
0.0006066252624788595	-17.17331203221893	7
0.0011320106787524472	-22.659298068533886	1
0.0011920517974206382	-22.959479511717444	1
0.0005977273250295309	-17.293519810138132	16
0.0006471704477734214	-17.356699085448334	4
0.0011777070391471	-22.887761490198443	1
0.0006458995201463818	-17.25689340394025	11
0.0011322346404798568	-22.66041778708749	1
0.0006713222331207889	-17.278354826655384	7
0.0007151114367540764	-18.19681091736387	21
0.0011721948929500755	-22.860202976347203	1
0.0009262548302642494	-19.930319199669718	16
0.001102053061219659	-22.179224095594723	34
0.0011293930483499198	-22.6462109694028	1
0.0011639725961328238	-22.8190947994905	1
0.0006339151584961101	-17.99817701094342	10
0.0007550437726649868	-17.418284109857556	4
0.0011523426319376606	-22.525258989683554	19
0.0011475320713415136	-22.736898788356466	1
0.001165216527933483	-22.82531395815087	1
0.0011535494714818972	-17.842262043886176	4
0.0007471178033813915	-17.41181190323505	11
0.0008411096159079676	-18.265146867882237	2
0.001178732814572172	-22.892889954729263	1
0.0007428008770862963	-17.501631072542274	26
0.000684394337365706	-17.45248090855976	17
0.0011081802762827515	-22.122649016281162	2
0.0007634214539987493	-18.181387678202668	16
0.0011638467678206474	-22.671823967948562	2
0.0007110021377776768	-17.332595411241776	22
0.001191968213860929	-22.95906162753846	1
0.0006699069168492066	-17.440933710576076	5
0.0010329079774863284	-20.235502929858995	2
0.0009142936931137194	-17.56457893411112	15
0.0007621695823641006	-17.44929320275736	3
0.0007007386579987463	-17.98450199529779	34
0.0011821183743794524	-22.909816392002195	1
0.0011889544952090596	-22.943994246478045	1
0.0006360908942083528	-17.459611109608147	3
0.0008426606255347297	-18.92892338746468	10
0.0007784442750744663	-18.959984343027138	28
0.0006875816186435356	-17.464646795462492	2
0.0006992907164573392	-17.228709005992183	6
0.001145585788807023	-22.727168158531345	1
0.0011865672111800575	-22.932058786563058	1
0.0007086026720953834	-17.157162455888464	16
0.000654955960095547	-17.644591341870104	3
0.000782689372199449	-18.84245574522354	9
0.0007583667432335811	-17.64996212281579	4
0.0007206633838849496	-17.401850790483344	53
0.0009008221319861524	-20.094439725704614	10
0.0011211126827944382	-22.604812472211766	1
0.0009533394095007706	-20.54097581177492	5
0.0011995447425176312	-22.996941223337785	1
0.0006939402648675801	-18.271067292894642	2
0.000941099035974278	-19.42930176485018	6
0.0011992841815811402	-22.99563852345997	1
0.0011800346423343681	-22.89939856991	1
0.0009667283428114378	-18.656134890557897	10
0.0005770388063772497	-17.082066599566886	20
0.000918074674712267	-17.965896417502456	58
0.0011171806557523174	-22.34224160310093	2
0.0007385133323591374	-18.183459105357812	6
0.0011883093541123731	-22.94076880048776	1
0.001185731574744212	-22.927880940499346	1
0.0007090714637883314	-17.693315048984164	4
0.0009827881099783709	-20.87367864445852	9
0.0010453598747462076	-19.47517361232308	5
0.0011222122154524454	-19.67514909546793	14
0.000663045795881584	-17.67027034753703	12
0.0010112986042575016	-21.269747385779915	5
0.0009580897597964614	-19.05505760024447	2
0.0009970080139439744	-21.03493655837967	7
0.0006927028724069677	-17.60102975985442	11
0.0006708853458668299	-17.036074269901246	8
0.0010300339353892783	-21.347237744193386	9
0.0011513465175452468	-22.755969485101982	1
0.000874527419551889	-18.51196280188079	8
0.0011304416951690625	-22.651453781704483	1
0.0005811093603924178	-17.17764988824162	18
0.0009523320386623372	-20.708284157643906	17
0.001172635888798731	-22.862407778210052	1
0.0007600466326883088	-18.742743927444444	5
0.0011545405505748946	-19.309105724250784	2
0.0007644102419435056	-17.919456771918906	5
0.0007508747816486583	-17.53392462285694	11
0.00119918131518937	-22.99512423287675	1
0.0005790294830560902	-17.21407899754314	8
0.001177040497679477	-22.884429050961288	1
0.0009056952389151525	-20.110760683638638	5
0.0007371474854741948	-18.12177025856434	4
0.0006596542415348586	-17.06274516585537	3
0.0010715471842913172	-21.620825938330164	5
0.0011426771399073088	-22.45560121822011	26
0.0009113570364229276	-20.641103722403884	4
0.0008038581762668214	-17.200881034027596	7
0.0008485893751534026	-19.720242498022408	16
0.0008107881427321619	-17.46635694592937	23
0.0006404541365321165	-17.034982299589984	12
0.0009681508909926615	-21.10187509822125	20
0.0011015622268994126	-22.325304498629237	3
0.0005949623054716867	-17.15889641823918	10
0.0011875182005465774	-22.89362539899798	2
0.0006273387744926799	-17.350285868173145	10
0.0008290523181127179	-18.283168988496147	8
0.001066800241185797	-21.72794020300742	5
0.0008232774621551978	-19.424417351460665	4
0.001163264811890954	-22.815556162971063	1
0.00119451038593031	-22.971771465355186	1
0.0006220130180285219	-17.29140637797942	7
0.0007084506159280657	-17.97640434528212	6
0.001168944199515322	-22.843950816690015	1
0.001155526259050839	-22.77686651142517	1
0.000680214994454245	-17.542068027592315	28
0.0009170322876379104	-19.789470850657562	16
0.0011856034457380683	-22.927240347005572	1
0.0010194982014106247	-21.321223905016122	4
0.0009466010131903758	-20.55427390213477	18
0.0010865771758955033	-22.108598415785266	3
0.0010800370192315435	-22.399450676137093	1
0.0011974971896681322	-22.986704282671276	1
0.0011822168522728244	-20.360081754381284	5
0.0007550239208777934	-17.616577138488232	8
0.0010989961898024397	-22.49423890310179	1
0.0007216991015258464	-18.196829528919913	6
0.0008348800258550616	-17.14286188190244	24
0.0007959268356887492	-17.77736938021398	9
0.0011166554513604178	-22.582528107860366	1
0.0011442676165862855	-22.720577827632077	1
0.0008954577868029985	-20.03797264396425	21
0.0007910925668054291	-19.737589386056488	7
0.001161448220576991	-22.806473937083275	1
0.0010785417641863734	-20.387495405036034	6
0.0010644544799814507	-21.645466778648352	11
0.0011545362936935194	-22.771917082829344	1
0.0010330650944450884	-21.475573106345266	9
0.001035378370357738	-21.382146995717044	15
0.001128177810198661	-22.414709165505823	45
0.0011877858352305733	-22.938151416652175	1
0.0006741383311983964	-17.619439698682122	7
0.0010449499893092475	-17.91927688171249	8
0.0008112537574453045	-18.8168008448086	13
0.0006851703861143242	-17.537095611971402	10
0.000802604726327175	-17.974652502745208	4
0.0008612740992366655	-19.48504458280245	8
0.001021756606679037	-21.38405057880023	3
0.0005988675967704452	-17.171398435062127	2
0.0007731243045759575	-18.192759600916062	9
0.0007284099078252671	-18.415252069479024	9
0.0011846427869169362	-22.922437439302797	1
0.0011565706985828337	-22.782088288983395	1
0.0008400613601784731	-18.87071482444222	8
0.0006529448506780645	-17.712247486920546	12
0.0011136025383844065	-22.567264770944256	1
0.000872397605049557	-19.81976327521124	6
0.0007781683135407126	-17.611932511521672	20
0.0007374206243680909	-18.027595591720726	8
0.0011617402699372233	-22.807934066414305	1
0.0009969748685508344	-20.032439895947384	22
0.0008128407870952539	-19.24746539321966	5
0.0010509229389377545	-21.52146236774451	5
0.0009272874208358531	-20.30060633933503	19
0.0011140243383308951	-20.265267056261703	4
0.0009347870883199677	-18.535399147890907	6
0.0006633399209186574	-17.06000899659215	4
0.0009638829366051325	-20.79541003430174	7
0.0011373046990911706	-21.509898981570142	10
0.000666147613481363	-17.251475693648747	14
0.0010485845745774984	-19.869454790401537	3
0.0008186775083545263	-19.469260640136056	4
0.001136706174113954	-22.42577661341349	3
0.0011305249543149681	-22.651870043944935	1
0.0011884263677405386	-22.941353821562547	1
0.0011136091247175338	-22.384171620344613	9
0.0011672985135893741	-22.83572304899954	1
0.0011898261129421228	-22.9483519845552	1
0.0011453677539420405	-22.72607807190594	1
0.00064759640387617	-17.466035796194827	9
0.0011024148390666084	-22.098591600699827	5
0.0008725036638814177	-20.213735642495433	3
0.0011242693902825483	-22.620594739939417	1
0.0006976584959477392	-17.9133818802108	24
0.0011028251400661518	-22.390037932371595	4
0.0007510488036337595	-18.860785526582177	19
0.0010175960184754624	-19.11809728071997	32
0.000882579569159458	-19.865097201369803	13
0.000728747890536913	-17.140432550790827	19
0.0008151603282777905	-18.748398764746582	15
0.001192296482059898	-22.96070283649498	1
0.001137068021750525	-22.68458274932451	1
0.0007543472853039243	-18.54628363599634	12
0.0006565434983439628	-17.504147905465736	9
0.0008204499279253681	-18.746724554036064	6
0.0011953160682820299	-22.975799553046613	1
0.0007034542597759915	-17.996682221324157	2
0.0009695731331704555	-20.289471284780667	9
0.0011577858466172877	-22.788163540390347	1
0.0007411321382262339	-17.217676204290385	2
0.0006736404338027969	-17.618137292710507	35
0.0010249798620400338	-17.311598767607293	16
0.0008086415069697288	-18.118108415007978	16
0.000756370117516767	-18.659665985054016	6
0.0007599614694665142	-17.27793206143347	12
0.0010391894456551198	-19.8413607122173	4
0.0007977102877927864	-19.251948708664358	17
0.0010436492813717007	-19.92362207513972	38
0.001085605122487727	-18.029143697850657	8
0.0006614165824015774	-17.535577115210724	9
0.0008237672271132247	-17.836757591254234	3
0.0011985967130333766	-22.992201457239542	1
0.0011664705521894447	-22.723982890827333	2
