T	U	Steps
0.00016854921618500847	-19.342528285884068	1
0.0005208388188526556	-21.10383459884192	1
0.0005190556736642988	-21.094919590129226	1
0.00040604982545168125	-19.55204141942288	2
0.0004011297188283585	-19.954340657576882	2
0.0005324504749473635	-21.16188820879418	1
0.0005852850010403779	-21.42603958778777	1
0.00024256527320930997	-19.712578799751032	1
0.0004476591173675337	-20.7379655262661	1
0.00038096679343552675	-19.471120799096493	4
0.00053799481002019	-21.1896076540772	1
0.0002891922733853114	-19.94569504599391	1
0.0005691131842628247	-21.34518700864091	1
0.0005616065225177641	-21.307656719297434	1
0.0005363091461988128	-21.18118001298977	1
0.0003463248295987277	-19.859754109993933	3
0.0005374485574167436	-21.069679331937785	2
0.0003066738010396612	-20.033095652723716	1
2.843643818273534	-120	0
0.0005445405945332393	-21.22233394375136	1
0.00028323458929392815	-18.70803844502411	3
0.0004974288635857522	-20.673102197312044	2
0.0005860133239835795	-21.429680909552644	1
0.0005477191291547581	-21.238225338366593	1
0.0005485821598243659	-21.24254014458042	1
0.00034134957127790987	-20.206460556384872	1
0.0004897640093148231	-20.948473050279325	1
0.0005617945073560427	-21.308596567876254	1
0.00040835318795296707	-20.07361692534644	1
0.000575620589649642	-21.377721418121027	1
2.843643818273534	-120	0
0.0003285222678641714	-18.8686933144132	5
0.0005953973817076281	-21.476597423651757	1
0.0005581421319720617	-21.290336160040244	1
0.0005918587926699188	-21.45890590177917	1
0.000572921021203746	-21.36422466173079	1
0.0003615990992746271	-19.43400768867014	3
0.00014778286581402893	-19.238704886815416	1
0.00044220570061498826	-20.30799926397421	2
0.000360570493590765	-20.302557436775754	1
0.0005410646761160076	-21.204955749773344	1
0.00050499408810909	-21.024617318302173	1
0.0002689703005500683	-19.844593315640612	1
0.000594725710341697	-21.473239336986442	1
0.0005727095867424396	-21.3631675744689	1
0.0004594480126898872	-20.79690526106619	1
0.0003977096745598735	-20.416132575472865	1
0.00013177087421666588	-18.80639624287655	3
0.0004635559267916735	-20.817443179261268	1
0.00023481381587379523	-19.673824630918674	1
0.00021278228252448396	-19.56367582584908	1
0.0003306039527137438	-20.152736785741663	1
0.0005461366697135687	-19.64293817851912	2
0.0004789040423640718	-20.894177583697196	1
0.00023344694666710902	-19.666990834676906	1
0.00017633584999465342	-19.226473799811657	1
0.0003221617245925624	-20.11052904082762	1
0.000470839386916156	-19.926774831701547	2
0.00037580751971649876	-20.37873643866153	1
0.00044769883040224453	-20.25105953443792	2
0.00036701447329063594	-20.334774743332662	1
0.0005722214924880379	-21.360727299521567	1
0.0005715911760007948	-21.357575970615642	1
0.0005359968164507515	-19.307815964993974	2
0.0005783727280649624	-21.391481003213322	1
0.0005011077383119429	-20.97151141138367	2
0.0005532803892369955	-21.15722373094158	2
0.0005960645690066098	-21.479933091785938	1
0.0005324405964411611	-21.16183882023657	1
0.0004308243929948678	-20.65379867578299	1
0.00030226698973832	-20.011063368755377	1
0.0005498544819878074	-21.248901243635334	1
0.0004977538473227112	-20.98841902659041	1
0.0005468447362546449	-21.233853725570437	1
0.00040863962639415234	-20.54288376609092	1
0.0004306034083105537	-20.65269384124742	1
0.00027527856441516023	-19.51345293180598	1
0.0002998968254102018	-19.999213500458808	1
0.00036866793087591843	-20.343041366193834	1
8.157621537577393e-05	-18.907698264724715	1
0.0005905995256396832	-21.452610073139155	1
0.0005405544443700065	-21.202404796272308	1
0.00037760764777614974	-20.387736354899726	1
0.00037367009070347744	-20.368050153328024	1
0.0005391535899675838	-21.19540108772162	1
0.0005495991270280607	-21.247624571547256	1
0.0004726738462113433	-20.86302910888649	1
0.0005523405611556745	-21.26133063950657	1
0.00037191099653840473	-19.48776533896415	2
0.0005290134785957528	-21.144704609488763	1
0.0002527739422079097	-19.763618038542003	1
0.0005138896501135605	-21.06909155028955	1
0.0005463158675437602	-21.231209594741273	1
0.0005949170287440807	-21.47419585204494	1
0.0005358532138836986	-20.949930914348197	2
0.000527446775277005	-19.936220440952326	3
0.0005949080031336638	-21.474150727623197	1
0.00048253105794252097	-20.912311202705947	1
0.0004993135669587037	-20.996216997409064	1
0.0004782905216112755	-20.891110226707813	1
0.0004822221132256602	-20.910766603387543	1
0.0005691397523020714	-21.345319838150758	1
0.000515617688816136	-21.077731048738652	1
0.00036756878598525125	-19.93670861032369	2
0.0005421210498460377	-21.210237193521486	1
0.00016313685772221753	-19.315468670566673	1
0.00028563466495231294	-19.92790843479499	1
0.0005984526003376675	-21.491872287910613	1
0.00037526595903385033	-20.3760288530786	1
0.0005531176636602301	-21.265215839457763	1
0.0003036926069968642	-20.018190881626385	1
0.0005727548441374097	-21.363393843240004	1
0.00047394454117254966	-20.52035734158669	1
0.0005831501752343478	-21.41536631744214	1
0.00030414784955053143	-18.698848661669484	5
0.0005776734357239657	-21.38798482278258	1
0.00040711664521824294	-20.535269472795484	1
0.0005758720102366985	-21.378978419928167	1
0.0005200261319173975	-18.640399023065047	2
0.00031946960845096595	-20.09706954296136	1
0.0005762985283569679	-21.381110838972422	1
0.0005755155911912753	-21.377196468062404	1
0.0005628772635087524	-21.31400991312607	1
0.00024134695129800614	-19.422419879076948	1
0.000569547382890932	-21.347357827135045	1
0.0001503293272018865	-19.251436169499247	1
0.0005218496284845794	-21.10888824042664	1
0.00046809724744981997	-20.401963035753088	2
0.0005749450809166581	-21.37434414616394	1
0.0005168224313524277	-19.202214451885872	2
0.0004784435678781883	-19.01740988018682	2
0.0005375775993691894	-21.187521768635577	1
0.00036216063659932603	-20.31050751222015	1
0.000501301071865538	-20.588250385153295	1
0.0005477638367415926	-21.23844885831817	1
0.0004963992123899318	-20.98164639679722	1
0.0005663510088292855	-21.331377242494675	1
0.000569841192376821	-21.34882675638639	1
0.0005239693927027254	-20.915208595719687	1
0.0005347552126292204	-21.066872406388235	1
0.00039859184923598335	-20.492648921787065	1
0.0004475927590222256	-20.737633761230676	1
0.0003007583481293718	-20.003520767526986	1
0.00026612792699538893	-19.830382591146524	1
0.0005478184660400275	-21.238721982836967	1
0.00036206982629319084	-19.77734349843139	1
0.00042851987616015824	-20.64227701854827	1
0.0005156007504246422	-20.69203554232126	3
8.80676855281068e-05	-18.940153004441992	1
0.0001362203350787285	-19.180896883900648	1
0.0003393532545962196	-20.196479775948834	1
0.0004171228631702819	-20.585296537784924	1
0.00014577376350498496	-19.228660183385333	1
0.0005136873147377495	-21.06807995479524	1
0.00034417029463363664	-20.220563038592488	1
0.000475744333749679	-20.878380311545264	1
0.0005152608770891608	-21.075947133623075	1
0.0003585829162108282	-20.2926203493333	1
0.0005948160030466798	-21.473690764193194	1
0.0005866983611941019	-21.433105820064814	1
0.0004889284393258305	-20.944295536423148	1
0.0005960894412836957	-19.74626539694126	2
0.00026247611863903955	-19.8121250182206	1
0.0005807504563106904	-21.40336868805553	1
0.0001404040540167622	-18.795483615747592	1
0.0005653178920874831	-21.326212074333082	1
0.00042734135219733854	-20.30952184819602	2
0.00042803447048542616	-20.639850185417867	1
0.0005614673376673776	-21.3069608510294	1
0.0005664756470581685	-21.332000383506234	1
0.00029321641456767333	-18.65530231232541	1
0.0005818213472132302	-21.408722711827025	1
0.0002119742377709287	-18.564299963004306	3
0.0005302684877086782	-21.150979150254873	1
0.0004493214271763903	-20.74627640668454	1
0.000484553850945438	-20.922424354098627	1
0.00057899894221967	-21.39461182210664	1
0.000583114821205945	-21.41518956152047	1
0.0005824465467548491	-21.411848458062998	1
0.00014218196055758485	-19.210702613368362	1
0.00030586423944433706	-18.93683186509582	3
0.0004471507616044655	-20.735423951925156	1
0.0004831634167336473	-20.43780560770106	1
0.0003330616504898182	-18.864942053807237	2
0.0004831066964243926	-20.91518916357798	1
0.00021868486998744544	-18.51032435716112	2
0.00030808484456136233	-19.550327861101355	2
0.0005905391795286254	-21.4523083668567	1
0.0005674914866602575	-21.33707917291859	1
0.0003152226604584276	-20.075836511235703	1
0.0005315272206229505	-21.157272308529908	1
0.00042333074336217615	-19.977546148200926	2
0.0003231971805276555	-18.775204939259172	2
0.0005733159329686227	-21.36619906171101	1
0.0004711262213650431	-20.85529160715145	1
0.00038208145320896855	-20.410103582578603	1
0.000518030990195492	-21.089796584940522	1
0.0005023357214430596	-21.011326554238796	1
0.0004552986378370598	-20.42042470305969	2
0.0004917945918075092	-20.958625145987707	1
0.0003346298634716763	-19.737111482413468	2
0.00044311223379347125	-19.95022331906957	2
2.843643818273534	-120	0
0.0003438191981673023	-18.989449023817812	2
0.0004622357701213587	-20.810842926912315	1
0.0003090727199638774	-20.0450892824349	1
0.0005428537972408103	-21.21390063576458	1
0.0005757103296684377	-21.37817008211915	1
0.00037520728841692924	-19.569709587251822	2
0.0005719723283231752	-21.3594815789178	1
0.0005515631146718234	-21.257443719797262	1
0.00048024819825820034	-19.10477592071146	2
0.0005179167975059859	-21.08922566742437	1
0.00053739263156626	-21.18659700401997	1
0.0004824472421176048	-20.91189215729435	1
0.0005106374967497066	-21.052832091574082	1
0.00043565559657034213	-20.24158711987813	1
0.00046492160939322705	-20.49672184582006	4
0.0005381589452986462	-21.190428264449846	1
0.00034515189577227073	-20.225470649459204	1
0.0005069150553153781	-20.615191390612832	2
0.0002656814889135295	-19.111125488013432	3
0.0005768585336520537	-21.383910640198618	1
0.0004019035076523502	-20.50920588183056	1
0.0005282550390063554	-21.140912716606636	1
0.0005000212565280687	-20.999755160604057	1
0.0005336869018777421	-20.082232995249257	2
0.0005394083304276826	-19.66941756899366	2
0.0005978001529528058	-21.488610313418242	1
0.0004503817805876466	-20.560468984943604	2
0.0005420523971214241	-21.017959464241866	1
0.0005078954406676767	-21.03912291409285	1
0.0003367407824007755	-20.183418465778395	1
0.0002899171607052923	-19.949319191024586	1
2.1674693903705006e-05	-18.608214751372014	1
0.0005319313685225948	-21.159292885468943	1
0.0005162398461680176	-20.917952845771566	1
0.00026476011821950445	-19.823544097436685	1
0.0005348850751901952	-21.174060230746456	1
0.0004717398060062822	-20.858359283557352	1
0.00018970376665426278	-19.448292529299547	1
0.0005798245856778419	-21.39873970730143	1
0.0004502401569644641	-20.750869686087007	1
0.000589796519399571	-21.44859536492936	1
0.00042952727392248487	-20.647313602157354	1
0.0005786215084379602	-21.392724805012136	1
0.0003594315640707524	-19.652978425114235	2
0.0005912355287087029	-21.455789832666664	1
0.000556843679010259	-21.283844417504035	1
0.00059965968485526	-21.497907224976625	1
0.0004955815605425595	-20.977558466441987	1
0.0005443782061619326	-21.221522067211808	1
0.0002557382175050031	-18.99789800034747	2
0.0003536619820814861	-20.26801765801903	1
0.0004623851327312352	-20.811589679884026	1
0.0005585651048923687	-21.292450854510662	1
0.000441652352793705	-20.040389525403683	2
0.00046570715751141997	-20.660907763979708	1
0.00027985470001002185	-19.899010934941337	1
0.0004017172505550039	-20.508274671261457	1
0.0004859178932991185	-20.9292440172124	1
0.0005446455268037407	-21.222858562897276	1
0.0003792299374438901	-19.898387359746575	2
0.0003846618804450867	-19.707488248588813	1
0.0002985035437953984	-19.992247652800238	1
0.0005678290937440796	-21.338767072543025	1
0.0004925647872110846	-20.96247581321222	1
0.00043361521539374444	-20.66775166523333	1
0.0005913613718266204	-21.456418997638757	1
0.0005983679472958598	-21.491449056751314	1
0.0005933469062827856	-21.46634587128407	1
0.0005267837595301402	-21.13355691101385	1
0.0005948405296553236	-21.47381338737115	1
0.0004027110823066209	-20.513243430273608	1
0.0004304404049172118	-20.651878889845072	1
0.0005341202879512265	-21.170236602169666	1
0.00016870130880393492	-19.343288687802946	1
0.0005377907610154237	-21.188587491127382	1
0.00039592510296008	-19.466904925662416	2
0.00035693593040824617	-20.284386082782504	1
0.0005474567355900345	-21.236913476084744	1
0.0005277973927285238	-21.138624669295154	1
0.0005988335582515585	-21.49377692424852	1
0.00011006717909301292	-19.050141623476826	1
0.0003620560841155479	-19.49048428558799	2
0.00038474294116757344	-19.615230128571643	3
0.00037429634754530035	-19.431495068223995	2
0.00041058836944602665	-19.50259205360955	2
0.000536234732915551	-21.18080797650449	1
0.0005426842672134075	-21.213053053817116	1
0.0004369207961875338	-20.68427823960852	1
0.00044889720363541514	-20.2033778169187	2
0.0004932078652273512	-20.96569094463023	1
0.0005278507644371235	-21.138891506370616	1
0.0003026227178431057	-20.012841866195867	1
0.000534358148553656	-21.171425809507863	1
0.0004960810712299257	-20.980055818962146	1
0.0005193700627869715	-21.096491409286806	1
0.00044192294685688313	-20.709286980955344	1
0.000445865351677467	-20.72899741931671	1
0.000270522581106278	-19.85235409405255	1
0.0005786705930647835	-21.392970208403092	1
0.0005224127122760335	-21.111703432896423	1
0.0005639201046433326	-21.319223699340142	1
0.0004005203830794736	-20.50229081529619	1
0.00046275626255866165	-20.149815496186534	2
0.0004960646791976361	-20.979973865394015	1
0.0005996004223581397	-21.497610936327998	1
0.0005757286742159424	-21.378261797478	1
0.00040113956990854615	-20.505386500387907	1
0.0005919015581996734	-21.459119712226492	1
0.0005009290920388276	-21.004293973001925	1
0.00044237427532702815	-19.976506922851247	2
0.0005651177893797385	-21.325211641281065	1
0.00052362171200377	-21.117747945242805	1
0.0003665088766170087	-20.060299666437466	2
0.0004176059535377666	-19.998649558781935	2
0.00046232140311857473	-20.811271057454494	1
0.0004506893113101745	-20.75311527715357	1
0.0004462864566187862	-20.73110277464354	1
0.0005638512973918359	-21.31887969075879	1
0.0005184576964791217	-21.091929944725894	1
0.00036237284699711255	-19.347868481702807	2
0.0005986379942713434	-21.492799183008554	1
0.000598480383913118	-21.492011194612562	1
0.00044532902011761125	-20.72631597724445	1
0.0003847270050989786	-20.423330277916325	1
0.00043078833549864984	-20.653618402805197	1
0.0003956533171971918	-20.477957443549954	1
0.00021637741739105812	-19.581650054121738	1
0.000559214378479448	-21.29569696129071	1
0.0005286589359271048	-21.14293203875215	1
0.0005200549655717423	-21.099915647724284	1
0.00032784470488556315	-20.138941656444665	1
0.0005540785135019857	-21.27001970218682	1
0.0005920955623196589	-21.46008965479273	1
0.0005277543385085037	-21.138409415512623	1
0.0005112919110424149	-21.05610389981454	1
0.0005331823201837128	-18.84685119949968	3
0.0005114199422490822	-21.056744004350275	1
0.0004999421426894089	-18.777804970043853	5
0.0005425447326060244	-21.212355436904787	1
0.0005770121007870962	-21.384678414104986	1
0.0004707433094177433	-20.853377201432462	1
0.00013255692262778267	-18.950599191152005	2
0.0005546356870826814	-21.272805345980053	1
0.0003972476660610745	-20.48592854657925	1
0.0005469686977290262	-21.234473483081697	1
0.0005840010562148433	-21.419620380097335	1
0.00016381134329295497	-19.318840827124074	1
0.0004491738492749436	-20.68438152377849	1
0.0005354849530181548	-21.128174523227067	2
2.843643818273534	-120	0
0.00030519654312873826	-20.02570995736208	1
0.0005830505409659226	-21.414868186175603	1
0.00042704189226210336	-19.777754575685005	2
0.0005919365998408655	-21.45929490633776	1
0.00024280167246731041	-19.713760700954875	1
0.0003551695258829484	-20.27555477065156	1
0.000488287331558507	-20.61730466959951	3
0.00041629524895195986	-20.581158799582074	1
0.0003132110439371253	-19.07786760190044	1
0.0004664949291080814	-20.832137008697305	1
0.0005328346793189463	-20.929643115529498	1
0.00041509831610390426	-20.575174616780473	1
0.0005883363178804873	-21.441294944666378	1
0.00012267181316651547	-19.113159723920536	1
0.0004085091998364099	-20.54223168576329	1
0.00032291393948954327	-20.1142898127514	1
0.0005126426954378078	-21.06285727846959	1
0.0005725356353760167	-21.36229788760472	1
0.0005627525222617894	-21.313386257065552	1
0.0003717011265703362	-20.3582061246328	1
0.000494051658237354	-20.96990957028393	1
0.0005108688390972436	-21.053988710259635	1
0.0005901006720674617	-21.450116005930408	1
0.0005494388759894962	-21.246823380811723	1
0.0001714918425427143	-18.866301751902558	2
0.0005773605077265972	-21.33471285264949	2
0.0005382999070260158	-21.191133016388086	1
0.0003439819086919447	-19.346946881909947	3
0.0002834913198462122	-19.9171925713757	1
0.00025464539884661314	-19.77297456898518	1
2.843643818273534	-120	0
0.0005731467188127794	-21.36535305899429	1
0.00041485508447080546	-20.573958556449302	1
0.0005715039053625175	-21.35713965252686	1
0.0004918706279971024	-20.959005296351865	1
0.0005466316390811855	-21.23278832541657	1
0.000519940583656626	-21.099343784156197	1
0.00044976038777979043	-20.748471033139747	1
0.00036514051059762377	-19.35668625853984	3
0.00045273427550460605	-20.41610934242029	1
7.603038394798281e-05	-18.879971338268746	1
0.0004761834133518681	-20.88057553294655	1
0.00043186036360443703	-20.329264086366454	2
0.00058109136194363	-21.405073079098788	1
0.00023262172696018223	-19.662865068067898	1
0.00043910021529210933	-20.695174458510248	1
0.00040835640507803504	-20.35788284703899	2
0.000518916328099375	-21.09422291835315	1
0.000494165835255879	-20.97048040945148	1
0.0004305461915903345	-19.897527622235906	1
0.0004702655810757639	-20.755704460351172	2
0.0005864350249312288	-21.431789244671396	1
0.0005255137791879699	-21.12720752012335	1
0.0005529008650858522	-21.26413193378811	1
0.0004616164000995394	-20.774220081369727	1
0.000568238162152152	-21.34081225004504	1
0.0004408189035580147	-20.703767208537	1
0.000585290441629736	-21.42606678854621	1
0.00044558352571825717	-20.727588402878663	1
0.0005828767742882166	-21.413999422680718	1
0.0005837294966223172	-21.4182626913633	1
0.0005723820403163776	-21.361529974086597	1
0.0002890046456043314	-19.944756982557966	1
0.00036804353031980475	-19.161733598401007	2
0.0005567769221916025	-21.283510660262145	1
0.0005375978280141562	-21.187622903723902	1
0.00035640439554593693	-19.276581315275884	2
0.0005061026960532265	-21.030159912110836	1
0.0005890504432126896	-21.444865284086923	1
0.0004968206613844833	-20.663870665278463	2
0.0003448063723829427	-19.04881014176716	1
0.00029255000777775173	-19.962482367384773	1
0.0003129601725774493	-20.064524981864462	1
0.0004119051502727411	-20.55921007200208	1
0.0005291461996839461	-21.14536816154573	1
0.000550913554283649	-21.254196179127103	1
0.00035704381166981895	-20.284925445697613	1
0.00038019769582429643	-20.400685553353274	1
0.0003185232145081027	-18.693324175374027	2
0.0004933792702729856	-20.966547900914666	1
0.0001967819220129122	-19.48368045906779	1
0.0005932225418496898	-21.46572409914132	1
0.0005658222346059533	-21.32873358406527	1
0.0004939503960989327	-20.661040258815593	2
0.0004277402936323507	-20.15877729863347	3
0.0005455464657449063	-18.70739719836431	3
0.00024838214095472864	-19.74166079877702	1
0.0005823085728652484	-21.411158644111815	1
0.00026611546767551413	-18.934472715182032	3
0.0004377153109827934	-20.688250494009537	1
0.00036132672340593463	-19.13131574537672	3
4.589747404376055e-05	-18.729318909016765	1
0.0004580764805245887	-20.36901955182007	1
0.0004733966544705659	-20.335787355093306	1
0.00039441523973654264	-19.925946181963596	3
0.00046844429978981297	-20.841883078016494	1
0.0004459928198090186	-20.729634708703347	1
0.00023742348472175254	-19.68687192547926	1
0.0003145455137710813	-19.327770167508227	2
0.0004116461766826598	-20.13603387445691	2
0.0003840322972707885	-19.280640868961413	3
0.0002395989146559134	-19.517488795144693	2
0.0003927562534670721	-20.46347329017653	1
0.000556026378249513	-21.279758242440714	1
0.0005614136523001577	-21.306692445787004	1
0.0002748788125537355	-19.87413349909605	1
0.0005629071522751029	-21.302244978651437	1
0.0003073211205631204	-20.03633198997164	1
0.0005686081514597799	-21.3426620477635	1
9.616726561124113e-05	-18.98064764698809	1
0.0005934400798578105	-21.466811701682268	1
0.0004516584195182879	-20.757960428392675	1
0.0005448894986473337	-21.224078323983186	1
0.0004691149005993141	-20.845235812330266	1
0.0003995170194500478	-19.56054852560925	2
0.0005802543712412553	-21.40088846224715	1
0.0001440131162390441	-19.21985765523545	1
0.000552080206959266	-21.260028973246012	1
0.0002845965673349756	-19.47328404266782	1
0.00047657996756701363	-20.882558144517475	1
0.00037673213716231944	-20.383359153984557	1
0.00018694232335183722	-19.4344864235144	1
0.00022770080486293184	-19.638262436909244	1
0.0005050348939094714	-21.024821330890884	1
0.0005267071172268168	-21.133173730324835	1
0.0005030559491960833	-21.014927403308885	1
0.0004826333171073725	-20.91282245739881	1
0.0004387885543207283	-20.047675362444846	2
0.0005973739856354725	-21.486479648247567	1
0.0003658416168425652	-20.328910932846807	1
0.00017719127119822015	-18.640124643267008	2
0.0005160355923078805	-21.079820398105316	1
0.0004293544360066804	-20.646449482098404	1
0.0005830754768736038	-21.414992855684115	1
0.0005602888764427462	-21.301069018915136	1
0.0003159762495894477	-20.021587078358362	1
0.0005636719447691164	-21.317982999785656	1
0.00048044799187436037	-20.901896710230503	1
0.0005903805984661807	-21.45151552533006	1
0.00027878991345122394	-19.893687430433218	1
0.0005171262525982276	-21.085273260864064	1
0.00015991418423741435	-19.13257380425986	2
0.00046781668870645707	-20.83874527504182	1
0.0004294203501092297	-20.64677902609872	1
0.0005997526127872735	-21.498371827258573	1
0.0005510886271322875	-21.255071472951272	1
0.0005085966804401025	-20.69087950081044	2
0.00040335606811806425	-20.51646809990013	1
0.00021974084141919038	-18.638550315951022	2
0.0005818251650846107	-21.408741799648276	1
0.0005391077368513776	-21.19517184058395	1
0.0002954760185653938	-18.70064037289073	2
0.00045221542807926757	-20.026830747494323	2
2.843643818273534	-120	0
0.0004505281464990584	-20.49309333675668	2
0.00036503054452251217	-20.324855897481704	1
0.0003020806506482571	-19.752919546566492	2
0.0002962396106283731	-19.706155585256298	2
0.0004975546735098053	-20.98742323763896	1
0.0005456120518626334	-21.22769079942929	1
0.00042544563782123527	-19.484154484031578	2
0.00047073734396276695	-20.853347376557046	1
0.0005526919016046619	-21.263087200432906	1
0.0005272956243822739	-21.13611602938867	1
0.0005693812450677728	-21.346527204844364	1
0.0004631695851532546	-20.8155116264662	1
0.0005061776692295688	-21.030534747836313	1
0.00036765963429041175	-19.371313055302537	4
0.0003020842431275357	-20.010149709207074	1
0.00039123800274709793	-20.45588264725805	1
0.00047568892434793927	-20.87810328682372	1
0.0005051862076619051	-18.677345647986208	3
0.0005862686557910019	-21.43095746588842	1
0.000561986441483154	-21.309556161310727	1
0.0005792174581439868	-21.395704313835225	1
0.0005913212410698692	-21.456218359996672	1
0.0005616662648942128	-21.30795540714968	1
0.00048768528623765697	-18.995906755416	2
0.0003350888371906227	-20.17515940418455	1
0.00036665452219522234	-19.295831006479027	3
0.0005797992970343017	-21.398613274255503	1
0.0005260532800774013	-21.129904807568696	1
0.00023872837191425854	-19.693395836580965	1
0.00039613454261989815	-19.95310024260035	2
0.0005973869640178164	-21.48654453493903	1
0.0005699669684172624	-21.34945558599808	1
0.0004252008974880391	-20.62568346017042	1
0.00045980218513482326	-20.79867598083316	1
0.0005031918790930757	-21.01560699811918	1
0.0005556479048996783	-21.277866027923732	1
0.00022464273128973278	-18.715684292964156	3
0.0005327309378897962	-21.163290410696582	1
0.0005006348132135131	-21.00282269724223	1
0.0005659526139139862	-21.32938542816336	1
0.0004901136051736416	-20.950220888956533	1
0.0005992186713544302	-21.495702334860002	1
0.0003487269706319325	-20.243344585765975	1
0.00031997587223818187	-20.09960065826449	1
0.0004711416126857928	-20.855368557564393	1
0.0005137329200552592	-21.0683079630391	1
0.0005645561674255058	-21.3224037574094	1
0.00031776576375401133	-19.037631809295267	4
0.00020257269777973502	-19.04370736500414	1
0.0005739339527948871	-21.36928891225809	1
0.000261267898572231	-19.806084403865256	1
0.0004032585928921909	-20.51598076297793	1
0.0003314312437784875	-20.156872908306603	1
0.000581005632459491	-21.404644466160804	1
0.0005434252370446611	-21.21675760493533	1
0.0004471248293499974	-20.129651831431993	3
0.0005774642539179909	-21.386938997891274	1
0.00018385643799337346	-19.419058237948406	1
0.0004609889349184246	-20.804609252408394	1
0.0005121001775713033	-21.060144907352385	1
0.00047140983911765443	-20.856709581835794	1
0.0004434086549339408	-20.71671492374877	1
0.00045318929010796185	-20.765614165583603	1
0.0004919725014559845	-20.959514622670024	1
0.0003521613222530744	-19.20373845935356	2
0.0005185950349895113	-21.092616582036587	1
0.00032700888286955995	-20.134762882554806	1
0.0004991430809743781	-19.119572990711543	3
0.0005994019788485275	-21.496618798599272	1
0.0004537407866671504	-20.76837142655275	1
0.0005116151016184315	-21.057719722698657	1
0.0004961534921464301	-20.980417894415023	1
0.0002909503266243746	-19.954484605052798	1
0.0003241404987349202	-19.32695709511844	2
0.0005780493547758701	-21.38986426683732	1
0.000227779991880614	-18.607345273244725	1
0.0005303655635394961	-21.151464490362446	1
0.0005803426994206669	-21.401330067616232	1
2.843643818273534	-120	0
0.0005882227557295021	-21.440727179589214	1
0.0005089519450821546	-21.044405011210664	1
0.0005910826091049183	-21.455025296156133	1
0.00018993121893301582	-19.449429699205872	1
0.00045834145800845714	-20.79137293274518	1
0.0005659477116751415	-21.32936091894095	1
0.0004293579169133726	-20.64646688523175	1
3.638518574825499e-05	-18.68176129363816	1
0.0005263144803939772	-21.131210704089764	1
0.0005250630635468812	-21.124954123207893	1
0.000540534308187402	-21.2023041234586	1
0.0003768798247918778	-18.675493620124843	2
0.00019759870660215924	-18.762308925303252	3
0.0004332714266635918	-20.666032859863666	1
0.00034983321676950764	-20.248875371491817	1
0.0004899948156673282	-20.949626989205306	1
0.0004954119600775962	-20.97671053233505	1
0.00039990402111436397	-20.499209253388045	1
0.00044448006685574894	-20.722071552407037	1
0.0004956439894450776	-20.977870585843988	1
0.0005148218132049327	-21.07375199080527	1
0.0004296273883196271	-20.647814133874355	1
0.00024944858237341386	-19.02905180619956	4
0.00042402457600531257	-20.198110892115864	2
0.0004679572805497168	-20.602163332629186	2
0.00019810315582134366	-19.490286096674076	1
0.0005819894961417835	-21.409563388835757	1
0.00045366930080677925	-19.770532881307926	2
0.0005014454290428349	-20.396229430257833	2
6.828904287373989e-05	-18.84126774667372	1
0.00047939480220272635	-20.896631185493625	1
0.0005580732418454569	-21.289991737116686	1
0.0003930535041301191	-19.713434216686665	4
0.0004955313403620708	-20.977307385739454	1
0.0005696458688569626	-21.347850217351485	1
0.0003695959118010161	-19.949872596230467	3
0.0004476960911784582	-20.738150380448857	1
0.0005506538512038132	-21.252897768187506	1
0.0004860082417086494	-20.65272214991505	2
0.0005581903725074514	-21.290577343313547	1
0.000375391529813294	-20.376656656467866	1
0.0005030110063449395	-21.014702707130393	1
0.00046423467247434135	-20.820836634664786	1
0.000456144908763231	-20.7803910700304	1
0.0003825411031269619	-20.22127569629879	1
0.00031036122558326343	-20.051531292260115	1
0.0005533596842353759	-21.26642584498629	1
2.843643818273534	-120	0
0.00029799318555427066	-18.711857579251998	3
0.0005820448950885283	-21.409840361286527	1
9.48379888314593e-05	-18.974001797760152	1
0.0005839796434078697	-21.419513324675275	1
0.0005076549555748962	-20.718167665663827	2
0.0004551545132375458	-20.7322733853651	1
0.0004922502602273582	-18.52345038730094	4
0.0005646083725133205	-21.32266476185018	1
0.00040405739074935484	-20.519974430965707	1
0.0003030590726352901	-19.765197526198943	1
0.0005110144197138805	-21.054716554786367	1
2.843643818273534	-120	0
0.0003952386474673845	-19.59926419937432	2
0.0004019038402786371	-18.89323365885774	2
0.0005140014188349417	-21.06965034894006	1
0.00045560677233892806	-20.127385256838462	2
0.00031811966584421696	-20.090320372910945	1
0.0004937258566465094	-20.968280693375895	1
0.000303503701239524	-20.017246428822677	1
0.0001559156157404809	-19.27936536523629	1
0.0003095381539365645	-20.047416265088238	1
0.0005673676249142702	-21.336459914009186	1
0.0004790892613028802	-20.895103603891187	1
0.0002205913926644366	-19.602718235514114	1
0.0003613074431040648	-19.83006371327105	2
0.000239313632612295	-19.69632190466351	1
0.0004650996392523582	-20.555710253202808	2
0.0005488992264480575	-21.24412535016613	1
0.0005888877460926719	-21.444051863928003	1
0.00048426862416013964	-20.90468397935753	2
0.00047570513406335903	-20.878184328880835	1
0.0005757619058258486	-21.378427942160883	1
0.0004779047062261037	-20.889181304967305	1
0.00042461891729127823	-19.264567786228696	2
0.0005705407064451706	-21.35232404536471	1
0.00032775505302092207	-20.138493433181853	1
0.0005687117988863755	-21.34318024320669	1
0.0005736658025500307	-21.367948268891066	1
9.924152428015051e-05	-18.996017703782876	1
0.00032558142292512035	-18.785990565799555	2
0.00038206009804215446	-20.409996815334157	1
0.0005293110265872294	-21.14619222976432	1
0.0005342702899268384	-21.170986551712886	1
0.0003611686354247311	-19.48221561483816	2
0.00043645672556347497	-20.681958073149946	1
0.0005265335511435845	-21.132305969721635	1
0.0005300497775157662	-21.149885687261452	1
0.00047487262256899976	-20.874022106267617	1
0.00038761703612630717	-20.437779270604537	1
0.0002549147067252037	-19.77432100005524	1
0.0003786146276289589	-20.392770849129313	1
0.00041346261932553337	-20.079090332616765	1
0.00041367072462680673	-20.568037233610784	1
0.0005750833021904822	-21.375035196936736	1
0.0004923842779640275	-20.96157333958262	1
0.00018185949264384478	-19.409074314426046	1
0.0004852755141842327	-20.92603238002018	1
0.0001374302034682074	-19.15662070681788	1
0.0003973632498325127	-19.933505274676136	3
0.0005173489734952261	-21.017648646836733	2
0.0005989028365270379	-21.494123287760328	1
0.00038044555188990734	-20.40192473398693	1
0.000568475104255772	-21.325633100832835	2
0.00027835477619960174	-19.891511919199047	1
0.0005734740790610121	-21.366989728562334	1
0.0005935867113103323	-21.46754479996575	1
0.0005880139190034953	-21.439683079958947	1
0.0004441061350663905	-20.720202043865697	1
0.0004586607201850341	-20.792969115212205	1
2.843643818273534	-120	0
0.00045656805828982855	-20.782506647461236	1
0.0005936488496988009	-21.467855466914358	1
0.0005384457135928408	-21.191861990574875	1
0.0005240702801166077	-21.1199906053808	1
0.0005642763754287578	-21.19656487988752	1
0.00027338773772080734	-19.866678724681925	1
0.000421154501438128	-19.947230045546572	3
0.0004929513837425899	-20.96440864037019	1
0.0005159456481172568	-21.079370713330178	1
0.000550821870719564	-21.25373779818428	1
0.0004453090438620634	-20.038977825881027	3
0.0005903984006474378	-21.451604529075826	1
0.0004171282959448865	-20.585323699472738	1
0.0004951424163725863	-20.975362922227752	1
0.0004241526124666737	-19.988939828313136	1
0.0003240881147079565	-19.88156892132453	2
0.0005867677044089511	-21.43345250824735	1
0.000491278741294867	-20.956046100913486	1
0.0005868677387472254	-21.43395263970221	1
0.00043498121627070027	-20.67458112017571	1
0.0004129553116949708	-20.56446045670998	1
0.0004968398308079054	-20.983849311658474	1
0.0005105624483100174	-21.052456879562143	1
0.0005028077081271941	-21.013686297813695	1
0.0004926760686575496	-20.96303217568414	1
0.0005752187152070065	-21.375712207552592	1
2.843643818273534	-120	0
0.00043927167472665733	-20.69603168671738	1
0.000534132534855465	-21.170297831764824	1
0.0005978565946185004	-21.488892499044358	1
0.00040051485940960303	-20.502263199168603	1
0.0005659743153590363	-21.3294939266597	1
0.0004728628660017056	-20.863974131809446	1
0.0005766733774042969	-19.232843983528138	6
0.0005491115059595877	-21.245186662339236	1
0.0003361731796992291	-20.18058068057578	1
0.000562031185659447	-21.30977986419488	1
0.0005602678857004491	-21.300964073646693	1
0.0005886892124762111	-21.443059275701277	1
0.0005751396868171871	-21.37531709739084	1
0.0003130341748930547	-20.064894963676764	1
0.0005133366137489372	-21.066326590912574	1
0.0003439772464361661	-19.202077066796207	3
0.0005092383515142701	-21.045836928170853	1
0.00034926230553858497	-20.246021044973098	1
0.0002865550760536751	-19.236957491135737	2
0.0004440078459537085	-20.71971063783682	1
0.000592913258101474	-21.441437628891478	2
6.499887539863333e-05	-18.824818232692287	1
0.0003418815426054863	-19.291511076489225	2
0.000575626763848479	-21.377752286631782	1
0.00039855337736123466	-20.401205196195793	2
0.0004522441930577297	-20.069834033058992	2
0.0004938716653438598	-20.96900967821446	1
0.0003681554229522186	-20.340479032719845	1
0.0004226359042749388	-20.047190658596246	3
0.0005824847612121537	-21.412039514978638	1
0.00046083950084727955	-20.803862142159083	1
0.00021647290131812842	-18.502556047380306	3
0.0005543206992456029	-21.271230533491266	1
0.0005002687261788162	-21.000992409318826	1
0.0005118793232552392	-21.030045245383388	2
0.0005728803465082884	-21.364021304613964	1
0.0002487563832470782	-18.915032447145318	2
0.00029286908711238774	-18.649467569971733	2
0.0005533321188234478	-21.266288029014202	1
0.0005674918605717567	-21.33708104232569	1
0.0005276050006645439	-21.137662786360536	1
0.00040002553629060793	-20.499816780392585	1
0.0005290703732516535	-21.144989059883702	1
0.0005039728227465378	-21.019511402269885	1
0.000566757529044095	-21.333409680055325	1
0.0004908236137807018	-20.95377064640722	1
0.0004256709474950788	-20.62803352113883	1
0.0004448185663986889	-20.723763913968092	1
0.0005536292584104158	-21.267773607431486	1
0.0005187338150048489	-21.09331042629221	1
0.0003452779547953022	-20.226100893870022	1
0.0005377404600312008	-19.452329786374882	2
0.00011779095550104449	-19.088757398805782	1
0.000574071948881852	-21.369978837187166	1
0.000528012158002573	-21.139698409281017	1
0.0005849975331099485	-21.42460236376298	1
1.116391577845866e-05	-18.555665088464245	1
0.0005797812173135882	-21.398522882924087	1
0.000497182090492399	-20.985560472414868	1
0.00043439536869288386	-20.144826977876676	3
0.00022480121053965616	-19.62376563158791	1
2.843643818273534	-120	0
0.00032247483214671357	-19.638329502140987	1
0.0005424601979594707	-21.211932797674134	1
0.0005089148224642312	-21.044219413052765	1
0.00045647972542092556	-20.782065018646584	1
0.00018080200604656335	-19.403787306789273	1
0.00014752922485339987	-19.237436784033505	1
0.0003561518149904763	-20.280465821086025	1
0.0004893754194579471	-20.946530257296267	1
0.0004834100564124097	-20.916705841498498	1
0.00048478253029356	-20.923567658858236	1
0.0002449248736859755	-19.307278161353068	2
0.0005227553635207505	-21.11341655129643	1
0.000533087755839345	-20.930345441719144	2
0.00017997959837830617	-18.985705670138856	3
0.0005663922120368465	-21.33158324195944	1
0.0005760327862832081	-21.379782235492254	1
0.0004566112191990067	-20.782722434646647	1
0.00044033729225637005	-20.49067921135359	2
0.0005549576407101461	-21.206820089217164	2
0.00037966875908932937	-20.398041082431057	1
0.0005392721588206354	-21.195993884295287	1
0.00045827577282991363	-20.510465889969076	2
0.0005534386607491538	-21.266820695788695	1
0.0003313040109202363	-20.091689431538192	1
0.0003376927901287615	-20.18817812149514	1
0.000567541324748571	-21.337328343313935	1
0.0005524884851264957	-21.262070199861668	1
0.0005745068394216619	-21.37215311496151	1
0.0005124406446867192	-21.06184710598441	1
0.0005503247269876815	-21.25125227948948	1
0.0005301198833617654	-20.8165381641915	1
0.00034501122629528264	-19.24542970536273	3
0.0005521990774608781	-21.26062327794115	1
0.00046404085042428637	-20.819867602374966	1
0.00047674329611555483	-20.883374721565033	1
0.00032467249606659825	-20.123081888297786	1
0.0005861627472286523	-21.43042796567595	1
0.0005706899738912359	-21.353070322555645	1
0.00043173121565964024	-20.658332424358317	1
0.0003330035353082647	-20.164733733537428	1
0.00035407261123323274	-19.357856567567865	2
0.0005499579944991024	-21.249418764556285	1
0.0005751922986172876	-21.37558013522946	1
0.0005840851087336461	-21.42004060888316	1
0.00040096050231803565	-20.50449123446117	1
0.0005516008685780405	-21.25763247414271	1
0.0005652659580663617	-21.32595242511674	1
0.0005892112097119847	-21.445669051918777	1
0.00044618326449054314	-20.73058685550898	1
0.0005534574191914918	-21.22757841922698	1
0.0005691623795756001	-21.345432965417103	1
0.0004268846252600905	-20.634101421789953	1
0.00040080394967854346	-20.5037085342334	1
0.0005763837566186669	-21.381536945999812	1
0.00019315928106327073	-19.46556871144349	1
0.0005041264046971334	-21.02027925024806	1
0.0003264764877861544	-20.13210112128144	1
0.0005338316125631673	-21.168793341342397	1
0.0005915143951421835	-21.457184052666467	1
0.000490815655875286	-20.953730860081027	1
0.000535502086903912	-21.177145041136285	1
0.00016527943804008904	-19.326180710352435	1
0.0003667572893284841	-20.225006419550557	3
0.0005001416871354824	-21.000357265200687	1
0.0005654476986023318	-21.32686105469564	1
0.0005551193279529184	-21.275223355797834	1
0.00039123443398316935	-20.45586480487386	1
0.0002558283213138139	-19.77888870551786	1
0.0003041566154414097	-20.0205107372124	1
0.0001801287771130856	-19.40042143291272	1
0.00032665757919510166	-19.065436016304336	4
0.0002460746686384351	-19.67255082059188	1
0.00045369885358076986	-20.42744175705428	1
0.0005817813703135104	-21.408522843408214	1
0.00046969051546132346	-20.84811365511249	1
0.0003955113155778762	-20.477247492570257	1
0.000567023897836768	-21.33474141687798	1
0.00035650278267958295	-20.282220518362887	1
0.0003328343132366554	-19.869771597047173	2
0.00042577014582056484	-20.628529472866017	1
0.00035415583801164216	-20.270486739027632	1
0.0004509073430931454	-20.754205348370157	1
0.00036552034989766166	-20.32730472734452	1
2.843643818273534	-120	0
0.000447218995184531	-20.7357650923801	1
0.0005797413792460803	-21.398323708610494	1
2.843643818273534	-120	0
4.1866539367832856e-05	-18.600322901243338	1
0.0005162252181912661	-21.0807684512496	1
0.0005995791541744953	-21.497504603964412	1
0.00024447651014649935	-18.60957811259714	3
0.0003206352798282299	-20.102897430983212	1
0.0005959050856385228	-21.479135739094016	1
0.00042969892682772574	-20.648171797640128	1
0.0003834282454668406	-20.154601735285407	1
0.0005974434662297492	-21.486827023271978	1
0.00023443078172908784	-19.671909614261804	1
0.0005104789424678686	-21.0520393839397	1
0.00028867177999140263	-19.94309278838085	1
0.00042324184426424747	-19.068308052499326	3
0.00031525282888689784	-20.0759873412435	1
0.0005197666167061469	-21.098474019378	1
0.00029536964829241804	-19.539853970351928	3
0.00025724863825624263	-18.757787347844584	2
0.0003271376940089873	-19.018429915457563	3
0.0005619251000136069	-21.309249478636186	1
0.0004685681059540854	-20.842502059039678	1
0.0004719534344827436	-20.859427340012523	1
0.000586127376497586	-21.43025112624768	1
8.567255002437852e-05	-18.928178290311454	1
0.00045876928154934854	-20.793511878367468	1
0.0005042401586587958	-20.666072731428372	3
0.0003114554417642151	-20.05700193304161	1
8.162055972055554e-05	-18.907919968612134	1
0.0004759825389270919	-20.879571241619782	1
0.0005943399717976358	-21.471310799420582	1
0.0005509078418447208	-21.254167619230156	1
0.000539345151157498	-21.196358816620112	1
0.0003755682472820576	-20.29567925123611	1
0.0005971772339334173	-21.48549596887613	1
0.000497670406843878	-20.988001857758256	1
0.0003659364049419389	-20.296550656441426	1
0.00042111221820469034	-20.605241708330766	1
0.0003913462223999819	-20.456423701993607	1
0.000592305687133262	-21.461140194342878	1
0.0005708090785449391	-21.353665797917056	1
0.0005009065537689321	-21.004181290717945	1
0.0005613646730600817	-21.306447569287396	1
0.0004776186374885347	-20.887751076344024	1
0.0004495289577708989	-20.74731397618268	1
0.00029688181770338377	-18.747642397004565	2
0.00041471042108285456	-20.35674990882788	2
0.0005406569186520236	-21.202917126464474	1
0.0002320083748760892	-18.632784067074432	2
0.0003234082203573979	-19.24676796566807	2
0.0005259918717570532	-21.129597790667038	1
0.0005938017277828918	-21.468619795843125	1
0.000544021470174012	-21.21973853076104	1
0.00032302599084862435	-20.114850024476727	1
0.0005008641730492723	-21.003969404166316	1
0.0002974740289955274	-19.98247917337788	2
0.0004877751286091973	-20.93852944673266	1
0.0005347124234611604	-21.173197041546462	1
4.8662455819254035e-05	-18.743142705743985	1
0.0004854737371550489	-20.472910636916147	2
0.0005729628063063756	-21.36443357043684	1
0.0003900904982147503	-20.450145586153585	1
0.00046219753453065896	-19.18900731775462	2
0.00043158907376012097	-20.657621772034027	1
0.0004140796613618086	-18.92816814048793	2
0.0005217958589799606	-21.10861941453109	1
0.00035201357369796216	-19.6609800901351	1
0.000515792634166204	-19.114118880724188	3
0.0004987059714006975	-20.993179264010355	1
0.0003287531617369846	-18.879397350805768	5
2.843643818273534	-120	0
0.00035070095218279167	-19.10024931016744	2
0.0003142560177542453	-18.719005540546128	4
0.0005407950297482447	-21.20360762639357	1
8.221830698652433e-06	-18.54095584645119	1
0.0005419767129128206	-21.209515566911605	1
0.00036224886466657425	-20.310948617068682	1
0.0005391586535553039	-21.195426403623507	1
0.0005729577868478678	-21.296203014386144	1
0.00053600166017486	-21.17964270654918	1
0.0005472136166178094	-21.235697979012627	1
0.00039500681020157997	-20.474725168614448	1
0.00030348563280809313	-20.01715609393313	1
0.0005196868762914607	-20.85348826348793	2
0.0005418205831426798	-20.925007987447774	2
0.00015789200675084012	-19.289246525330316	1
0.0003635196895230096	-20.317302230190823	1
0.0004091038748711225	-20.545204821742512	1
0.0005672027992827696	-21.335635852149	1
0.0003797611075966446	-20.390540715083795	2
0.00039965343971521577	-20.497956447182904	1
0.0005422133001145726	-19.975798291339487	3
0.0005683945632593963	-21.341594192672517	1
0.0002839110670929896	-19.91929113877592	1
0.0005863559334315503	-21.431393818985736	1
0.0003973419672445598	-19.614976105491884	3
0.000547170425961582	-21.23548204310394	1
0.00042901940403289616	-20.64477445698838	1
0.0005512672832332471	-21.255964681595767	1
0.0002380695889305737	-19.690102186642825	1
0.0005368928573434934	-21.18409833392881	1
0.0005553025974562089	-21.06370135357163	3
0.0005947866395124763	-21.473543958332982	1
0.0005995216245167493	-21.497216978815665	1
0.0005800860712517088	-21.400047029994216	1
0.00023739764121424514	-18.799922883553887	2
0.0004697717608110864	-20.84851984918223	1
0.0005256096411431305	-21.127686791340885	1
0.00038525915707897786	-20.42599082377044	1
0.00038374310122257365	-20.41841115428698	1
0.0005851142354738107	-21.42518582864145	1
0.0005290349633808466	-21.144812024772474	1
0.0004968923146567158	-20.98411170979211	1
0.0005005973441326958	-21.00263536690922	1
0.00035678747973016457	-20.28364388910296	1
0.000280009056698086	-19.899782656295233	1
0.0005126052340747824	-21.062669986722433	1
0.0005510457942668988	-21.25485732585286	1
0.0003952132204085713	-20.47575713662565	1
0.00043162758148708366	-20.657814295179993	1
0.0004722494435829123	-20.86090726645052	1
0.0005301494762703985	-21.150384140933088	1
