T	U	Steps
0.0009045831994474574	-15.893025355316919	13
0.001690355264641095	-23.448404592493535	5
0.0011120210263843877	-16.358746252022122	15
0.001429257516953964	-20.833658376320884	4
0.0010008753407350548	-16.146653140897445	13
0.0016564641258043338	-23.7190296390587	2
0.0010781149359963315	-16.154417126009022	27
0.0014108560935279083	-20.609463835199914	8
0.001618235886174674	-23.29062185610653	2
0.001626139629267771	-20.006192199764364	4
0.0017619958064476787	-24.308820309999298	1
0.001448734337463744	-22.22534911942957	1
0.0017242301528835637	-24.12000723254323	1
0.001763428966693587	-24.31598553477313	1
0.0017709398022253387	-24.353536691371257	1
0.001771978118231619	-24.287773784292625	2
0.0015737609169827668	-21.238299695918663	5
0.0008826253162747448	-15.706423840353077	6
0.0014618688095297794	-20.403674682837103	20
0.0011396038405178828	-17.82414071179717	14
0.0016755871294114903	-23.87681168071894	1
0.0013927062400361863	-16.731738298599414	8
0.001619456979662365	-22.729444413286714	9
0.0010901634754519256	-16.416063337380912	15
0.0017569092502414162	-24.283389574918093	1
0.0016321550169645877	-23.17986933061384	3
0.0009568910190658493	-15.769451304076632	9
0.0009734992396905473	-16.325405202311412	8
0.0017587818120837974	-23.79710836012773	2
0.0017092884133307726	-24.04530454474994	1
0.0014204263072299264	-21.057119410684372	11
0.0010038225506832507	-16.323212703836035	6
0.001561548300350871	-17.38380788386805	10
0.0016187727420926483	-22.87430662287224	6
0.001734109376961685	-24.16939937924344	1
0.0013523634541299393	-18.87302494924613	4
0.0013769437435723502	-15.865870092974802	16
0.0013041347627459478	-18.409333693650147	12
0.0009565938984702418	-15.989705530274115	5
0.0014700631191193797	-17.866817793801275	9
0.001717208132775448	-18.226896690881006	34
0.001328569551141013	-16.666132097901382	23
0.0015987649343776886	-22.891414416363414	2
0.0013615956150063789	-16.92543637611241	8
0.001612093434006693	-23.025334604200502	5
0.0011197136659388787	-17.42051845811261	4
0.0012250615602166252	-17.966016301095134	5
0.0016550211073853912	-23.47237424271784	2
0.0017905010588112457	-24.451335106235774	1
0.001239196956253069	-16.609201366411046	5
0.0009559622071313236	-15.500867977471415	2
0.0017379959187715844	-23.090519619650376	8
0.0011552552316947424	-18.250845233895546	29
0.0017183224949648284	-23.91820123764865	2
0.0013624352275494309	-18.47383392714343	19
0.0012044618887189662	-18.735937482033542	2
0.0016087934634775075	-22.770131808114403	5
0.00129199827913303	-16.904343593316973	14
0.0016569736610533145	-23.783751825767087	1
0.0010472166632353906	-16.908713831788827	6
0.001713169370690473	-24.064707770522713	1
0.0009561778005463487	-15.876046556778025	22
0.0017830645949875983	-24.414155778263865	1
0.0017830216512498857	-24.413941076848428	1
0.0017897928675403446	-24.447794434734895	1
0.0017192957555413602	-23.547460001548885	2
0.0016949402008136585	-23.521807537323287	2
0.001582427452898112	-22.400762413013187	2
0.0017147837768839128	-24.0727791521322	1
0.0010922989630151867	-17.495043515441715	32
0.0017389081532033226	-23.894548582013975	7
0.0017941382542436698	-24.469519620419785	1
0.0009301702553005967	-15.51299575409344	12
0.0009917720667515881	-16.404605533745485	16
0.001758132204650436	-24.095228657629555	9
0.001552131288236798	-22.189391324451474	2
0.0016336291965029204	-23.054036203598677	23
0.0017796233740488162	-24.396951057721836	1
0.001748924400971024	-24.243468540287882	1
0.0014855629107441116	-17.560149841430484	15
0.0010682315616793486	-16.012418715742317	23
0.0014800514476517807	-21.31331828920508	9
0.0017369336846509895	-24.183519781677234	1
0.001760654441234123	-24.302114023464792	1
0.0012891913282926098	-15.732245770751387	3
0.0012448258093822751	-17.102326179779297	6
0.0017660248589063004	-24.32896395169883	1
0.0017159811275140274	-24.078765423676053	1
0.0017729467341755544	-24.36357054388017	1
0.0010199229938848452	-15.987472576477428	4
0.001785300372210539	-24.425333765088666	1
0.0010835801275266561	-16.81307281001444	8
0.0017372130143191722	-24.18491631766422	1
0.0014856845187658902	-21.384424452677152	4
0.0011142058262515581	-15.767510050273618	3
0.0017816788976045656	-24.407227848713564	1
0.0013405385982717497	-19.6216578097832	2
0.0017353486068532634	-24.175595030249646	1
0.0017894651636797924	-24.446156047243466	1
0.0012791703413776898	-18.732124384654835	6
0.0016262529070197886	-22.785726653013636	6
0.0014915575695450417	-20.92690737316967	16
0.0016488301415268272	-23.197397426766944	3
0.0017453040256927889	-24.225368120109295	1
0.0017852467375809161	-24.425065613513848	1
0.0010384580387933903	-16.308758993903	10
0.001377145383892345	-18.678364579560547	14
0.0011391334056091644	-16.764908258003853	7
0.001794248910428832	-24.470072856836694	1
0.00150043603960838	-21.53278147277565	12
0.0012967409170254625	-19.64367826923583	6
0.0013376135117805995	-15.779257234061445	11
0.0014264322633774711	-20.87751129809004	4
0.0010133115433289565	-16.23874961154911	16
0.0010653364544846956	-16.408918743656287	5
0.001220784251289511	-18.288589811615672	11
0.0012125498996041434	-16.58318697843344	13
0.0017168109317573191	-23.738719139275332	4
0.0013410559324852265	-18.635392865590866	5
0.0017737469464884738	-24.36757128357779	1
0.001382405507223547	-18.117826163809475	16
0.0016981398277919225	-23.989566101317507	1
0.0017058012295958645	-23.60843045393324	3
0.0017319036032052847	-24.15837139768314	1
0.0016940306741149822	-23.969021985745243	1
0.0013310523584668882	-17.231457420079938	7
0.0016058826175270949	-22.6638905970418	4
0.0010625869127697705	-16.130879578705134	6
0.0012205461913796097	-17.03727726880905	25
0.0010220195036346816	-17.76908337457243	3
0.0017704617366005894	-24.351146555538396	1
0.0015700008110700484	-22.430347245822524	17
0.0017291718846183318	-24.14471390351927	1
0.001007882302316829	-16.500766707455696	9
0.0009471022485496086	-15.583038698254612	8
0.0017885973020297483	-24.441817088070614	1
0.0014417299390985566	-20.790558975627484	4
0.001742498226115096	-23.965313811328077	3
0.0015619004674760724	-22.262444276598274	3
0.0017999718822582717	-24.498685414050257	1
0.0010477484248414915	-16.771925993488246	5
0.001786489747179638	-24.431280161535472	1
0.0014735103341123005	-21.539500423709505	7
0.001754972574169398	-24.27370697354135	1
0.0012446902038627393	-16.253291401365512	24
0.001793034842700902	-24.464003006527832	1
0.0010423019780764192	-16.884222741725132	5
0.0017887113235728475	-24.442387149923565	1
0.000931466831617301	-15.891859598955467	16
0.0013537582508399966	-17.60843889210289	17
0.0017968446505715972	-23.044841275679946	2
0.0010311067518209564	-16.769392544148808	5
0.0012672845255240447	-20.045880159240333	9
0.0017809923198347324	-24.4037952360245	1
0.0015068192106365355	-21.620638442361365	4
0.0011880766548997552	-18.4746664937286	6
0.0011814950862229846	-18.42828282423256	10
0.001245202157527619	-18.75382833478539	3
0.0016820072098086328	-22.49031270622352	4
0.0017218169605747833	-24.107942241650363	1
0.001765886014531118	-24.328269785669878	1
0.0012358658111714025	-17.219430056538357	17
0.0009929439504609784	-15.882277247801825	6
0.0015058952557843435	-21.6484460677025	5
0.0012140317942765674	-19.01835955953845	5
0.0013820961229021168	-15.849788230525748	11
0.0013969600617275873	-16.62594250907952	6
0.001688570800159245	-20.65775597869776	13
0.0017230082260735408	-23.95623277961366	4
0.0013889701069329631	-16.907212652865873	35
0.0010243443439077967	-15.880044684330542	15
0.0017961537255436117	-24.479596166242576	1
0.0012870622715026752	-17.689719245749217	37
0.0012798117344149254	-16.69193724031063	10
0.0016312574766609745	-23.65518124754838	1
0.0009079396235012454	-15.604140356130717	3
0.0011193952595988017	-16.879914920016507	7
0.0017800885375002483	-24.39927668787771	1
0.001795609828658886	-24.47687690058894	1
0.0012595653927068684	-15.756352589740855	9
0.0010599646702362344	-16.05796817155857	5
0.0014784278364175756	-18.04702196521985	5
0.0017807475376354044	-24.40257142348586	1
0.0017965458548278726	-24.481556654938906	1
0.0015254816018762283	-22.017586070847162	10
0.0017667451919198872	-24.332565327029403	1
0.0015119500797298527	-21.640491944913084	7
0.0009641063233510423	-16.68265187736212	29
0.00137709014225666	-16.13776929923127	9
0.0008897539166314213	-15.593573622091128	7
0.0017433800289746422	-23.971009852953912	3
0.0017175099064284415	-24.038506508203188	2
0.00124879151124968	-17.706249425849787	8
0.0016513665430579357	-21.83166250250168	16
0.0016465516599798366	-23.73164601240964	1
0.0017642090979536824	-24.319885877283774	1
0.0010845473598381063	-16.471389503571828	22
0.001611446618445151	-23.55613492493079	1
0.0015156708596966348	-21.248246240494748	8
0.0013277992308048368	-16.639188567982572	22
0.000980217987747856	-16.20377925283475	5
0.001800160997050456	-24.499630911944106	1
0.0017874514941598528	-24.436088509595965	1
0.001005199392567415	-16.816128212591558	15
0.0012225228270718019	-17.22871037488096	9
0.0015602305863456811	-22.335155566933647	8
0.001384839637445387	-20.35537698359711	17
0.001711057870319094	-23.619467290525254	21
0.0017117934924601305	-24.057828932786332	1
0.0017962004531066281	-24.479829785262567	1
0.001629083718135733	-21.248524141119027	7
0.0011790915984517135	-18.251609670092847	32
0.0016191355933413006	-21.383479124797947	14
0.0017656891128355735	-24.327285356391325	1
0.0009011844739411423	-15.658464020324494	11
0.0013501052507288174	-17.459391326276222	9
0.001725607639891023	-19.870142796960135	4
0.0014323788603998824	-17.501335026531244	5
0.0016928161727373773	-23.96294996736243	1
0.0013402301520859905	-20.20584339371159	9
0.0009751419718684286	-15.714765257588041	7
0.0009998014225257312	-15.561244318119497	5
0.0013158358841254903	-20.150763950675305	2
0.0008097891292764658	-15.650185497121962	2
0.0013426549811243673	-20.277151377455148	5
0.0013189382054182095	-18.44607635592318	24
0.0014078766712724308	-20.638366864832758	16
0.000939957343560874	-16.326456947581256	14
0.0017415870765923667	-24.206784869664364	1
0.0013179998251281698	-17.183632782705697	3
0.0009546625679537074	-15.676969930901329	2
0.0016046813558867527	-18.790921283470528	12
0.0017696552108691012	-24.347114251287355	1
0.001471135093364428	-15.940055497074425	16
0.001761901194777993	-24.308347289706237	1
0.0010416361105814896	-15.660613793796811	17
0.001377257821832897	-20.310361352866067	17
0.0010117113357072062	-15.630029443526134	41
0.0017055298414115217	-23.669472562413755	1
0.0016376773473222885	-19.18053829491874	18
0.001621310171245574	-23.605448721545923	1
0.0015500145185489654	-22.335375375004347	12
0.0012751343060310842	-17.52050421690013	4
0.0017710034739784524	-24.35385502452633	1
0.001187061721159727	-17.418374512731194	16
0.001340497947945774	-17.06575968090737	10
0.0012094137396180102	-18.22461407204057	17
0.0015654473648719334	-22.15488640355536	2
0.001693927901763051	-23.968508165323396	1
0.001196973665161567	-17.288588089694645	22
0.00150032652439755	-20.773980944820366	10
0.0016860428556105748	-23.929086106139263	1
0.0013301745415221903	-16.574324266359497	28
0.0014798015425040191	-21.33115701503083	7
0.0012722209676659312	-15.98524568565787	13
0.0013717487705953609	-17.596750742560705	21
0.0011921791189946909	-20.014072688082376	7
0.0009373874739208848	-16.240458137849142	18
0.0014194670695970584	-16.5845320904736	10
0.0017884472695950144	-24.44106698624403	1
0.001796480937669444	-24.481232095258196	1
0.0014508551606069488	-17.016322712312046	6
0.0016710989491704464	-17.345219638122682	16
0.0015879956253285982	-22.87745236748891	5
0.0011801178271897634	-18.512666538223186	21
0.001061297491832491	-16.978458435598917	7
0.001599005113300358	-23.199739808266752	3
0.001603504348166897	-22.943684714538506	11
0.0012389913467904198	-18.5770735927589	15
0.0014360270721277006	-20.828889134742504	5
0.0017016886315804679	-24.007308692835622	1
0.0017318454286782393	-24.158080548447277	1
0.0011282489755374966	-16.8261911680946	17
0.0016676352129488912	-18.873278350135777	26
0.0010132560024359867	-16.247294293992084	15
0.0017620059707135851	-21.843469090351295	8
0.001642824235532762	-22.929410679618936	2
0.0015919559099253568	-19.633195358702235	7
0.0017749912998694288	-24.373792549970073	1
0.001037301329543479	-15.600022934093781	5
0.0017419213245784204	-24.208455975151082	1
0.000991750897177749	-15.957273210846314	21
0.0012131298869564233	-17.364020181468227	2
0.0014761906820858453	-21.015737145936207	12
0.0017874017536799558	-24.43583982720344	1
0.0013945031525242563	-19.810578322467673	32
0.0013598466863785584	-19.48901980074873	2
0.0009955694732747412	-16.782279015455224	24
0.0017991673781648921	-24.49466321717661	1
0.0017647041245187375	-24.322360810996017	1
0.0017770342853298548	-24.38400665552835	1
0.0017787815516690376	-24.30986263283752	1
0.00128664671012537	-15.734591567034915	12
0.001768117803285242	-24.33942783175486	1
0.0016279872098344521	-23.63883122880529	1
0.001010449102737955	-17.196346188170047	7
0.001793326037349506	-24.465458862644507	1
0.0013952792946823913	-18.862562441781773	3
0.0017665523598740312	-19.5323868834003	23
0.0017994135728984998	-24.495894091818485	1
0.0017548242983500275	-24.272965654085034	1
0.0016619248132699628	-23.808505595363357	1
0.001372477289872124	-15.604095321796015	13
0.0017235098583303246	-24.11640604949893	1
0.001798784099709049	-24.492746979062325	1
0.000955559096829813	-15.77426127360371	16
0.0015742341457289772	-23.370087529210164	1
0.001757377607800215	-24.285731174326042	1
0.001796568373700396	-24.48166924024382	1
0.0009480553700268065	-16.429851879540827	12
0.0009013307935560799	-15.56686056788358	8
0.0017192357594389839	-24.095037274200088	1
0.0015384261792568813	-22.314464557220173	4
0.0017346249135550525	-24.171976854847557	1
0.0013789921415820394	-16.074538925835654	19
0.0017998976544647833	-24.498314304939242	1
0.0013567668296150769	-18.928577947468973	10
0.0011715537135315527	-16.632140300419355	4
0.0012661634589162382	-19.176016534868992	24
0.0012136570961257228	-18.406581770006923	6
0.0010114451975545076	-17.64838083109995	20
0.0016306852225358198	-23.349915598778136	2
0.001561180862271161	-22.379060271834497	19
0.0016278157558627362	-22.87666595480066	2
0.0016481479718552974	-23.12992325442226	29
0.001020479161121829	-16.19169378093923	9
0.0016303783189929016	-22.868243547712883	9
0.0009349424084753698	-15.56950295410931	7
0.0014244524318288597	-19.077992910081875	21
0.0013549636608384463	-17.025226646801237	10
0.0011745088137403031	-16.822317127936145	19
0.0009023059985462261	-15.987742943514156	11
0.0010550079942386952	-16.70264876774552	9
0.001790769758283654	-24.45267849551964	1
0.001681859835107708	-23.9081726861486	1
0.0017775469187129981	-24.38656961624909	1
0.0017035466041218305	-24.016597808215764	1
0.0017463529330879488	-23.983731909841815	5
0.0015368197127610987	-22.238281612800392	2
0.0014241392318783783	-20.188888615920998	28
0.00171469452479022	-24.072332927563334	1
0.0010774220550524112	-15.872404131185947	25
0.001762798712410225	-24.3128345168616	1
0.001670871028886296	-23.853233075035803	1
0.0014276065353264165	-20.78062855402148	20
0.0015995985528366836	-22.774158003103047	8
0.001637127044163502	-23.68452672416265	1
0.001575383724174641	-20.609282295278227	5
0.0009204378629140971	-15.732350285368073	25
0.001668138087823164	-23.773732122704452	2
0.0011274783789648058	-17.15964287697998	4
0.001766142281039034	-24.329551015132157	1
0.0017960387083596847	-24.479021126585955	1
0.0013755666176205068	-16.758658279423372	24
0.001643744232348749	-23.028576865734596	3
0.0011573993407986711	-17.30212071161049	8
0.0017207207977377565	-24.10246186837149	1
0.0008812924277447697	-15.541054252518993	9
0.001780072219760988	-24.399195105744838	1
0.00108735898741628	-16.274008858043793	19
0.0017715149430312805	-24.35641216406382	1
0.0017822613359834772	-24.4101398063357	1
0.0010114484059820837	-15.86641700743616	22
0.0016603205548288385	-19.94587642315045	2
0.0012704835652220378	-18.430689612690166	3
0.0009544348675747035	-16.17698784727406	23
0.0013883323113212523	-20.92320305099766	8
0.001152495846795871	-18.00393024363237	8
0.0017978915291355416	-24.488284485210745	1
0.0013746498600202056	-20.575688904494964	5
0.0010746175217736013	-17.34987126649374	7
0.0009904337939020855	-16.309179434276288	8
0.0017786800735078152	-24.392234934437752	1
0.001796906530210468	-24.483359886778512	1
0.0012486305834674251	-16.898668251679975	11
0.0011238736438069588	-16.154775082198675	6
0.0017671047581515262	-24.33436301356036	1
0.0010207401090649075	-15.590700460401742	29
0.0009320517632121232	-16.579087398423	3
0.0017208660208558905	-23.8687661613182	2
0.0014250015229237136	-18.590738783534015	11
0.0013398021535768012	-18.671496563548025	5
0.001645549890936298	-22.992344063847906	18
0.0014350307212265313	-19.55469787920027	5
0.0013441522740668627	-19.254806719652933	3
0.0016413690485747195	-17.210739380509207	10
0.0012314275325659774	-16.73167373850477	15
0.0009785353894607171	-16.45385898007252	5
0.0015045112865403646	-19.806169781200868	6
0.0017926178016496005	-24.46191796901648	1
0.0017904516613563265	-24.451088138830166	1
0.0010366238630598566	-17.078529801743542	10
0.0009061426430874505	-15.645046001996683	15
0.0011074302632236637	-16.8544193291654	27
0.0009661282672054701	-15.623837501705074	4
0.001012955665616731	-16.48911526597196	4
0.0010825927912578909	-17.839097396519747	3
0.0017845346140749547	-24.42150528241932	1
0.0008150151358776577	-15.569722525840424	3
0.001758148359940429	-24.289584625009812	1
0.001177334514211109	-17.521998399206808	6
0.00138922601176466	-22.44512127465023	1
0.001046698509891863	-16.435722427815175	16
0.0016719883634418182	-23.329420979853356	15
0.0012526133394286023	-17.386000095277474	20
0.0010614571543560646	-15.544137043423216	6
0.0015751685764811563	-22.37222461997341	7
0.0017780044883653808	-24.38885728046414	1
0.0011771158255616894	-16.7813941582438	22
0.0013309994336628776	-18.601535641223272	5
0.0011913213701165739	-16.816526052939796	7
0.001725679712040946	-24.127254445278354	1
0.0013009891768275008	-15.73756521363133	16
0.0012685045871489828	-15.825220787467762	5
0.0017580513347680304	-24.28909953817396	1
0.0010959577364774088	-15.63292279553961	3
0.0011756264421095989	-18.23366219353745	3
0.0016041146512648474	-23.28613932921007	3
0.0017579692933352004	-24.288689364009088	1
0.0016595985812186357	-23.79687537078	1
0.001016902559596227	-15.988152677660045	14
0.0013716479362489143	-19.243365278958784	8
0.001136177706356206	-17.486755432160074	4
0.0012942148079333547	-15.789344485527428	18
0.0010937343978256425	-16.24928246666056	21
0.0015791801856530243	-23.09692357253369	4
0.0008785077690899139	-16.581981258187156	29
0.0017814755104653545	-24.406210994825305	1
0.0010620768798856215	-16.53840806287488	12
0.001557206401982172	-22.314543944223193	14
0.0012815562056117105	-18.968837627449524	19
0.001214066114572484	-18.823121809583217	8
0.0013445858766269218	-16.110341470189894	16
0.0012202024939317025	-16.71070724747493	5
0.001217177621408874	-17.952096959973048	11
0.0016635061696604627	-20.545735376327922	18
0.0017397599856011892	-24.197650149613757	1
0.0009914822040681364	-15.91628510516473	4
0.001394064955980568	-19.53041407393014	5
0.001353976326774506	-16.99589306070864	10
0.001118028691987448	-17.17554498242518	14
0.001437061403362297	-17.619889777627016	7
0.0010777482513044244	-15.75643546517737	17
0.0011363406409760476	-17.412734336348166	36
0.001191892899368295	-17.22628585359181	9
0.001208192234896083	-16.33245350286387	3
0.0017223716979632684	-24.11071570546245	1
0.0017320779042807532	-24.15924283295189	1
0.0009493754558710284	-15.608343241589347	14
0.0017904998703393655	-24.45132916435441	1
0.0015281583933372874	-21.22757481040091	15
0.0016659269463789987	-23.828514651142655	1
0.0017678167287631527	-24.33792258024471	1
0.00125535715398727	-18.23181582571622	4
0.0015813845856198735	-22.090304134211824	2
0.0011114483884198843	-17.053815351796985	5
0.0013471641242766223	-19.27499463097668	2
0.0009253303719485687	-15.90688371274883	16
0.0011543244795871302	-17.020856453542223	26
0.0017212543394390877	-24.105129362273285	1
0.0009344428461175645	-16.126452981476213	8
0.0017428727293613113	-24.21321261638487	1
0.0015424130562307942	-22.01622249275297	21
0.001219219147932012	-15.62236023519674	14
0.0017520792620780634	-24.259241576852844	1
0.0012579173582290973	-16.46461601589124	8
0.0008626449746843524	-15.695930807089127	4
0.0013582885039571566	-18.340687899041512	12
0.000960633681513212	-15.741927269220241	15
0.0017623233963471219	-24.31045812773102	1
0.0017205769416146122	-23.779481848014154	3
0.000986683989135421	-16.572441506619835	18
0.0012663893492852695	-17.91838961323087	36
0.0015726034619148988	-15.855396088054695	9
0.0017766437992992985	-24.38205438243958	1
0.0009343788924749017	-15.512319696277036	7
0.0010796922096543574	-16.8342930834786	11
0.0011711466325246295	-18.67394817478823	3
0.0015808166602264764	-22.664796540864188	5
0.000946868621089394	-15.514741657683151	7
0.0017544635730352362	-24.27116217260453	1
0.0017671282119814538	-24.334480273276238	1
0.0009378405909075911	-15.687793793680417	6
0.0012709193878471827	-18.937100823384995	10
0.0017836307379079251	-24.416986265147546	1
0.0009817263045645236	-15.63078284115268	14
0.0011518113669082698	-16.38669707913892	4
0.0015018110253113709	-16.407327147821576	17
0.0017976772715375992	-24.487213283401218	1
0.001017138668995363	-16.181626186668016	38
0.0017420305122020283	-24.20900186935091	1
0.0017081478328668646	-24.039602101202625	1
0.0014244174320004691	-18.098667805010635	8
0.0010625791137552558	-17.355849662015157	5
0.0015188483010361152	-21.93804451948189	14
0.0017517887466050991	-24.257789116341183	1
0.0016693176063207536	-23.845466587036544	1
0.0013854976840712442	-20.39521741252664	16
0.0009538730165043034	-15.539071168063494	20
0.0017513801145709407	-24.25574612053322	1
0.0015248216338655724	-18.657274965509856	5
0.0012414709473637675	-19.002586420198178	2
0.0017432135633719018	-24.214916649345188	1
0.0012345543403360715	-18.321457509441693	2
0.0017295035095370804	-24.14637189472453	1
0.0016634015394148994	-18.384168844143893	6
0.0012789009876656699	-18.010010883228528	9
0.0017660875475037517	-24.329277369471047	1
0.0011800568014082489	-15.701031988193652	23
0.001764889555682882	-24.323287892231324	1
0.0016271308192985163	-19.947632279225516	26
0.0009261009605459855	-15.666690311966844	5
0.0016792613981924931	-23.895181546733944	1
0.0016928824849278704	-23.902798323088895	2
0.0008962297755273094	-15.929423980870913	7
0.0017567810600127756	-24.282748675336453	1
0.001778723948862406	-24.392454293562853	1
0.0016916880477327052	-23.957309796101377	1
0.001784577926483313	-24.421721827039693	1
0.0017757824994424623	-24.37774822959343	1
0.0015684709419523386	-20.322545771794985	17
0.001493695890699461	-21.502199160154667	2
0.001129233274779319	-16.00885847888688	18
0.0010541884880854444	-16.630869359294667	15
0.0011296723164277553	-16.72999482147779	3
0.0017401420778369297	-24.199560457104656	1
0.0017833310778223013	-24.415488085250797	1
0.0008533852051899733	-15.694921332821414	16
0.0013376199621451489	-18.588271910232002	5
0.0008965711383519143	-15.849040864677061	5
0.0015466143656953358	-22.211967298655146	6
0.0017471742252927254	-24.234718365864254	1
0.001334433315598359	-19.9885392785664	10
0.0015536377653649041	-22.081662411085034	3
0.0009132012005885114	-15.745475728029158	8
0.0013334364029591143	-19.93070889776539	4
0.0012200655678253813	-18.907859604850444	16
0.00175304767783343	-23.156895291730173	6
0.0015260599630590418	-21.92793662130131	2
0.0015272530282362487	-22.04889693958383	4
0.0012118455687236817	-17.719715809488786	7
0.0016463511739738775	-23.73064366302072	1
0.0013789486340670199	-20.048493331139092	4
0.0017955540005945383	-24.476597782722763	1
0.0009544700622768469	-15.70095083430133	6
0.001058458055828803	-18.176960897930943	9
0.0013313598961754434	-15.57899860938701	63
0.001132252038931794	-15.627077478360821	15
0.00110504494399299	-16.420966848985152	9
0.0016939093473446012	-23.86548766392574	2
0.0015341373177944438	-22.543618733771368	4
0.0017912973058015211	-24.455316020915134	1
0.0015668874126755171	-23.333356818997064	1
0.0016133519223615965	-23.565660678148394	1
0.001265525462861065	-18.11229400034403	25
0.0011340889278399298	-17.73980101391318	3
0.001781198575028644	-24.404826429032653	1
0.001693469456344977	-23.966216122632144	1
0.001428879539424673	-21.71710826790933	2
0.0009959028356523298	-17.164100665946435	15
0.0016704086632979168	-23.515917274797957	2
0.0009725595291015318	-15.542682273199247	21
0.001764873604955512	-24.266566123357958	2
0.0017848270436623943	-24.42296731273345	1
0.0014953915880284226	-22.51485356572379	11
0.00161687159829607	-22.980689379145133	5
0.00178606117731479	-24.429137484593586	1
0.001258914322272598	-16.994925844771878	7
0.00165440025187285	-23.41223054313498	18
0.0017608519007443453	-24.30310124159236	1
0.0009695042621500986	-15.907955295691544	12
0.001526911557397948	-20.62959466889151	3
0.0012541597480307959	-15.77403227232865	14
0.0012012592399230232	-16.53420477574341	7
0.0013910708140189854	-20.42068543099851	4
0.0015035467371590258	-21.787829734817855	13
0.00118214753751338	-18.00454912180485	4
0.00135167171114286	-18.372043009431287	13
0.0016906119095999234	-23.01867984684052	3
0.0010076456844297632	-16.36108661093635	7
0.0017513291083380465	-24.25549110988483	1
0.0013163899073309838	-18.952684807776567	7
0.0017855401210676964	-24.426532412941	1
0.0016763661887747527	-23.88070666417656	1
0.0013517415297252561	-20.135136297097365	4
0.0009544090261245864	-16.27086344565846	9
0.0013057574774414944	-17.96042580669932	5
0.0013505852986461261	-17.526474109552836	11
0.0017702625179503522	-22.835539825192786	12
0.0017175701202797832	-24.086709748369078	1
0.0017365565034438007	-24.181634027353745	1
0.0015329935095689065	-21.98754592504872	3
0.0017806999195481101	-24.40233335220267	1
0.0010312378402738815	-16.885439422546902	21
0.0017674103215234074	-24.335890707513936	1
0.0012921647665858256	-18.45388683664911	19
0.0010440321073750048	-16.201558597960094	10
0.000932033975766918	-15.55079181720194	3
0.0011089737528979914	-15.722026862446507	12
0.0017151480317526909	-24.07460027996295	1
0.001300225125458059	-15.789736936896617	6
0.0011519027101621955	-16.930582282604057	19
0.0017023710343986912	-24.010720432445922	1
0.0009694841732257455	-16.284134575435555	3
0.0015816760178513508	-22.36514083448476	3
0.0017399645112513937	-23.90812687350278	2
0.001404140251549102	-20.866165593598325	23
0.0011548834012977574	-17.534285759091016	5
0.0013708743002673832	-18.741683200509804	9
0.0011054205913901619	-16.58568426247026	18
0.00113561534062807	-17.964579451692174	6
0.0012851374483350648	-18.955317043025314	16
0.0017730568932996008	-24.36412129519143	1
0.0017184768180501006	-23.818904277222682	4
0.0014054193671444498	-18.94034668983069	5
0.0017726230132706325	-24.361952069564843	1
0.00109432262732812	-17.034645815872093	6
0.0009231625901802775	-15.834673310846973	14
0.0011529374660812599	-15.777279252037793	16
0.0009629677438360761	-15.95389415520222	6
0.0017908433495411936	-24.45304642220695	1
0.0014294569603847302	-21.57571984676553	3
0.0013865314750095218	-20.77229187474972	12
0.001458498553292357	-21.384769774745905	3
0.0017968444830229566	-24.483049675798007	1
0.0013859773957679384	-19.19218360615639	11
0.0017371890814687659	-24.184796663038625	1
0.001772217878243465	-24.35992655738524	1
0.0017468150261673602	-24.075948457428602	18
0.001269648341391517	-15.86653890522028	8
0.0016823049464698338	-23.497070868628835	3
0.0009225514690056981	-15.707300168890736	10
0.0013970039406866583	-18.259449753084965	6
0.001026213993922111	-15.711043475216375	7
0.0008927249477228358	-15.614670306041418	11
0.0015775018398082495	-16.667689992760785	21
0.0017783932454647382	-24.390800909592343	1
0.0015827879722296976	-19.996863723160196	16
0.0017949543672621836	-24.473599857249685	1
0.0016154295541900884	-19.698935398463636	10
0.0012650549169546485	-21.82431574556373	1
0.0015094934455279914	-21.597607587636986	5
0.0013323780767707004	-20.13440483679432	21
0.001103683211199399	-17.369599913258316	4
0.0012076673283944726	-16.357743892719185	14
0.0017640422498706682	-24.319051703979504	1
0.0009413013255862917	-15.7522684684311	17
0.001233385805819526	-17.870006079080476	8
0.0017495576442342021	-24.24663450189625	1
0.000996087127147332	-16.567993379734148	8
0.0009630021788936793	-16.586220639910238	15
0.0008926754202821635	-15.5092325476759	13
0.0015126243687015723	-21.681193835170482	7
0.00156657601567005	-20.840064335575544	4
0.0014001513977147837	-17.582276967038872	13
0.0010357334753541717	-16.531010983968557	3
0.0016729500700280115	-23.510628351290826	9
0.0013503008795360692	-20.858585729701705	3
0.0013808310992264212	-20.672498521198506	4
0.0010790884525418772	-16.49036720484948	2
0.0015167418897528188	-19.688574834907183	8
0.0017282600424723905	-24.140155059557074	1
0.0010936583757849248	-17.51570479398239	3
0.0016700753897498394	-23.849255199381037	1
0.00101850185555516	-16.575251176741077	33
0.0013532082902882705	-20.64766962066222	6
0.001722120633648405	-24.10946048487297	1
0.0011710374509231137	-17.985327171007086	12
0.0009098596644720413	-15.692176848142388	4
0.0008669851835713137	-15.990455784177962	13
0.0013592044923864928	-15.784125930324677	2
0.0014909775020257368	-21.499804314533357	4
0.0009371124335499704	-15.709959082107563	7
0.0009618047560946678	-15.55727393797862	12
0.00179963261017632	-24.49698919010488	1
0.0016012893546923392	-18.697100817771876	9
0.0016562360590970755	-23.780064112669294	1
0.0017932748433241916	-24.465202913109554	1
0.0017854926259559536	-24.413471466518274	2
0.0010428476886186191	-15.681422514603756	8
0.0013623936308126631	-18.10012074866605	24
0.0017474070039192931	-24.235882165367247	1
0.001102167864077698	-17.25575256211257	9
0.001716558011667417	-24.08164961240463	1
0.0017136118226292695	-24.066919852250592	1
0.0011534793794098321	-18.394955884407235	3
0.0016330599687847229	-23.137467878591153	9
0.0010473372540592454	-17.325676350472854	12
0.0010334761630186459	-16.462855451565247	24
0.0017641762549437166	-24.16178116974016	2
0.0010233869277253254	-16.74168034228439	17
0.0012288008888944834	-15.768952201665316	17
0.0009981458871412686	-16.154048707855388	30
0.0017998312058788133	-24.4979820887368	1
0.0012347899644794583	-19.275518083878755	14
0.0013827411797926073	-20.41703558034687	4
0.001738474204492643	-24.191221761246872	1
0.0014628128994616126	-20.232809578529636	21
0.0011509031040262208	-18.180907698579055	6
0.0013527456164348335	-20.075343357728332	4
0.0015632287170741124	-22.147148779641757	4
0.0016962825895005763	-23.660485572806177	3
0.0010376861984814842	-15.501335624415946	8
0.0009715252188519723	-16.04083383988916	9
0.0011514906727079735	-17.53347440051423	7
0.0012633504800267533	-15.802343201051253	14
0.0017436568347847985	-24.21713282811395	1
0.0017925883802611918	-24.461770873908513	1
0.00178533922860443	-24.42552803142903	1
0.0017327016350969658	-24.162361236151597	1
0.001503632932874513	-15.762527964664201	6
0.0016726114310490609	-23.861934385812933	1
0.0014662025758893516	-21.464375131075215	10
0.0010212618349382135	-15.796614675049007	6
0.0010391067112740108	-17.828794362930108	8
0.0011522431832665227	-16.07566505178389	15
0.0017932419947620376	-24.465038683511363	1
0.0013290135593236182	-16.75476682215969	13
0.0013685228219252154	-20.07274540568806	3
0.0017644760883248514	-24.321220721748894	1
0.001655826234268707	-23.39680135133939	8
0.0013576240341181519	-18.15006918073876	3
0.0017110465770139717	-23.947190008885112	2
0.0011711964709279802	-16.616832801246858	24
0.001034967991003342	-16.904885289317008	15
0.0011170965182921132	-17.578373813309128	5
0.0017103177043617426	-24.050450585896176	1
0.0010963682966275057	-16.368672357811857	8
0.0017791602523059245	-24.394635635287433	1
0.0016353374572233795	-22.93691547010825	2
0.001656806657211445	-23.78291687373119	1
0.0010946533775294533	-16.517459221687922	5
0.0017913704964924566	-24.45568194493054	1
0.0017694774964861133	-24.34622575085394	1
0.0016955959729189956	-23.605701834853786	3
0.00178811281360331	-24.439394840812735	1
0.0013993130348726763	-20.461849926040532	2
0.0017118456972441435	-23.703968383461316	2
0.001612122468191135	-23.559513901815716	1
0.0014945380144646015	-17.538164584995556	12
0.0012286531072829483	-18.75028850149461	2
0.001569960502123136	-21.7941594859565	13
0.0017804154660633331	-24.40091119919365	1
0.0011777656452677018	-18.108868783918616	14
0.0013014437735340693	-16.338843685910398	3
0.001774779173700238	-24.372732004446984	1
0.0012932226532302734	-17.170602196798846	2
0.001013841118834149	-17.02398589826472	16
0.001164221721539648	-15.702665657869778	2
0.0017880454582066712	-24.439058090921694	1
0.0015051158103256918	-21.937286620702313	3
0.0017822724482647815	-24.41019536327256	1
0.0017894028317643298	-24.44584441273773	1
0.0010407078755449372	-15.864841212768681	17
0.0016137079434503567	-22.049839658076912	2
0.0017964310031937801	-24.48098244296487	1
0.000991640100906176	-16.387729403605313	24
0.001060382525425726	-17.464320580493542	31
0.001206175507053186	-16.99514996770754	7
0.0013993608194461343	-16.113441422885824	8
0.0017732476102812246	-24.365074803388037	1
0.0012402975969318445	-16.95292350572906	22
0.0011055899396209814	-15.752779765049816	10
0.0017751520414490884	-24.374596193213772	1
0.0010952611979997186	-16.158268888775577	5
0.00140380685205748	-19.859124323201442	20
0.0017878794402165074	-24.43822806774779	1
0.0012333814563767823	-19.084988440553754	7
0.0012589476406478209	-18.30953894703446	7
0.0017456189672670677	-18.386552463304564	34
0.0016129813206150069	-22.703687752331376	15
0.0009367174272820722	-15.943579718027014	4
0.001320059584766824	-18.01498081739949	7
0.0014251141892094746	-21.236539568440683	5
0.0017315862788574825	-23.92509274389017	2
0.0012488592295982401	-16.815730834837503	11
0.0016826062317235385	-23.9119043690069	1
0.0012103453660380007	-15.633470988098335	12
0.0017737897271179407	-24.367785169517603	1
0.0017764401313900668	-24.38103612481415	1
0.0013782249152544826	-16.810325404279975	6
0.0016337799559165806	-21.794655368845966	4
0.0017707623241330164	-24.256501265605536	2
0.0016415336001173138	-21.25208136804942	5
0.0017485403554195597	-24.24154846700404	1
0.0014009865110315804	-17.49951139952324	10
0.001308976649102317	-19.298418121445962	5
0.0017790538167224092	-24.390241477012758	2
0.0017786886676616784	-24.39227790175027	1
0.0016060544023885266	-20.752189043767686	9
0.0017867050321646548	-24.432356499867122	1
0.0013129804565197428	-16.700670112643373	12
0.0009135833207671615	-15.626223576572006	29
0.001055467330324473	-16.62814079764597	16
0.001757298425501054	-24.285335294679495	1
0.0012093556564519113	-18.875812036390975	5
0.0012546780967575043	-19.33356551534057	13
0.0017499335193885035	-24.248513726480635	1
0.001221086877067448	-15.852483085216779	35
0.0013001557445603026	-19.614097629740463	8
0.0014040097067007692	-20.599310560823415	6
0.0017676767654019507	-24.33722281973574	1
0.0017589943231234465	-24.112865846562237	2
0.001093996150671601	-17.56688934584116	19
0.001112545362497926	-16.086997054507147	14
0.0015237452964739391	-19.77264742623982	11
0.0010164882020826604	-16.76260605986627	2
0.001796497776336692	-24.48131628182147	1
0.0016365241515762827	-23.324996414258592	2
0.001538447919324275	-22.088016782773433	5
0.0015507467961551203	-19.59179771059899	3
0.0013370884793901365	-20.349226867479633	9
0.0009584184526244927	-16.015764021729435	9
0.0015082541653943953	-21.748166105224282	13
0.0015753280730846227	-22.528787768842605	2
0.0017741392399834746	-24.369532593261773	1
0.0015211227448243133	-22.00032575207181	28
0.0015962407736925942	-23.480111817368908	1
0.0009401371655636372	-15.919097520042603	4
0.0009082170386939673	-15.555171996817476	17
0.0010781281671089257	-16.861677160898868	13
0.0016177745548145853	-22.988523525977428	9
0.0017284050182023625	-24.140879879893784	1
0.0011961890033681014	-16.600498796259515	22
0.0012928028012235465	-19.16923001705611	8
0.0010573021498940147	-16.407474787764162	21
0.0015466437129581093	-22.218389643637263	2
0.0016224034012566175	-22.954746771822624	6
0.0010715054837285348	-17.112268890950958	26
0.0017490618468017198	-24.24415571415694	1
0.0017152200646906946	-24.074960415679378	1
0.0011507132906451137	-17.64209730383765	3
0.001475469866239907	-17.89029041913546	8
0.0013474252138205175	-17.08637333010992	7
0.0017199825787933508	-24.09877107058103	1
0.001776468862632524	-24.381179769469952	1
0.001455185723072191	-21.34521915828526	7
0.000992385873543964	-15.536269500669722	7
0.00165046148026465	-23.751193541198525	1
0.0015672141164610569	-15.583004316614248	18
0.0016236691698850966	-23.617242765890655	1
0.0010145630512226856	-16.39351017908852	2
0.001696285563160186	-23.73857829225424	22
0.0015191141231755796	-21.888388603634063	2
0.0012321803448734163	-16.996036777482956	21
0.0015578532496533983	-22.15314385377653	5
0.0012954668166009987	-19.34053440272161	5
0.0012963322465274745	-19.61036121911512	7
0.001174934484943274	-16.76203124569155	31
0.0013849122547077682	-16.308000975174142	2
0.001197180668091361	-16.733892925324955	11
0.0012307252915886564	-17.48476499005268	12
0.0012135010908701316	-16.628123053283293	5
0.0015912062278809263	-20.52746938883041	19
0.001752030481406835	-24.258997693117603	1
0.001012038576817641	-17.33713018085075	3
0.001435218973584221	-22.396100722419035	2
0.0017600428587686424	-24.299056357132354	1
0.0011535085736604264	-17.957962290095665	10
0.001374265567301688	-21.367155864836974	3
0.0017731178700256714	-24.364426154295302	1
0.0015772703953621937	-22.589850693373055	2
0.0017841097144592687	-24.419380955246975	1
0.00099975942818565	-16.436324889349777	21
0.0011280011438848877	-17.914503903106876	8
0.0011733479999760787	-17.43027911626048	7
0.0012947671203135706	-18.846248111124364	4
0.0017233261535558376	-24.115487599517515	1
0.0011030132226286244	-16.348950135990332	6
0.0016252937081545345	-22.758079111022774	5
0.0017290170209547746	-21.772642019304115	13
0.0015631275662461377	-22.173573068644703	9
0.0017560434475391003	-22.031792021235326	2
0.0017524470782227758	-24.261080509630833	1
0.0008371680466824592	-16.66034574218548	8
0.0012022011318400052	-17.66335614372824	8
0.001390318784116001	-20.610222148914197	3
0.0009775504815315256	-16.204997813693215	20
0.0017628740289671986	-22.92633056467556	3
0.001730953259778357	-24.006558342215055	2
0.0009198400809082877	-15.509283889373469	32
0.0009178541482084282	-15.990782092359435	10
0.0015000299524496412	-21.648186020326197	8
0.0017433512262814033	-24.21560490852096	1
0.0009124792313648436	-15.653753219828697	8
0.0016905224921775098	-23.951482487143284	1
0.0009232969859109152	-15.695716011527624	8
0.0012325393374634469	-18.920272896621142	13
0.0017637559453956056	-24.317620296763575	1
0.0017674732675944638	-24.33620541255061	1
0.0013575220721713341	-17.93997848475002	5
0.0017070011873032494	-24.033869334596325	1
0.0014395579890487146	-18.095762782409658	4
0.0012402208145916326	-18.044148785038647	20
0.0016586667534379486	-23.208732692709496	12
0.000951150776398863	-15.96117297543917	10
0.0012435107584134921	-16.296364109369986	3
0.0015301783175908853	-21.96336084958561	10
0.001795892460243511	-24.475411129454134	2
0.0009120485294451969	-15.600505293959344	7
0.001769682558476773	-24.34725097832577	1
0.0017116666862520143	-22.785114184988913	8
0.0011028668353185106	-17.43445563315819	4
0.0017913773907025962	-24.43768830302327	2
0.0011454211985682413	-17.52699139915842	13
0.0010015970463402898	-15.571710094072245	19
0.0017432912195918097	-24.215304899209304	1
0.0016140860736292082	-22.899612854946255	2
0.001557348842509979	-22.1324184587955	2
0.0010090512982599865	-15.959776452781515	5
0.001073683422375662	-16.259017532542455	10
0.0011079714255505947	-16.408193799569347	5
0.0012715578846056337	-16.36213469274884	4
0.0011915401685974926	-19.391162841395438	2
0.0011624415851662468	-15.941682064763498	12
0.0012623547875932999	-16.994597353943696	10
0.0014953199436853702	-22.975548260412722	1
0.0017873155289717367	-24.43540873834425	1
0.001088248564556037	-17.48145473984525	9
0.0017975353676729531	-24.48650382115555	1
0.0012274438371600064	-19.111101702641065	11
0.0016647555352843658	-23.383549395445385	3
0.0015330713236802753	-22.506153784616608	3
0.0013889359375571012	-18.881104234763207	8
0.0011590939614012973	-18.17937629593852	2
0.001397670448223847	-19.9820963700814	7
0.0012635126107680506	-16.699439830025	10
0.0011991910326567467	-18.67068257348491	6
0.0009167636270864145	-15.831274889105154	5
0.0017413880554326428	-24.205789843917422	1
0.0012263800319464336	-18.36950791893436	9
0.001090690078654278	-17.217215001165734	5
0.0010795379436170961	-16.652171419748246	13
0.0011483190848082924	-16.962566469271625	2
0.0017214156957124612	-24.105936078738306	1
0.0014119153150054114	-20.18676126747429	32
0.0009978540005240275	-15.849369248426605	26
0.0015711815114478945	-22.60849859817534	4
0.0014198331865985848	-19.01719392726616	3
0.001083406783889296	-15.744982432749861	21
0.0017375352526798236	-24.092736182357896	2
0.0015861177957237572	-22.455800293249816	5
0.00132059032758193	-17.802760665258454	4
0.001773088487682704	-24.36427925439883	1
0.0011653303062888845	-17.474250087037603	14
0.001628706328449318	-21.982117595498167	3
0.001498267627240095	-16.02182633706941	10
0.0010119109794179098	-16.58950882325854	19
0.0013272772958156434	-18.138376141333172	8
0.00138232745779592	-21.39584091690733	4
0.0013176726180619534	-19.906173540188842	9
0.0009784388324344288	-16.1014790022435	20
0.0011697854541037988	-18.402401632222684	7
0.001079438782500373	-16.03342404577087	9
0.0016185715376110376	-23.591756654925558	1
0.000963356968526324	-16.03237164611588	30
0.0009340406860693646	-15.634631336841199	12
0.0009804179726001286	-16.313266361863626	5
0.0010724882075142154	-15.77156670202222	20
0.001751988269451866	-24.258786650321547	1
0.0017981175950093674	-24.489414723650082	1
0.001786602303586005	-24.43184289829408	1
0.0010936846753949684	-17.66757295610514	27
0.0010367295749038833	-17.542356305283135	9
0.001749934601720364	-24.248519137704587	1
0.001397439338147028	-20.664660939703317	9
0.0014351316151858596	-20.88434528895933	6
0.0016766095497530206	-23.881923371181546	1
0.0017808635255735625	-24.40315131652318	1
0.0017634293640753178	-24.31598752152195	1
0.001264236272426928	-18.386258222172607	8
0.001745290572110308	-24.22530085760828	1
0.0017401154021244802	-24.1994270892721	1
0.0015833619877783558	-22.48926249493396	11
0.001292823622155045	-20.298826846412936	4
0.0010672314685327654	-15.777119666274999	5
0.0016647151497995027	-23.81666194426637	2
0.0009030332835104754	-16.14085232398507	5
0.001599030163309188	-22.507940256154328	49
0.0017596396633098737	-24.2970405420146	1
0.0011914767714187478	-18.531919207580255	10
0.0012460997722302351	-18.91468210918811	7
0.0017350499812229976	-23.92474306889801	22
0.00108815512244534	-16.16398709378985	7
0.0014857460633219879	-21.495172203365296	2
0.0017571198274491432	-24.284442376256894	1
0.0013743444284940677	-17.07388969194353	44
0.001361519843320212	-20.621151877023962	7
0.0009726382742600979	-15.676919701388206	2
0.0007779993248843943	-15.538608982780564	11
0.0011967889942248054	-17.868514283659408	7
0.0017602005957224592	-24.29984497845538	1
0.001339833022071697	-16.88644932760117	5
0.0009421764991922891	-16.19855615921309	5
0.0017713536664444804	-23.82505889350424	2
0.0016590633005776035	-23.79419918287915	1
0.0011032669197317637	-16.405283973707483	3
0.0016486473045075121	-22.98627625839381	2
0.000964427522670436	-16.11452422234408	6
0.0017534988609997626	-24.16585038091019	2
