T	U	Steps
0.00030434348617911427	-19.823261046372057	5
0.0002555663976728136	-19.217998099659116	4
0.00024442609426319475	-19.111972106548453	12
0.0003362664515979236	-20.30786712406309	4
0.00020652183434439727	-19.21364779312286	5
0.00031449766287411845	-19.13431224695632	19
0.000201153474425314	-19.07094515818234	7
0.00021780797112995625	-19.218042852827015	9
0.0003823784714120108	-20.91163855412508	1
0.00021384513389397086	-19.096735930105808	21
0.0003463804201642774	-19.06682727346642	26
0.00039594804727230936	-20.979480975377154	1
0.00030253226999634564	-19.127718378317503	20
0.00031516618089164435	-19.769293255031002	15
0.000395831100213112	-20.97889628712043	1
0.00030095604712492187	-19.9342486967174	5
0.000389849020229653	-20.948988293357058	1
0.00031578542778532036	-20.237461563286246	5
0.00023247903736957728	-19.275213939789978	15
0.00038713373448609527	-20.935412956800434	1
0.00021769468645486582	-19.09353032550334	7
0.00023013440727918784	-19.156642636815576	19
0.00034454059548077564	-20.50610370261052	5
0.00026941402658220073	-19.699828438697857	5
0.00025569182895525356	-19.038994411386085	8
0.0003962692049439092	-20.981086634556878	1
0.0003835624364478463	-20.917557903081587	1
0.00020286876064154824	-19.000929252562997	8
0.0002363145767473322	-19.35219601439679	21
0.00024906517254470094	-19.165434763737277	4
0.0002649379182810998	-19.202100421883102	9
0.00022352377276327128	-19.267137992795345	5
0.00020765575616933288	-19.066710960616923	7
0.00024389126411103134	-19.12535125657649	19
0.0002055573554338899	-19.048661360594103	8
0.0003187828767793642	-20.226476517450664	4
0.00039521463787834337	-20.975814223404367	1
0.00029253345996928996	-19.90898831139087	9
0.0003847654024853049	-20.92357224940349	1
0.0002081581536614944	-19.099602153233622	7
0.00022147382969750444	-19.085175953100578	13
0.00025992030431710235	-19.455781695229966	8
0.0003046905755843928	-19.536738111877554	11
0.00038337845096322344	-20.360032741569324	2
0.00033561242666864724	-19.15982846138632	2
0.00034152689574447304	-20.432457393129198	5
0.0002081922602422905	-19.06806048585724	20
0.00034291879295724717	-19.99691654572805	27
0.00038049981982526737	-20.812204545535597	3
0.0003162996932976456	-20.25536794936519	4
0.00038188666936259834	-20.909179741694068	1
0.00038223305266620104	-20.83073981183552	6
0.00036206629463011796	-20.810085840320994	1
0.00021847033410218454	-19.111234668546338	5
0.00021310934190911813	-19.04172388930487	6
0.0002024499982125029	-19.011394165100768	11
0.0003956812918870365	-20.978147305747004	1
0.00020130104004089012	-19.065260704967343	27
0.0003429931746405723	-20.604250025100722	2
0.00024776915432955646	-19.41353791455782	20
0.0003933203158963092	-20.93645057324166	2
0.0003074521304509706	-19.26139748314645	11
0.00033868833847532483	-20.53248511314256	6
0.00038675097913485473	-20.933499333998757	1
0.00038808002103886397	-20.9401440089423	1
0.00037326214001785844	-20.736566598188922	7
0.00023517176030557328	-19.263982182660456	13
0.00023992609286711898	-19.39569461832925	3
0.0003360770797878086	-19.903420171550014	19
0.0003953135154967626	-20.976308571725216	1
0.00024713196007504235	-19.173491331711155	4
0.0003281554173399821	-19.59639012063878	22
0.00025069804133082954	-19.20607873731869	16
0.0002396937570380867	-19.200149031925854	7
0.00024815239612730085	-19.43365998358288	8
0.00024915788904403464	-19.254007018117957	4
0.00027928456973194216	-19.50887776526445	8
0.0003810902781234418	-20.893369156362983	2
0.00039928975387770434	-20.9961881642796	1
0.00022877177423113304	-19.04681082298269	9
0.0002023168067143892	-19.03054245337371	4
0.00020065603813781827	-19.273339513552557	8
0.0002216461250001369	-19.105411778514938	10
0.00039946368642281363	-20.997057757044786	1
0.0003826140174566401	-19.969146107398284	6
0.0002489338714863327	-19.16313056495836	22
0.0003476496465978776	-19.624569894267704	25
0.00025929081867853953	-19.597568069877887	16
0.0003268143083902743	-19.93000999479904	8
0.00022818523769212886	-19.586728698683487	3
0.00033640980210771973	-19.807377773721687	29
0.0003765534355283139	-20.842881016619977	2
0.0002671503458527755	-19.348587717972343	8
0.00035716960962568387	-19.658735657351123	10
0.0001988053369632372	-19.034615721244972	11
0.0003956419525379825	-20.97795062482508	1
0.0002907452890393397	-19.09475163590545	14
0.0003647586447096723	-20.823546507782943	1
0.0003002851837994125	-20.011151727947723	24
0.00031118089289870694	-19.52651508184191	11
0.00021451244241065125	-19.012261974312544	6
0.0002358755755635488	-19.055014307947843	6
0.00029694685380047035	-19.14433194932304	7
0.00037391746410417087	-20.810978372040328	7
0.0002109666906271179	-19.10878191259089	16
0.0003763146278203562	-20.809824897309387	2
0.00037889326021088804	-20.811191068952848	9
0.00021292651968603645	-19.002270531374577	16
0.0003929621705348077	-20.96455279268981	1
0.00026201572123418944	-19.488952700721544	11
0.000328866048212031	-20.31180851065476	10
0.0003896647598771282	-19.263779601613685	7
0.00023952936661511236	-19.079885954218273	9
0.00035688463914509283	-20.589019393604254	7
0.0003218903988141324	-19.443983576163305	8
0.0003902463559911938	-20.9509748123456	1
0.00021469705576806944	-19.080780906680022	4
0.0003587930559433712	-20.588733052754005	3
0.0003957553074903632	-20.978517353992565	1
0.00023373811265395058	-19.257044090511137	10
0.0002406981175720106	-19.35609568405594	19
0.0002170954628086247	-19.1277357392889	46
0.0002177769380933711	-19.189565849737793	5
0.0003381803995000989	-20.58810415179926	17
0.00038033479489123565	-20.901420993543027	1
0.00032972646077059835	-19.092915421518427	5
0.0003941410463228391	-20.955908082440352	4
0.0002628964983388596	-19.481134421387573	9
0.00039823554820521195	-20.990917559947093	1
0.0003278689294589818	-19.405645535279763	4
0.000322055270434099	-19.762015332588426	3
0.00029989861631619767	-19.601014931543787	7
0.0002880455008220797	-19.893259306140887	8
0.00037892342664451456	-20.8943647199998	1
0.00019387876950770628	-19.038127242776213	6
0.00022387343217786584	-19.04695677233001	3
0.000395980011680577	-20.979640784561546	1
0.0003763932464482594	-20.881714836725244	1
0.00037601284492393724	-20.879812982111385	1
0.0003801364502912001	-20.900429350322398	1
0.0003428100138027247	-19.061666648158248	10
0.00026321903097519596	-19.418599837292074	9
0.00039996272615371584	-20.999552754972054	1
0.0003969643285210317	-20.98456197284504	1
0.00035481868304229874	-20.345488051647163	9
0.0003928343728997142	-20.963913855917998	1
0.0003979126915323832	-20.989303406444613	1
0.0002485727744960955	-19.521452931580342	3
0.0002450807280648659	-19.07581818827996	12
0.00023987171364130505	-19.219342060143735	14
0.0003520175136268683	-20.451448970980163	5
0.0002028878203814532	-19.00762230702071	9
0.00039382612917050985	-20.96432709227511	2
0.00022992261879715186	-19.397223253883947	6
0.00039077482687340274	-20.953616954191403	1
0.00023597690800235122	-19.421431235412705	19
0.0003036282720911244	-19.763994291294335	10
0.00036383776102232165	-20.81894245975045	1
0.0002515614528001685	-19.693626683974507	14
0.0002256359000291694	-19.118719934266426	3
0.000393813649149756	-20.968809843276887	1
0.0002145401168433859	-19.26545083482216	10
0.00039661912065503015	-20.982836072366943	1
0.00025120290628501016	-19.406031038010138	4
0.000371728867499483	-20.765902448633735	7
0.00026692583841497666	-19.215596322215113	7
0.0003828360732883794	-19.79252656528184	5
0.00037129625097594274	-20.85623190951272	1
0.00024703142643567533	-19.392677418946896	14
0.0002384082747349584	-19.247444003986452	7
0.00033309351058547084	-20.411621625993984	11
0.00036695896990864636	-20.675930046102472	13
0.00024138888592526526	-19.419526756629452	11
0.0003499045856118681	-20.176479495793114	6
0.0003992542960044752	-20.996010889175565	1
0.000395797988852188	-20.97873074363409	1
0.0003925969109405907	-20.962726641635985	1
0.00028573439232346034	-19.868945581148772	26
0.00036069204389759543	-20.70535052880939	2
0.0003993572190819405	-20.996525463164456	1
0.00038816419575964594	-20.94056484868887	1
0.00023343338666382887	-19.41745100534696	10
0.0003912057345895796	-20.955771319449582	1
0.000253914367446685	-19.520062411179197	5
0.00039734215501340464	-20.986450953334895	1
0.00039510342487158594	-20.97525820310345	1
0.0002541489649690799	-19.444372950933683	16
0.00024372851812592242	-19.514294982489655	6
0.0003879006472045356	-20.939247211919653	1
0.0003829398624833577	-20.914445283675185	1
0.0003824885035955301	-20.864315746225206	3
0.0002481610785799774	-19.45838810464634	4
0.00039572607892232077	-20.97837122290887	1
0.0003976500612471128	-20.987990360655246	1
0.00033702254248784363	-20.194347232779744	3
0.00020112464602363065	-19.050193931927645	8
0.0003922543828979123	-20.96101413919661	1
0.00032430140554101216	-19.861087963080852	31
0.00037873062615015833	-20.135205825808693	76
0.0003970746157111961	-20.985113364435378	1
0.0003941116726645243	-20.97029984097763	1
0.0003249854417068529	-19.21877050876826	9
0.00024145390849532195	-19.237885409412403	15
0.00039464845883661415	-20.949405754648367	2
0.000240420809842278	-19.20369684337051	11
0.00021410399690434363	-19.04924019131026	4
0.00034425020498244946	-19.770272526196976	19
0.0003818951317557639	-20.871439446682373	6
0.00039494241072091096	-20.97445319711431	1
0.0002717873182634036	-19.460662227388504	12
0.000393014872811073	-20.964816282872857	1
0.00018877766696682929	-19.054721199521204	6
0.00038600019855096566	-20.929745733063513	1
0.0002745998504142004	-19.452840063426592	6
0.0003473159662130222	-20.47262268737368	15
0.00039252951885835886	-20.962389708331738	1
0.00029131513991937323	-19.526522669694202	3
0.00037103061068722437	-20.854265889402548	2
0.00025940362908493785	-19.47634165081334	18
0.000371591557428963	-20.8577083229976	1
0.0002496864584555295	-19.235956087314726	6
0.00035471092069098726	-19.638465493818344	8
0.00039141171800341593	-20.956801153666678	1
0.00031891909763977926	-19.843783715633982	3
0.000381824516741546	-20.90886900358827	1
0.0002262320030133959	-19.356269529335343	2
0.000321777621216488	-19.84674412362059	9
0.00028747448322659217	-19.92539753830907	7
0.0003654496462598369	-20.67171264036262	5
0.0003703408356907587	-20.851455217380597	1
0.00024787978433442163	-19.209304253623777	7
0.0003340389258625874	-19.403811006498263	15
0.0002165583294227266	-19.026107578489654	10
0.0003984992637188699	-20.99223603144189	1
0.00037868854600682804	-20.893190411286692	1
0.0003999376995024462	-20.9994276317821	1
0.0002265374116918326	-19.164539337624525	14
0.0002971642159194078	-19.586695371070917	10
0.00025066358095840577	-19.08420429398909	3
0.00023238204841823928	-19.15245184833284	14
0.00020405875897451165	-19.051481784383274	9
0.0003647095253363238	-20.823300930673337	1
0.00039654465666800505	-20.982463782383242	1
0.0002863510175447322	-19.725796251379876	4
0.00030038972723842326	-19.612311924206413	2
0.0003056080219683711	-19.49525386902109	3
0.00038303922180622904	-20.870659874694418	11
0.0003806343640167808	-20.816346507636062	5
0.00022681706404818083	-19.21195212186507	7
0.00031496755836419026	-19.681024095716943	18
0.00028144625847655985	-19.824644338363953	10
0.00022103662800170446	-19.181325337990305	3
0.0003499465285750451	-20.344290145941603	2
0.0003796560764716268	-20.111776573117595	8
0.00023874480697466484	-19.25081433877712	9
0.0002547155889558235	-19.037210386294298	15
0.00027191517893960615	-19.56011818036626	14
0.00039064650268504997	-20.952975384865088	1
0.00036666662720732853	-20.685411044332028	2
0.00023175865577978091	-19.328597067947964	24
0.00020351591338998683	-19.03753283946697	18
0.0003938570531805977	-20.96902684597282	1
0.0003910632103884733	-20.955058755771127	1
0.00022653118445039404	-19.122644174401962	21
0.00038290717123613214	-20.91428184058836	1
0.0002054745883741067	-19.172424325977875	17
0.0003351467672454254	-20.386688092103682	3
0.000384768349896345	-20.84905684538458	4
0.00023909745820312176	-19.123009831973125	5
0.00036251399987863	-19.768112366653956	7
0.00038846892547596387	-20.942088374699946	1
0.0002495543282437307	-19.444016524391337	17
0.00027202436321359646	-19.32959450103327	2
0.00032828083162725	-19.868391204703137	3
0.00034814033258660353	-20.523370917877283	24
0.0003641358871707038	-20.689565397124976	2
0.00037625893467436094	-20.2967642150382	3
0.0003785438831516791	-20.89246715519825	1
0.0002404289555853758	-19.068636962259266	11
0.0003771515608658809	-20.885506103798836	1
0.00039745616445237427	-20.987020954672072	1
0.00035300287924792685	-20.56256098822953	5
0.00038132088855387207	-20.826298858791258	2
0.00030675782820637013	-20.20501060642684	6
0.0003967719271957585	-20.983600043607673	1
0.0003345286249071264	-20.038042579234354	49
0.00020699057045512272	-19.07840513521806	17
0.00025366769874589004	-19.347498195895184	9
0.00039727319526000783	-20.986106182305384	1
0.0003662770372791414	-20.812164788269605	2
0.0003795945737992127	-20.8977201858198	1
0.0003300561916555618	-20.344394564339876	3
0.0003332783355779289	-19.67305454548254	22
0.0003085664272104347	-20.16739765069979	3
0.0003048019862812626	-19.122867413004755	17
0.0003444584623094555	-20.45818641359793	7
0.0003357985622080793	-20.17240891992098	4
0.00039723472146551217	-20.985913828808105	1
0.00039604079326632807	-20.97994466804231	1
0.00025263274305504125	-19.199406958419996	11
0.0003968223214460552	-20.98385199458923	1
0.0003544766145975952	-20.7721404929324	1
0.00038732316049139043	-20.93636001063466	1
0.0003942060245149922	-20.97077156227911	1
0.0003077784662184459	-19.067014126304116	6
0.0003603301236466257	-20.487439566825113	8
0.00038775592372406636	-20.938523652728996	1
0.00027011054231174716	-19.347597380808335	10
0.0002747041889723347	-19.53756905445881	15
0.0003701443626342244	-20.706982212547448	3
0.00038538297008629296	-20.765016906081943	3
0.00019578340183137356	-19.290506097692255	4
0.00037270062416715514	-20.863253210592003	1
0.00038879321155599534	-20.943709674663495	1
0.00031439787122666655	-20.159962976957672	4
0.0003959942580830597	-20.979712010843674	1
0.00022257913659602156	-19.272387643198115	13
0.0003929803365720467	-20.964643615569134	1
0.00036795406903155275	-20.609322161739172	14
0.00021910349816750568	-19.040811479472204	4
0.00023479600589482944	-19.411275461371336	7
0.00031192432154782904	-20.31181049788235	6
0.00022038505262386363	-19.18544300582373	10
0.00021491462748329806	-19.08629681809445	16
0.000361824884136276	-20.808878884953597	1
0.0002829536563977426	-19.20311359449478	12
0.00038208855200475104	-20.91018907370219	1
0.00023270551071533882	-19.366354706749036	12
0.00023058133903592297	-19.227381498351555	2
0.00028863773531391794	-19.69372737670104	8
0.00030904877827913534	-20.114137476536857	17
0.00020243230434008184	-19.030158372540406	19
0.0002456926004858019	-19.05883117816185	6
0.0003977878381545509	-20.988679189774846	1
0.00028294715808491313	-19.353877419715076	13
0.0003791272466258883	-20.895383737924774	1
0.0003916012478190486	-20.95774872651084	1
0.0003708672694967271	-19.482797675875677	8
0.00021259279664518718	-19.194313079111442	9
0.0002996046703770422	-19.213790944223067	11
0.0003255522246279203	-19.7263004952148	5
0.00034795393814190066	-20.53876198020988	3
0.00024185429407420813	-19.27863839670119	31
0.0003915533088434508	-20.957509050915196	1
0.0003022746562960149	-19.338633926844274	21
0.00032208535888770683	-19.96992447096316	7
0.00037580932162127004	-20.87879544746061	1
0.00038853479064338453	-20.942417674044304	1
0.00022043767511824582	-19.08508783605032	12
0.00032888559655988315	-20.31991992017807	15
0.00036533702917221215	-20.664553677488957	4
0.00022783874811725349	-19.365081859577174	11
0.00027630455654928577	-19.035765064759925	12
0.0003953628701295912	-20.976555325037594	1
0.0003074170939752697	-20.293917407032325	7
0.0003180685458266891	-20.22111695343664	5
0.0003672368501673854	-20.70925481767887	6
0.0003694363606986155	-20.70164918363605	9
0.000193437603795862	-19.00757638466672	7
0.00023087076344928653	-19.01541908617444	9
0.0002212356140259746	-19.146831413332794	13
0.00023465486494764846	-19.20378445587181	8
0.00038536587691699836	-20.926574380034946	1
0.00031160667766926177	-19.358919679486437	13
0.0002293257775692158	-19.145876703792922	13
0.0003944633602835111	-20.972058137614315	1
0.00025216655895930594	-19.14436258349776	10
0.000194517155880893	-19.065716683203945	4
0.0003810296377284685	-20.873451842273578	3
0.00039094466666074966	-20.954466084813994	1
0.0002386411292463545	-19.433364997924475	6
0.00035401195099177924	-20.590930905874195	13
0.00024169931935054176	-19.15413506376528	12
0.00028011212434800146	-19.96777974516582	8
0.0003936197853594735	-20.96784060230272	1
0.0003671516033134128	-20.700686625063152	13
0.0002529685503185944	-19.55429011397078	12
0.0002143616878432567	-19.002148898431948	18
0.0003945307797235565	-20.97239520769663	1
0.0003024076424008151	-19.855110908717858	6
0.00026524058012412737	-19.385970761555956	19
0.0003104111037653007	-19.58033386625305	11
0.0003983168454889045	-20.991324013665597	1
0.0002036021134565561	-19.06812838935727	7
0.0002505940755367552	-19.21092615271838	25
0.00031981118193766397	-19.157655618582258	42
0.0002559901423820162	-19.235729435121648	20
0.0001964590941020122	-19.22261416996174	12
0.00020710478828524857	-19.057693874721288	9
0.00023787206857131098	-19.30924543269572	5
0.00029925478548469974	-20.186795173350223	4
0.00027145428878963356	-19.66960022696082	11
0.0002923366005659923	-19.826439980181764	18
0.00025219343503829494	-19.524971574807967	25
0.0003704970971615805	-20.852236461882125	1
0.00022532786880211884	-19.24996342354252	6
0.00022743881854397216	-19.060044380419786	21
0.0003928125258392547	-20.963804629403178	1
0.00038985684834845643	-20.949027430802396	1
0.0003462796901487355	-20.3194952210007	5
0.0003438950897099189	-19.754915442119806	8
0.00035406464902873025	-20.642298547470226	2
0.00033657129859336843	-20.424884311481986	5
0.0003224491234015324	-20.027999251160733	8
0.00024078046155610124	-19.14242010058967	9
0.0002733550112290632	-19.58496932516114	4
0.0003804232622074429	-20.90186329454012	1
0.00018768768099194653	-19.077183225306495	18
0.0003091918516515613	-19.58244465735954	20
0.00022393598214436787	-19.30109441400617	20
0.00028393028757397613	-19.095885970046126	3
0.00038615676150262676	-20.930528484847976	1
0.00038582463034943703	-20.928867962674136	1
0.0002687161048052178	-19.271231382643677	14
0.0003973397119415665	-20.986438738958377	1
0.0003840804425416067	-20.920147725194365	1
0.0002201175285003131	-19.17980171535769	6
0.00039406333360412517	-20.97005816511891	1
0.00037570995746543116	-20.41557417995049	13
0.00027569400470467436	-19.769036444365742	6
0.00039483662415494195	-20.973924306834675	1
0.000396844279931437	-20.983961778183843	1
0.00039272129405120505	-20.963348507158813	1
0.0003529236948532347	-20.09206182651903	7
0.00021738254078528367	-19.105473395081344	16
0.0002564261424677885	-19.220478372065884	3
0.0002309998592273298	-19.281042815855304	3
0.00019889873522199324	-19.022398795977825	5
0.00020926681111205496	-19.025001325528155	6
0.0003165639721789863	-19.63193977002425	20
0.0003845769435559672	-20.922630030560068	1
0.0003957742729935871	-20.978612173880247	1
0.0002991838475039179	-19.67915824859758	51
0.000319358751550981	-20.352315961322276	5
0.00036800278846442096	-20.641183491715744	2
0.00028471847835070615	-19.838177715166147	30
0.00034906172745591025	-20.74506823523764	1
0.00024888542750468515	-19.231052295498046	9
0.0003843993383354683	-20.921742075895185	1
0.0003001079724235474	-19.719424366586452	4
0.0002499719762180413	-19.088148574089058	6
0.00038121845685943056	-20.90583894795132	1
0.00032120591739266295	-19.502069662281198	5
0.0002900691806130454	-19.835696904633643	4
0.00022051180502033019	-19.090123302876872	21
0.0003648025927872326	-20.645769018958227	2
0.00025974515520276386	-19.602226899978536	14
0.0003896732482947359	-20.948109504382685	1
0.00029419128090405025	-19.764733968965594	7
0.0003763370235849549	-20.881433745023074	1
0.0003989393602144386	-20.994436336901053	1
0.000318159646478649	-19.991984000900022	14
0.00022041062418613934	-19.151418573481784	21
0.0003709884587575528	-20.8546930722231	1
0.0003517571273543397	-20.050991221931884	7
0.0003821142963536558	-20.910317785091642	1
0.0003031087797334412	-19.231942471546663	5
0.00038956457453954117	-20.94756617931823	1
0.00036711681218343353	-19.843899918235362	8
0.00025358192109675617	-19.234894827985066	5
0.00036259198842184464	-20.71826877742136	10
0.000258003846916089	-19.329656586452902	18
0.0002816166810958316	-19.507591135367075	24
0.00038009564312002696	-20.90022533088028	1
0.00038992058820856343	-20.94934610446504	1
0.00038924862655033264	-20.317140954065263	3
0.0003171593943025591	-20.216378439104428	34
0.00037040444756615185	-20.85177325117115	1
0.0002753166724035922	-19.2501698659518	13
0.00027935393629239846	-19.553064250028164	15
0.00039253073527205715	-20.962395789910957	1
0.000384074104967012	-20.920116039870535	1
0.00039993447303416144	-20.99941150073845	1
0.0003881869927743361	-20.940678824592744	1
0.00039029352083894256	-20.95121061761337	1
0.0003831957706040653	-20.915724721345576	1
0.0003508935631945314	-20.540772411732902	17
0.0003616247125093881	-20.107681620443145	4
0.0003811907113921517	-20.905700231774905	1
0.0002573787153247351	-19.60859999000587	11
0.00021245921459076513	-19.10646161814294	24
0.0003442410953584994	-20.72096701373884	1
0.00023743909571769358	-19.015297023742203	28
0.00039440149367071456	-20.971748829434755	1
0.0002920896924597245	-19.760103360080215	10
0.00021186699937278196	-19.030280928451518	10
0.0002616224290621832	-19.347659682946453	27
0.0002077060609085762	-19.034127262965054	2
0.0003799452829369021	-20.899473590443574	1
0.00037325180906573927	-19.172067293257328	28
0.0003208953171022045	-19.942827854061257	7
0.00025867664137281326	-19.428219328553766	8
0.00036927763689295645	-19.884412618501663	4
0.0003995429564015582	-20.997454075053984	1
0.0002915331780222448	-20.01005484275254	6
0.0002546658629235539	-19.6114355051628	10
0.00030768096451023276	-19.761194312514764	14
0.0003273805737654952	-19.047995347421672	9
0.0002344584817625923	-19.328698610449116	6
0.00021234457007602737	-19.082481366652296	20
0.00030207104930469206	-19.791765261788875	9
0.0002511244154008357	-19.19142379277048	5
0.00036427820772032607	-20.708498863753057	2
0.00035686859269567746	-20.577378562339852	5
0.0003857333324977261	-20.92841151013804	1
0.00037373691072000527	-20.74115437970082	2
0.0003334399339231175	-20.557303816229506	2
0.00029963706764432976	-19.998494416285933	12
0.00037278310163112654	-20.74639200526817	17
0.00039231087076172725	-20.961296555794743	1
0.00036043912393284483	-20.80195064132657	1
0.0002588714544316515	-19.57787031106133	12
0.00025085681673830956	-19.100695420831485	8
0.0003433891313482158	-19.324366711772583	22
0.00039270071029343724	-20.963245596649315	1
0.00038883830447286296	-20.943935121110247	1
0.00025593414582693037	-19.591469002448534	17
0.00028728730409728566	-19.614213693948084	13
0.00026148010315141956	-19.383558323159747	23
0.0003993848117006686	-20.9966634151596	1
0.00035526313408972834	-19.374678768217212	18
0.0003852005935300129	-20.925748029581456	1
0.00026282061148974164	-19.57031093957592	4
0.00038916304890631686	-20.945558712656545	1
0.00033534232034310645	-20.383467516939994	15
0.0003299355813996286	-20.313338757342738	11
0.0003797790790541796	-19.248956479360867	13
0.0003815778029784595	-20.907635534007767	1
0.0002069243971403594	-19.028391635319284	17
0.00034342359755035054	-20.54451840404208	16
0.00029833649780276175	-19.16080983144914	5
0.00029459664973406944	-19.575815390330348	10
0.00038874910014929015	-20.94348913537277	1
0.00029965937638178975	-19.75003642777167	5
0.000273866546164374	-19.443959695512966	3
0.0003800219975397788	-20.823290911030405	2
0.000308651531991579	-19.82505895429063	9
0.00020706858152342593	-19.05216541274261	5
0.00039243076383606784	-20.961895972942216	1
0.000395155344679395	-20.97551778125895	1
0.0002200858715057901	-19.181624548423528	12
0.0003426828168307076	-20.474522350964556	3
0.0002729568777659301	-19.65821999296496	9
0.0003096331431110891	-20.547941172753653	1
0.00020851480373769703	-19.004803606839275	15
0.0003828694815520848	-20.91409340732793	1
0.00035449536496747955	-20.17587941025691	7
0.00022350393609348133	-19.293654528407558	37
0.00029540215857438496	-19.6306782623737	8
0.00039921744577265137	-20.995826652838605	1
0.000392580896125313	-20.962646574001187	1
0.00021150242738333748	-19.126005040900075	3
0.00033793017704341916	-20.40339959817882	3
0.0003920888138849146	-19.71877657640183	15
0.0002444643981465482	-19.21375984422224	6
0.0003778806914476971	-20.889151463431933	1
0.00019855093448361725	-19.070238890060224	10
0.00038887592948352043	-20.94412323102974	1
0.0003585797490059193	-20.386603121430742	12
0.00033052274561571	-20.300209540934894	3
0.00025358778968408375	-19.245974634051787	20
0.00025455939844993343	-19.493491900705536	5
0.00038299913767659725	-20.914741635799302	1
0.00031109686465867	-19.48120079317346	5
0.0003101305175932706	-20.550427845107127	1
0.00021823254160917635	-19.060303348107965	8
0.00023857903022389565	-19.03594315418224	2
0.00020261742049346987	-19.062749375087094	7
0.00028218407609000934	-19.66518806338407	2
0.0002833109692417993	-19.858193820998576	11
0.0002299551333007489	-19.19847622365597	15
0.0003898222963232285	-20.948854684574012	1
0.00036711950108945065	-20.83534984008172	1
0.0003737712657495335	-20.868605987862974	1
0.00037376515371234973	-20.86857543013548	1
0.0002694733063919225	-20.001695004847928	9
0.0002834120392910673	-19.682966277602528	9
0.0003832155103773077	-20.915823412271916	1
0.00031606339338628394	-19.043478786752523	19
0.0003588883999311998	-20.713772363697174	5
0.00036660529014472996	-20.670970087918615	17
0.00024244861823723545	-19.43389678310607	2
0.00022608410075210532	-19.024736542506986	4
0.00024404373536335652	-19.10144647045972	8
0.0002146381538800475	-19.168761947470767	13
0.00039537588991295653	-20.976620418717513	1
0.00021989358486237227	-19.11646618678143	7
0.000367670994985664	-20.74184682368304	3
0.00022517791697483023	-19.169704928156126	4
0.0002453000190904232	-19.365557954369862	6
0.00022082455802548056	-19.139695547206898	7
0.0001995229994353349	-19.011343403471283	11
0.0003618150186576279	-20.65403695378789	17
0.0002920734943956059	-19.66676736043243	7
0.0003993963149518566	-20.996720926788623	1
0.00020975500811887648	-19.07509583330894	8
0.00028168734228996674	-19.533213471129564	12
0.00037648068002842355	-20.866108875123725	2
0.00036260627307381325	-20.661568393193704	8
0.00037526418924119324	-20.856352256999703	2
0.00024819292039287097	-19.392471742918246	17
0.0003646271232132351	-19.241402441083896	7
0.00033716905033095984	-20.070674790954207	7
0.00031324670325569135	-20.25055557290542	8
0.0002731951343333095	-19.7565131881798	3
0.0002605461152933517	-19.051115077778373	7
0.0003299418597955871	-19.671735523005314	4
0.00022466119311755525	-19.243252713928495	5
0.00027616656259446705	-19.61370187796883	7
0.00036090931213470824	-20.67333274966335	3
0.00023349972576726844	-19.2873460455304	16
0.000206346425782199	-19.123582230978887	26
0.0002127759950112339	-19.288615805797654	8
0.0003942329324381782	-20.97090609107195	1
0.00022772119230367796	-19.141005400083614	7
0.0003273733249228586	-20.227075435297326	14
0.00021629610569006387	-19.291413221239743	4
0.0003039946110301954	-19.948702867920755	4
0.0002519661284996983	-19.421531289886282	7
0.0003855108343205298	-20.904771790011747	3
0.0003692096589467322	-19.743700304377082	9
0.000279729368799218	-19.192590641547	4
0.0003905010127182673	-20.952247993551165	1
0.0003336582239377449	-20.232830840769818	7
0.00036993745777588754	-20.849438490055718	1
0.0002944776307533628	-19.599420334218582	10
0.000378461837540022	-20.892056960140923	1
0.00021060701707353605	-19.070421993337185	17
0.00022639597558729482	-19.382251298638163	11
0.0002538884319077503	-19.541095263072666	9
0.0003913717516744458	-20.95660133809736	1
0.0002650160628775138	-19.22850584374265	5
0.00024303883377925086	-19.113381180351585	17
0.00038379009736322134	-20.9186961160871	1
0.00037975962147960684	-19.12787571121767	6
0.00024323719261440532	-19.019104020261526	15
0.0002473645671874114	-19.436884047190606	4
0.0003435322200343253	-19.925534180313818	4
0.00030400293081366675	-19.635273720762264	14
0.0003487125938411547	-20.53037478910277	8
0.0002704475842939209	-19.732190028591003	10
0.0003811116805428006	-20.905305109316487	1
0.0003810679795019627	-20.815913882947388	3
0.0002442290000870385	-19.306804773055802	10
0.0002241325040820087	-19.205039804408546	7
0.00026910038814594755	-19.687625826217754	14
0.00039330108831285376	-20.966247245258167	1
0.0003872757129215073	-20.936122791869938	1
0.00020174847267568735	-19.020481495933762	13
0.0002656794653522111	-19.18874438889636	9
0.00020031640120678765	-19.007521797484628	3
0.0003826148746505143	-20.90406839207865	2
0.0003074682238192372	-19.99134993547197	7
0.00038988782211791265	-20.94918228719119	1
0.0002792362755015689	-19.79623994573739	5
0.0003754301371521384	-20.876899677633176	1
0.0003987892245809875	-20.9936857191224	1
0.0002686465350541845	-19.569974380759405	19
0.00021206438485966368	-19.035157094551636	11
0.00039715956247156743	-20.985538064069356	1
0.00038723126793773453	-20.935900584828044	1
0.00032152615899709065	-20.269553989685598	9
0.0003879679341531558	-20.939583619598128	1
0.00021008992710977093	-19.05740070074651	15
0.00024355690011530046	-19.07140201852158	18
0.00024275682825783862	-19.116067538613756	16
0.0003928095199448911	-20.963789601140412	1
0.00019337570706826965	-19.134740533768685	9
0.00037059475481293646	-20.75816232453527	6
0.0003941252787442285	-20.97036786590342	1
0.0003436872749706253	-20.526768623367957	7
0.00020100490918790984	-19.00195726826098	9
0.00031386269761493103	-19.89438063830086	5
0.000253989258297797	-19.10985699746005	15
0.00022511859410817103	-19.026041500565498	38
0.0003688365612090385	-20.61944980593027	3
0.0003954221282834023	-20.976851591971425	1
0.0003356749369231725	-20.610269425034588	2
0.00025753203090371626	-19.686304143171224	4
0.0003001988131016939	-19.341433286105833	9
0.0003733833231678343	-20.749655437354683	12
0.0003956699609359796	-20.97809065554933	1
0.0003933918462812219	-20.966700998594703	1
0.0003898507802927726	-20.94899709296471	1
0.00035932917518712173	-20.79640134404928	1
0.0003876358773097071	-20.937923468943104	1
0.00024240662256978066	-19.085313171562362	21
0.0003918684401409186	-20.95908458064823	1
0.00039002268113291533	-20.83498945072447	7
0.00039504242481976944	-20.974953227380233	1
0.00023636922037278277	-19.25748587432585	3
0.0003793279335352347	-20.896387091749816	1
0.00025527516431351723	-19.32539885567352	8
0.00038823463169667034	-20.940917000042756	1
0.0002265807520877245	-19.176922061149426	8
0.0003631947544789363	-20.692681975835498	12
0.00020845833430473728	-19.042616924380372	9
0.00019728423838644762	-19.003902107718872	6
0.0002272142250778497	-19.120744993170394	2
0.0003910056868831911	-20.954771161382222	1
0.00020563126857811093	-19.029677644119204	24
0.0002641759646712075	-19.301693773199347	6
0.0002560681784453697	-19.392939135141045	16
0.0001722276961070001	-19.135115012477144	8
0.00039390724303933365	-20.969277775078787	1
0.00035836710249380484	-20.791591367554282	1
0.00029413946491025104	-19.609971630601482	17
0.0002568650190946746	-19.602552373162865	12
0.0003394821407532463	-20.399300682418854	7
0.0002552343820304327	-19.457855299162006	12
0.0003227450623587592	-20.23705763416004	12
0.00035554423464023016	-20.641560517179357	8
0.00034975873026120473	-20.661162269110314	9
0.0003622782252988892	-20.637116561998265	3
0.0002564500860194256	-19.53336693482941	10
0.0002953760640255137	-19.977535702133565	2
0.00020496164739051864	-19.04136026187024	11
0.00023633523826195268	-19.381592029697337	10
0.00027849636308477414	-19.37736755823792	7
0.00038956535017774344	-20.947570057197257	1
0.00026101422888665914	-19.3187782452002	5
0.0002527331050483489	-19.437267555569225	5
0.0003338356913852445	-19.543582891225554	12
0.00019876737111231316	-19.107198293008995	7
0.0003570696196153814	-20.754434596752162	3
0.0003890803560556951	-20.945145281664733	1
0.0003321116884649504	-20.395497199992068	10
0.00021076306842261272	-19.13107417513987	11
0.00033563375819855104	-20.531468570030203	5
0.0002578226612433304	-19.573539046161294	6
0.00031436641664725327	-19.869549131891148	5
0.00027987162655958314	-19.86710774428487	20
0.0002375357425260772	-19.321940869295283	4
0.0003882313786047835	-20.940900735891805	1
0.00036544486530177477	-20.826977334727026	1
0.00032818296017756235	-20.13043931083522	3
0.00034386744328367255	-20.478425731777953	3
0.0003440819025650492	-19.33699829025933	4
0.00025725455266495243	-19.57334010653061	4
0.00022840509873521924	-19.314773748371564	4
0.0002491589650879931	-19.228278992464112	5
0.00024125357240574366	-19.155600762005058	27
0.0002993536015083589	-19.908538311562808	16
0.0003735041908749202	-20.743191909060634	17
0.00038152252711460053	-20.89189642962972	2
0.00025063572899980716	-19.38740512466538	14
0.00035198269101030185	-19.86386285735958	13
0.0003110008312045707	-20.202451366196875	11
0.00021109332356623273	-19.07658749580959	13
0.00026467705845959226	-19.76023767825223	6
0.00021038224875390184	-19.039212486511474	3
0.00022793983235268444	-19.107419675862424	9
0.00030589862436780044	-20.067862792108585	2
0.0002510289070456092	-19.630130860403238	32
0.00038829975756929125	-20.94124260321048	1
0.00021289648829928823	-19.077367924565163	20
0.00036196891366967356	-19.82676424344167	13
0.00024097857558476112	-19.4202765162418	6
0.00037025168147301386	-19.445253760420428	22
0.00023822006002081303	-19.071098352818755	9
0.00036140224968916754	-20.656261255151932	7
0.00023391440039834563	-19.090226146269295	15
0.00028986527094307987	-19.94829579189549	11
0.00025508857824994754	-19.141571617836007	4
0.0003025602430151753	-20.08911182421091	18
0.0003729792537586662	-20.83000131449293	2
0.00039964309262775826	-20.997954715907493	1
0.00023611852744378356	-19.098010466516573	8
0.0003708827878826987	-20.398917403361843	3
0.00025985658722693997	-19.58684732419608	25
0.00022877794973838404	-19.028461869868348	13
0.0003088415812991712	-19.2912016327952	3
0.0003960446621433756	-20.97996401087138	1
0.0003711783546385743	-20.75711210666254	3
0.0002775108693072326	-19.043518769277327	26
0.00039767476354770313	-20.988113862222264	1
0.00029251577090460515	-19.8016124060008	12
0.00027006916501350373	-19.725492353389328	13
0.00038353138983713284	-20.837920806791807	2
0.00038317864686385883	-20.915639109532172	1
0.00022257382567397187	-19.238574943601915	12
0.0002728105053233622	-19.733219010069615	16
0.0003608799574263239	-19.367579811370078	18
0.0002860130765658085	-19.206024610987644	20
0.0003774787015928	-20.88714167584861	1
0.00039081474092983573	-20.95381650841906	1
0.00024251762638823258	-19.271681340145943	13
0.00021556956666455082	-19.12894474659022	24
0.00021033034994295238	-19.199964335850556	13
0.0002485499971231424	-19.14841383727649	7
0.0003723190873703763	-20.36709043833799	12
0.00034418847275774034	-19.855965988675997	21
0.0002947269336294503	-19.167511958311042	13
0.00027095028907540456	-19.024705585278152	12
0.00021767785848720984	-19.08997309836311	5
0.00016351009470572938	-19.02287218558879	4
0.0003641176709570154	-19.471304794753923	3
0.0003865187379692711	-19.944822822217894	12
0.0003780435536257777	-19.670303253772822	9
0.00039000593024554175	-20.948292887104266	2
0.000249407386677825	-19.2412011338126	9
0.0002571971207759954	-19.41307532054006	10
0.00026019096254821305	-19.72897889019059	14
0.00030751556372898424	-19.118000079711752	5
0.00022328315801397404	-19.12361936569101	8
0.0003808244964359221	-20.903869304295288	1
0.0003481758819374429	-20.65035092126435	3
0.00028085711730781176	-19.825622084533364	3
0.00038323418465086354	-20.867750942885962	2
0.0002554332615692607	-19.411897310256958	15
0.00036103374633137574	-20.79586514638108	2
0.0002965643382347071	-19.50610917002819	11
0.0003981840091951971	-20.9906598856274	1
0.00025006305933444585	-19.046738029313012	39
0.0002724975840522531	-19.326693310878788	21
0.0003167613423258789	-20.217627277399544	14
0.0002727335819926567	-19.247873227360323	9
0.0003964846093374818	-20.982163569883284	1
0.0003964799084897094	-20.98214006753523	1
0.0003967449218025687	-20.98346502750402	1
0.00023879873813752064	-19.134995689973806	4
0.00038405806370855455	-20.46459376735199	16
0.00027302317576832064	-19.22431909735406	26
0.00029878234793386953	-19.937823994509486	4
0.0003457052196194416	-20.728287046133282	1
0.00022022050217893597	-19.173894482813388	14
0.0002705762006063204	-19.372376883408087	4
0.00016063925918292514	-19.004134939721236	10
0.00018409944980505604	-19.05169880393241	13
0.0003495798348938401	-20.5926147725351	19
0.000397001639106462	-20.984748510764867	1
0.00023118136293211097	-19.32896570695857	8
0.00035998470100522207	-19.757692072798402	4
0.0003618783239957483	-20.809146062756003	1
0.00022995890556562056	-19.358594515596003	3
0.00022329348082265828	-19.199022998038277	6
0.0003988504470271583	-20.993991806727934	1
0.00039411549370064764	-20.970318944621322	1
0.00039745085402919424	-20.97519782149754	2
0.00038884952582139936	-20.9439912233394	1
0.00032563314054128074	-20.62793472427408	1
0.000337697726260719	-20.399440142778232	13
0.00020741530450318657	-19.139825654941244	4
0.0002690635622393709	-19.724037894803985	7
0.000394216484327784	-20.97082385713585	1
0.00024872013885363835	-19.558945363433946	38
0.0003116416143039705	-19.10264483383782	3
0.0003932375643519277	-20.965929651004586	1
0.00038474624932363026	-20.437300528405558	3
0.00039518356380215976	-20.97565886552228	1
0.00039505084501178736	-20.974995324953497	1
0.0003142540872550226	-19.308598949454172	36
0.0002697926339195965	-19.38098455922215	8
0.0003875680571637922	-20.93758439549262	1
0.0002560894496403976	-19.636023984036004	5
0.00033292026225183684	-20.380789516435335	4
0.00035395577733146946	-20.57092558253433	11
0.00024608998136425343	-19.233426491883613	5
0.00030056855474490526	-20.029629918275965	5
0.0003609534454429127	-19.499956098325963	11
0.0002211492981659912	-19.014391035880074	22
0.00023134885088534456	-19.179980756046696	8
0.000225704190501587	-19.128624742591768	7
0.00039731401080180467	-20.986310243597256	1
0.00035610955889423256	-20.713021931683414	2
0.00036277880538334656	-20.813648107496093	1
0.0002931422486420548	-20.151832874851788	3
0.00020580488603998888	-19.009591980463664	10
0.00034275086510254403	-20.60956150218694	10
0.00024984730287813596	-19.406619543813306	7
0.0003974747355563931	-20.98711380272237	1
0.0002877465432469486	-19.223379810773384	5
0.00024271832432465958	-19.36030702263128	4
0.0002089509382801366	-19.013026538636897	13
0.0003270161333685327	-20.29539299018632	13
0.0002308432314428826	-19.217460391575447	14
0.00036564735160958935	-20.670827352687226	6
0.00028839074720058696	-19.553995934616616	19
0.00033589425833174856	-19.675799984654578	19
0.00038284779411386393	-19.24516812460512	6
0.00038870513574613	-20.90780321796284	2
0.0003984450444200834	-20.991964956756423	1
0.00020913285379580007	-19.116867450607632	2
0.00031053287208521765	-19.511429421476837	15
0.00026296847487111474	-19.126153582497217	5
0.00038148603174309096	-20.40001053346504	6
0.00020780810152952128	-19.008017458697257	22
0.0003710977923570387	-20.855239696243608	1
0.0003288380195901313	-20.251635411414657	14
0.00036030017351868816	-20.801255945145392	1
0.00039463204133178984	-20.972901475007642	1
0.0001766188725644606	-19.04647454525779	12
0.00038312417635931516	-19.571233580206318	17
0.00027339641738872403	-19.739891643568278	3
0.00025186604915441627	-19.678079763864783	9
0.0003888131417674658	-20.94380931770438	1
0.00021167034916184618	-19.091047761806763	10
0.0002650274062310099	-19.70278030787334	6
0.0003945055252942904	-20.972268945708308	1
0.00033057561486490015	-19.2148953134687	6
0.00037635645596156836	-20.88082329603724	2
0.000381464086317108	-20.907066996440914	1
0.00030836802678112566	-19.459971965908274	17
0.00034241185936500617	-20.099441813729694	22
0.0002923844182403675	-19.454100320668484	20
0.00023566247964466343	-19.305354026404295	6
0.00024123460363098295	-19.436913422521823	17
0.0002626638619248282	-19.870823458594458	17
0.00039869655953604806	-20.993222431170082	1
0.00038078432557516286	-20.811957521355883	4
0.0003874375416946225	-20.936931870643615	1
0.00039362882792354144	-20.967885811485893	1
0.000392661755957846	-20.96305084063985	1
0.00027899293743545087	-19.72062726321933	11
0.0003711523352839445	-20.094271217256438	2
0.00039911444467347496	-20.995311688772542	1
0.00022541818348939963	-19.0396322174808	6
0.00031488602416532773	-20.082565281780052	7
0.00020572318355893346	-19.054235144394852	13
0.00027762025416764306	-19.24717299851403	8
0.0003637637999211484	-20.818572683993732	1
0.00020615723509308974	-19.01674843882541	24
0.00028024699117813425	-19.21731954708225	13
0.0003913845695777087	-20.95666542245797	1
0.0003927460677029286	-20.9634723654528	1
0.00021374682278509216	-19.087505356137985	5
0.00033866209467281656	-20.406712386917015	7
0.00035556541505391855	-20.732299849828124	4
0.0003952672012626115	-20.976077019183297	1
0.0003773390627318858	-19.39289161257523	9
0.00037352586004883075	-20.867379058068252	1
0.00024091357091414505	-19.163061679465148	35
0.0003944051957958789	-20.971767338571482	1
0.00024286497097060562	-19.412166433945067	6
0.00025240926659563927	-19.20425740080876	6
0.0003968201694057982	-20.983841235253553	1
0.0003042788479963829	-20.05182790709469	12
0.0003036130780967014	-19.470714648603256	10
0.00037826527055735145	-19.981944665121908	4
0.0003957566024071428	-20.97852382805561	1
0.000378669133844068	-20.89309335828099	1
0.00037110347753849287	-20.855268119864146	1
0.00027036819169537723	-19.75026982803275	5
0.0003973714304563345	-20.986597318774173	1
0.000296367828498603	-19.148827682364846	9
0.0002225356489956367	-19.094155828296056	29
0.00035900342173288857	-20.79477270780494	1
0.0003840176073136011	-20.852672080969434	6
0.00039887359756874443	-20.99410755012409	1
0.00037164434133100835	-20.857972221276718	1
0.00026255195624301373	-19.222679604384833	3
0.00038819882439375706	-20.940737977930855	1
0.00030804530317963375	-19.82884567851741	2
0.00034243748757643904	-20.29970704309841	7
0.000359245892651258	-19.162892579312732	12
0.0003879154211694761	-20.939321075801868	1
0.0002917802108906258	-20.17413194756524	8
0.00039186432291050786	-20.959063996152235	1
0.00026911023256381687	-19.585410354617242	5
0.0002648967540353791	-19.172758820197	12
0.00034408317345167877	-19.831797002745148	12
0.0002711803225733212	-19.161272739806392	12
0.00038658162317112797	-20.93265262229966	1
0.0003849553392095064	-20.92452185662683	1
0.0003780554074459314	-20.890024973147618	1
0.0003356400902316473	-20.487192014901574	2
0.00038762289758232786	-20.891726759367625	3
0.00038281925174893367	-20.913842278515954	1
0.0003915527582533676	-20.957506298186242	1
0.0002023067473599222	-19.010875576258115	16
0.000394075834350533	-20.97012066382281	1
0.0003949382541399165	-20.974432415881225	1
0.00030476661221564346	-19.53396398664482	4
0.0002567117092220863	-19.6526660393536	6
0.00038702752178191907	-20.929826087689243	2
0.00039200727432567794	-20.95977869572917	1
0.0003866057903549984	-20.93277344849832	1
0.00037214063167641113	-20.756673864392145	2
0.00028248155397110223	-19.828410684238484	2
0.00038041408939692805	-20.9018174341771	1
0.00023167358461769608	-19.36298967150938	15
0.00038160156421216974	-20.907754330618907	1
0.0003930880565056521	-20.94268617002189	2
0.0002090959302528497	-19.008413835064168	12
0.00033939594530106007	-20.696743212301683	1
0.00039846075988181167	-20.99204352774388	1
0.00023860646530296468	-19.28938282280086	12
0.0002782621563117224	-19.69192733546354	8
0.00024180984914359005	-19.34969192347812	12
0.00023552178679542732	-19.355835885637486	4
0.00031151712804418163	-19.474969390782956	3
0.000381548269192078	-20.907487876955145	1
0.00027702266989894825	-19.267790705366032	7
0.00030642438665645503	-20.037621214019076	7
0.000273617071304457	-19.563483956799278	9
0.0003784518039426289	-20.89200679618974	1
0.00029065346174440935	-19.609320948626973	8
0.0002229749880952726	-19.16354860627959	20
0.00034693873838782195	-20.734454143820663	1
0.00024918439135238475	-19.054596368117778	5
